Language model created by QuickLM on Sun Mar 22 14:00:41 EDT 2020
Copyright (c) 1996-2010 Carnegie Mellon University and Alexander I. Rudnicky

The model is in standard ARPA format, designed by Doug Paul while he was at MITRE.

The code that was used to produce this language model is available in Open Source.
Please visit http://www.speech.cs.cmu.edu/tools/ for more information

The (fixed) discount mass is 0.5. The backoffs are computed using the ratio method.
This model based on a corpus of 357 sentences and 262 words

\data\
ngram 1=262
ngram 2=682
ngram 3=772

\1-grams:
-0.9852 </s> -0.3010
-0.9852 <s> -0.2390
-3.0607 ABOVE -0.2536
-3.2368 ACTION -0.3001
-3.5378 ACTIVATE -0.2985
-3.5378 ACTIVE -0.3008
-3.5378 ACTIVITIES -0.3008
-3.0607 ADD -0.2934
-2.3917 ALL -0.2494
-3.2368 AND -0.2991
-3.5378 APPLICATION -0.3001
-3.5378 APPLICATIONS -0.2536
-3.2368 AS -0.2535
-3.5378 AT -0.2999
-2.7597 BACK -0.2511
-3.0607 BAR -0.2536
-2.8388 BEGINNING -0.2511
-3.0607 BELOW -0.2536
-3.5378 BLOCK -0.3005
-3.5378 BOOKMARK -0.3009
-3.2368 BOOKMARKS -0.2529
-3.0607 BOTTOM -0.2494
-3.5378 BOX -0.2536
-3.5378 BRACKET -0.2536
-3.5378 BREAKPOINT -0.2536
-3.5378 BROWSER -0.3008
-3.5378 BROWSING -0.2536
-3.5378 CARET -0.3009
-3.0607 CASE -0.2536
-3.0607 CHANGE -0.2912
-3.2368 CHARACTER -0.2536
-3.5378 CHECK -0.3009
-3.0607 CLEAR -0.2996
-2.4586 CLOSE -0.2403
-3.5378 CODE -0.2536
-3.2368 COMMAND -0.3008
-2.9358 COMMENT -0.2536
-3.2368 CONSOLE -0.2536
-3.5378 CONTEXT -0.3001
-3.5378 CONTINUE -0.2536
-3.5378 CONTROL -0.2536
-2.7597 COPY -0.2485
-3.5378 COUNTERCLOCKWISE -0.2536
-2.9358 CURRENT -0.2953
-3.0607 CURSOR -0.2527
-3.5378 CUT -0.2536
-3.5378 DEBUG -0.2536
-3.5378 DEBUGGER -0.2536
-3.5378 DECREASE -0.3008
-3.0607 DEFINITION -0.2441
-2.5378 DELETE -0.2358
-3.5378 DESIGN -0.3007
-3.5378 DETAILS -0.2536
-3.2368 DEVELOPER -0.3008
-3.5378 DIRECTLY -0.2536
-2.9358 DOCUMENT -0.2536
-2.5378 DOWN -0.2501
-3.5378 DOWNLOADS -0.2536
-2.3074 EDITOR -0.2468
-3.5378 EIGHT -0.2536
-2.5836 END -0.2511
-3.5378 ENTER -0.3005
-3.2368 ERASE -0.2962
-3.2368 ERROR -0.2536
-3.2368 EXIT -0.3004
-3.5378 EXPAND -0.3001
-3.5378 EXPLORER -0.2536
-3.5378 EXTENSIONS -0.2536
-3.2368 FIFTEEN -0.3008
-2.5378 FILE -0.2499
-3.0607 FILES -0.2536
-2.6347 FIND -0.2492
-3.5378 FIREFOX -0.2536
-3.5378 FIRST -0.2989
-3.5378 FIVE -0.2536
-3.5378 FIX -0.2536
-2.4586 FOCUS -0.2467
-3.0607 FOLD -0.2990
-3.0607 FOLDER -0.2536
-3.5378 FORCE -0.3008
-3.2368 FORMAT -0.2996
-2.7597 FORWARD -0.2511
-3.5378 FOUR -0.2536
-3.2368 FRAME -0.2536
-3.0607 FULL -0.3001
-3.5378 GEDIT -0.2536
-2.0907 GO -0.2376
-2.4586 GROUP -0.2485
-3.5378 GUIDE -0.2536
-3.5378 HAND -0.3008
-3.5378 HELP -0.2536
-3.2368 HIDDEN -0.3007
-2.7597 HIDE -0.2951
-3.5378 HIGHLIGHT -0.2536
-3.5378 HINTS -0.2536
-3.0607 HISTORY -0.2529
-3.2368 HOME -0.2532
-3.5378 HOVER -0.2536
-2.4586 IN -0.2503
-3.5378 INCREASE -0.3008
-3.5378 INDENT -0.2979
-3.5378 INFO -0.2536
-3.2368 INPUT -0.3005
-2.7597 INSERT -0.2974
-3.5378 INSPECTOR -0.2536
-3.5378 INTO -0.2536
-3.5378 INVERT -0.3001
-3.2368 ITEM -0.3004
-3.5378 ITEMS -0.2536
-3.5378 JUMP -0.2925
-3.5378 KEEP -0.3005
-3.5378 KEYBOARD -0.3008
-3.5378 LANGUAGE -0.2536
-3.2368 LAST -0.2961
-3.5378 LAYOUT -0.2536
-2.6347 LEFT -0.2536
-3.2368 LIBRARY -0.2985
-2.1399 LINE -0.2494
-3.5378 LINES -0.2536
-3.5378 LINKS -0.2536
-3.5378 LIST -0.2536
-2.9358 LOCATION -0.2532
-3.5378 LOCK -0.3001
-3.5378 LOG -0.3007
-3.5378 LOWER -0.3007
-3.2368 MARKDOWN -0.3005
-3.5378 MATCH -0.2536
-3.2368 MATCHING -0.3008
-3.5378 MAXIMIZE -0.2985
-2.6927 MENU -0.2532
-2.8388 MODE -0.2512
-2.0465 MOVE -0.2767
-3.5378 MOVES -0.2995
-3.5378 MUTE -0.2536
-3.5378 NAUTILUS -0.2536
-3.5378 NETWORK -0.2536
-2.5378 NEW -0.2911
-2.4239 NEXT -0.2432
-3.5378 NINE -0.2536
-3.2368 NOTIFICATION -0.2535
-3.5378 NUMBER -0.3009
-2.2825 OF -0.2424
-3.2368 OFF -0.2536
-2.9358 ON -0.2513
-2.4239 ONE -0.2452
-3.5378 ONS -0.2536
-2.2591 OPEN -0.2447
-3.0607 OUT -0.2536
-3.5378 OUTDENT -0.2979
-3.5378 OUTPUT -0.3005
-3.5378 OVER -0.2536
-3.2368 OVERVIEW -0.2536
-2.3917 PAGE -0.2499
-3.5378 PALETTE -0.2536
-2.9358 PANEL -0.2536
-3.5378 PARAMETER -0.3009
-3.2368 PARTIAL -0.3003
-3.0607 PASTE -0.2516
-3.5378 PATH -0.2536
-3.5378 PAUSE -0.2536
-3.5378 PEEK -0.3007
-3.2368 PERCENT -0.2536
-3.5378 PERMANENTLY -0.2536
-3.5378 PLAIN -0.3008
-3.5378 PLAY -0.2536
-3.5378 PRESENTATION -0.3004
-2.9358 PREVIEW -0.2434
-2.3917 PREVIOUS -0.2413
-3.2368 PRINT -0.2530
-3.5378 PRIVATE -0.2985
-3.5378 PROBLEMS -0.3005
-3.5378 PROFILER -0.2536
-3.5378 PROMPT -0.2536
-3.5378 PROPERTIES -0.2536
-2.8388 QUICK -0.2975
-3.5378 QUIT -0.2536
-3.0607 READER -0.2996
-3.5378 RECORD -0.3009
-3.5378 REDO -0.2536
-3.5378 REFERENCES -0.2536
-3.5378 REFRESH -0.2536
-3.2368 REGION -0.2536
-3.2368 REGIONS -0.2536
-3.2368 RELOAD -0.2536
-3.2368 REMOVE -0.2935
-3.2368 RENAME -0.2533
-3.0607 REPLACE -0.2519
-3.5378 RESET -0.3004
-3.5378 RESIZE -0.2985
-3.5378 RESPONSIVE -0.3009
-3.0607 RESTORE -0.2459
-2.6347 RIGHT -0.2536
-3.2368 ROTATE -0.2535
-2.7597 SAVE -0.2474
-2.6927 SCREEN -0.2532
-3.5378 SCREENCAST -0.2536
-2.7597 SCREENSHOT -0.2536
-2.3337 SCROLL -0.2849
-2.9358 SEARCH -0.2530
-3.5378 SECOND -0.2989
-3.2368 SECONDS -0.2536
-2.7597 SEEK -0.2910
-2.6927 SELECT -0.2980
-3.5378 SELECTED -0.3009
-2.6927 SELECTION -0.2533
-3.5378 SETTINGS -0.2536
-3.5378 SEVEN -0.2536
-3.2368 SHORTCUTS -0.2536
-2.1761 SHOW -0.2932
-3.5378 SHRINK -0.3001
-2.9358 SIDE -0.2530
-2.8388 SIDEBAR -0.2535
-3.5378 SIX -0.2536
-2.9358 SOURCE -0.2535
-3.5378 SPELLING -0.2536
-3.0607 SPLIT -0.2984
-2.8388 START -0.2511
-3.0607 STEP -0.3004
-3.0607 STOP -0.2536
-3.5378 STYLE -0.2989
-3.2368 SUBREGIONS -0.2536
-3.5378 SUGGESTION -0.2536
-2.2591 SWITCH -0.2920
-3.2368 SYMBOL -0.2536
-3.5378 SYMBOLS -0.2536
-2.0063 TAB -0.2360
-3.2368 TABS -0.2536
-3.0607 TEN -0.2533
-2.5378 TERMINAL -0.2536
-3.2368 TEXT -0.2526
-3.5378 THIRD -0.2989
-3.5378 THIS -0.2993
-3.5378 THREE -0.2536
-1.7117 TO -0.2803
-2.3917 TOGGLE -0.2851
-3.2368 TOOL -0.2536
-3.5378 TOOLBAR -0.2536
-3.5378 TOOLS -0.2536
-3.0607 TOP -0.2494
-3.5378 TRASH -0.2536
-3.2368 TRIGGER -0.3008
-3.5378 TRIM -0.2979
-2.9358 TURN -0.2995
-3.5378 TWO -0.2536
-2.9358 UNDO -0.2519
-3.0607 UNFOLD -0.2990
-3.5378 UNMUTE -0.2536
-2.5378 UP -0.2501
-3.5378 UPPER -0.3007
-3.2368 USER -0.3008
-3.0607 VIEW -0.2532
-3.5378 VISIBILITY -0.2536
-3.2368 VOLUME -0.2536
-3.2368 WARNING -0.2536
-3.5378 WEB -0.3008
-2.2368 WINDOW -0.2396
-2.9358 WINDOWS -0.2509
-2.4239 WORD -0.2416
-2.8388 WORKSPACE -0.2499
-3.5378 WRAP -0.2536
-3.2368 ZEN -0.3004
-2.8388 ZOOM -0.2506

\2-grams:
-2.8537 <s> ACTIVATE 0.0000
-2.3766 <s> ADD 0.0000
-2.8537 <s> BACK -0.2218
-2.8537 <s> BOOKMARK 0.0000
-2.8537 <s> BOOKMARKS -0.1761
-2.8537 <s> BROWSER 0.0000
-2.8537 <s> CARET 0.0000
-2.3766 <s> CHANGE 0.0000
-2.8537 <s> CHECK 0.0000
-2.3766 <s> CLEAR 0.0000
-1.9506 <s> CLOSE 0.0000
-2.8537 <s> CODE 0.0000
-2.8537 <s> CONTINUE 0.0000
-2.0755 <s> COPY 0.0000
-2.8537 <s> CUT 0.0000
-2.8537 <s> DEBUGGER 0.0000
-2.8537 <s> DECREASE 0.0000
-1.8537 <s> DELETE 0.0000
-2.8537 <s> DEVELOPER -0.1761
-2.8537 <s> DOWNLOADS 0.0000
-2.8537 <s> ENTER 0.0000
-2.5527 <s> ERASE 0.0000
-2.5527 <s> EXIT 0.0000
-2.8537 <s> EXPAND 0.0000
-2.2516 <s> FIND -0.0969
-2.8537 <s> FIREFOX 0.0000
-1.8537 <s> FOCUS -0.0669
-2.3766 <s> FOLD 0.0000
-2.8537 <s> FORCE 0.0000
-2.5527 <s> FORMAT 0.0000
-2.8537 <s> FORWARD -0.2218
-2.8537 <s> FULL 0.0000
-2.8537 <s> GEDIT 0.0000
-1.4065 <s> GO 0.0000
-2.8537 <s> HAND 0.0000
-2.0755 <s> HIDE 0.0000
-2.8537 <s> HISTORY -0.2218
-2.8537 <s> HOME -0.1761
-2.8537 <s> INCREASE 0.0000
-2.8537 <s> INDENT 0.0000
-2.0755 <s> INSERT 0.0000
-2.8537 <s> INSPECTOR 0.0000
-2.8537 <s> INVERT 0.0000
-2.8537 <s> JUMP 0.0000
-2.8537 <s> KEEP 0.0000
-2.8537 <s> KEYBOARD 0.0000
-2.5527 <s> LIBRARY 0.0000
-2.8537 <s> LOCK 0.0000
-2.8537 <s> LOG 0.0000
-2.8537 <s> MAXIMIZE 0.0000
-2.8537 <s> MENU -0.2688
-1.3623 <s> MOVE 0.0000
-2.8537 <s> MUTE 0.0000
-2.8537 <s> NAUTILUS 0.0000
-2.8537 <s> NETWORK 0.0000
-2.0086 <s> NEW 0.0000
-2.3766 <s> NEXT -0.2083
-1.6232 <s> OPEN -0.0000
-2.8537 <s> OUTDENT 0.0000
-2.5527 <s> PAGE -0.2688
-2.3766 <s> PASTE 0.0000
-2.8537 <s> PAUSE 0.0000
-2.8537 <s> PEEK 0.0000
-2.8537 <s> PLAY 0.0000
-2.3766 <s> PREVIOUS -0.2156
-2.5527 <s> PRINT 0.0000
-2.8537 <s> PROFILER 0.0000
-2.2516 <s> QUICK 0.0000
-2.8537 <s> QUIT 0.0000
-2.8537 <s> RECORD 0.0000
-2.8537 <s> REDO 0.0000
-2.8537 <s> REFRESH 0.0000
-2.8537 <s> RELOAD 0.0000
-2.5527 <s> REMOVE 0.0000
-2.5527 <s> RENAME 0.0000
-2.5527 <s> REPLACE 0.0000
-2.8537 <s> RESET 0.0000
-2.8537 <s> RESIZE 0.0000
-2.8537 <s> RESPONSIVE 0.0000
-2.3766 <s> RESTORE 0.0000
-2.5527 <s> ROTATE 0.0000
-2.0755 <s> SAVE 0.0000
-1.6496 <s> SCROLL 0.0000
-2.8537 <s> SEARCH -0.1761
-2.0755 <s> SEEK 0.0000
-2.0086 <s> SELECT 0.0000
-2.8537 <s> SHORTCUTS 0.0000
-1.4920 <s> SHOW -0.0000
-2.8537 <s> SHRINK 0.0000
-2.8537 <s> SPLIT -0.2218
-2.8537 <s> START -0.2041
-2.3766 <s> STEP 0.0000
-2.8537 <s> STOP 0.0000
-2.8537 <s> STYLE 0.0000
-1.5749 <s> SWITCH 0.0000
-2.8537 <s> TERMINAL 0.0000
-2.8537 <s> TEXT -0.1761
-1.7076 <s> TOGGLE -0.0000
-2.5527 <s> TRIGGER 0.0000
-2.8537 <s> TRIM 0.0000
-2.2516 <s> TURN 0.0000
-2.2516 <s> UNDO 0.0000
-2.3766 <s> UNFOLD 0.0000
-2.8537 <s> UNMUTE 0.0000
-2.8537 <s> USER -0.1761
-2.5527 <s> VIEW -0.1249
-2.8537 <s> WEB 0.0000
-2.8537 <s> ZEN 0.0000
-2.5527 <s> ZOOM -0.2041
-0.3010 ABOVE </s> -0.3010
-0.3010 ACTION MENU -0.0580
-0.3010 ACTIVATE WINDOW -0.2900
-0.3010 ACTIVE NOTIFICATION -0.1761
-0.3010 ACTIVITIES OVERVIEW 0.0000
-0.7782 ADD LINE -0.2742
-0.7782 ADD ONS 0.0000
-0.7782 ADD TAB -0.2881
-1.1461 ALL </s> -0.3010
-1.4472 ALL APPLICATIONS 0.0000
-0.9700 ALL OF -0.2632
-1.1461 ALL REGIONS 0.0000
-1.1461 ALL SUBREGIONS 0.0000
-1.4472 ALL SYMBOLS 0.0000
-1.1461 ALL TABS 0.0000
-1.4472 ALL WINDOWS -0.1761
-0.6021 AND CLOSE -0.2430
-0.6021 AND REPLACE -0.1249
-0.3010 APPLICATION MENU -0.0580
-0.3010 APPLICATIONS </s> -0.3010
-0.6021 AS </s> -0.3010
-0.6021 AS PLAIN 0.0000
-0.3010 AT END -0.1249
-0.7782 BACK </s> -0.3010
-1.0792 BACK FIFTEEN 0.0000
-0.7782 BACK ONE -0.1871
-1.0792 BACK TEN -0.1249
-0.3010 BAR </s> -0.3010
-0.6990 BEGINNING </s> -0.3010
-0.5229 BEGINNING OF -0.1597
-0.3010 BELOW </s> -0.3010
-0.3010 BLOCK COMMENT 0.0000
-0.3010 BOOKMARK THIS 0.0000
-0.6021 BOOKMARKS </s> -0.3010
-0.6021 BOOKMARKS SIDEBAR -0.0792
-0.7782 BOTTOM </s> -0.3010
-0.7782 BOTTOM IN -0.1513
-0.7782 BOTTOM OF -0.2762
-0.3010 BOX </s> -0.3010
-0.3010 BRACKET </s> -0.3010
-0.3010 BREAKPOINT </s> -0.3010
-0.3010 BROWSER CONSOLE 0.0000
-0.3010 BROWSING </s> -0.3010
-0.3010 CARET BROWSING 0.0000
-0.3010 CASE </s> -0.3010
-0.7782 CHANGE FILE -0.2788
-0.4771 CHANGE TO -0.2945
-0.3010 CHARACTER </s> -0.3010
-0.3010 CHECK SPELLING 0.0000
-0.7782 CLEAR HIGHLIGHT 0.0000
-0.7782 CLEAR HISTORY -0.1249
-0.7782 CLEAR SCREEN -0.1091
-1.3802 CLOSE </s> -0.3010
-1.0792 CLOSE ALL -0.2341
-1.0792 CLOSE EDITOR -0.2467
-1.3802 CLOSE FOLDER 0.0000
-1.3802 CLOSE QUICK -0.1461
-1.0792 CLOSE TAB -0.2167
-0.9031 CLOSE WINDOW -0.1461
-0.3010 CODE </s> -0.3010
-0.6021 COMMAND PALETTE 0.0000
-0.6021 COMMAND PROMPT 0.0000
-0.3010 COMMENT </s> -0.3010
-0.3010 CONSOLE </s> -0.3010
-0.3010 CONTEXT MENU -0.0580
-0.3010 CONTINUE </s> -0.3010
-0.3010 CONTROL </s> -0.3010
-1.0792 COPY </s> -0.3010
-1.0792 COPY PARTIAL 0.0000
-1.0792 COPY PATH 0.0000
-1.0792 COPY SCREENSHOT 0.0000
-1.0792 COPY SELECTION -0.0580
-1.0792 COPY WINDOW -0.2788
-0.3010 COUNTERCLOCKWISE </s> -0.3010
-0.6021 CURRENT LINE -0.1335
-0.9031 CURRENT SELECTION -0.0580
-0.9031 CURRENT WORD -0.1871
-0.7782 CURSOR </s> -0.3010
-0.7782 CURSOR ABOVE 0.0000
-0.7782 CURSOR BELOW 0.0000
-0.3010 CUT </s> -0.3010
-0.3010 DEBUG </s> -0.3010
-0.3010 DEBUGGER </s> -0.3010
-0.3010 DECREASE VOLUME 0.0000
-0.4771 DEFINITION </s> -0.3010
-0.7782 DEFINITION TO -0.2945
-1.3010 DELETE </s> -0.3010
-1.3010 DELETE CURRENT -0.1761
-1.3010 DELETE LINE -0.1335
-1.3010 DELETE PERMANENTLY 0.0000
-1.3010 DELETE PREVIOUS -0.2852
-0.8239 DELETE TO -0.2603
-1.0000 DELETE WORD -0.2285
-0.3010 DESIGN VIEW -0.2218
-0.3010 DETAILS </s> -0.3010
-0.6021 DEVELOPER TOOLBAR 0.0000
-0.6021 DEVELOPER TOOLS 0.0000
-0.3010 DIRECTLY </s> -0.3010
-0.3010 DOCUMENT </s> -0.3010
-0.5229 DOWN </s> -0.3010
-1.0000 DOWN IN -0.1513
-1.0000 DOWN ONE -0.2285
-0.3010 DOWNLOADS </s> -0.3010
-0.9294 EDITOR </s> -0.3010
-0.5772 EDITOR GROUP 0.0000
-1.5315 EDITOR LAYOUT 0.0000
-1.5315 EDITOR LEFT 0.0000
-1.5315 EDITOR OPEN -0.2653
-1.5315 EDITOR RIGHT 0.0000
-0.3010 EIGHT </s> -0.3010
-0.7782 END </s> -0.3010
-0.4771 END OF -0.1427
-0.3010 ENTER LOCATION -0.0969
-0.6021 ERASE LINE -0.1335
-0.6021 ERASE WORD -0.1871
-0.3010 ERROR </s> -0.3010
-0.6021 EXIT FULL 0.0000
-0.6021 EXIT ZEN 0.0000
-0.3010 EXPAND SELECTION -0.0580
-0.3010 EXPLORER </s> -0.3010
-0.3010 EXTENSIONS </s> -0.3010
-0.3010 FIFTEEN SECONDS 0.0000
-0.6021 FILE </s> -0.3010
-1.3010 FILE AND -0.1761
-1.3010 FILE IN -0.2430
-1.3010 FILE LANGUAGE 0.0000
-1.3010 FILE LOCATION -0.0969
-1.3010 FILE MENU -0.0580
-0.3010 FILES </s> -0.3010
-0.7270 FIND </s> -0.3010
-1.2041 FIND AND -0.1761
-1.2041 FIND LINKS 0.0000
-1.2041 FIND MATCH 0.0000
-1.2041 FIND NEXT -0.2478
-1.2041 FIND PREVIOUS -0.2518
-0.3010 FIREFOX </s> -0.3010
-0.3010 FIRST EDITOR -0.1675
-0.3010 FIVE </s> -0.3010
-0.3010 FIX </s> -0.3010
-1.0792 FOCUS </s> -0.3010
-1.3802 FOCUS ACTIVE 0.0000
-1.3802 FOCUS FIRST 0.0000
-1.0792 FOCUS NEXT -0.2285
-1.3802 FOCUS PAGE -0.2852
-1.0792 FOCUS PREVIOUS -0.2341
-1.3802 FOCUS SEARCH -0.2430
-1.3802 FOCUS SECOND 0.0000
-1.3802 FOCUS THIRD 0.0000
-0.4771 FOLD ALL -0.2341
-0.7782 FOLD REGION 0.0000
-0.3010 FOLDER </s> -0.3010
-0.3010 FORCE RELOAD 0.0000
-0.6021 FORMAT DOCUMENT 0.0000
-0.6021 FORMAT SELECTION -0.0580
-0.7782 FORWARD </s> -0.3010
-1.0792 FORWARD FIFTEEN 0.0000
-0.7782 FORWARD ONE -0.1871
-1.0792 FORWARD TEN -0.1249
-0.3010 FOUR </s> -0.3010
-0.3010 FRAME </s> -0.3010
-0.3010 FULL SCREEN -0.1091
-0.3010 GEDIT </s> -0.3010
-1.7482 GO </s> -0.3010
-1.7482 GO BACK -0.2218
-1.7482 GO DOWN -0.1461
-1.7482 GO FORWARD -0.2218
-1.4472 GO ONE -0.2285
-0.4260 GO TO -0.1652
-1.7482 GO UP -0.1461
-0.4771 GROUP </s> -0.3010
-1.3802 GROUP DOWN -0.1461
-1.3802 GROUP LEFT 0.0000
-1.3802 GROUP RIGHT 0.0000
-1.3802 GROUP UP -0.1461
-0.3010 GUIDE </s> -0.3010
-0.3010 HAND TOOL 0.0000
-0.3010 HELP </s> -0.3010
-0.3010 HIDDEN FILES 0.0000
-1.0792 HIDE ACTION 0.0000
-1.0792 HIDE ALL -0.2852
-1.0792 HIDE HIDDEN 0.0000
-1.0792 HIDE SIDE -0.1761
-1.0792 HIDE SIDEBAR -0.0792
-1.0792 HIDE WINDOW -0.1461
-0.3010 HIGHLIGHT </s> -0.3010
-0.3010 HINTS </s> -0.3010
-0.4771 HISTORY </s> -0.3010
-0.7782 HISTORY SIDEBAR -0.0792
-0.6021 HOME </s> -0.3010
-0.6021 HOME FOLDER 0.0000
-0.3010 HOVER </s> -0.3010
-1.3802 IN </s> -0.3010
-1.3802 IN FILES 0.0000
-0.9031 IN NEW -0.1461
-0.5351 IN TERMINAL 0.0000
-0.3010 INCREASE VOLUME 0.0000
-0.3010 INDENT LINE -0.1335
-0.3010 INFO </s> -0.3010
-0.3010 INPUT SOURCE -0.0969
-1.0792 INSERT AT 0.0000
-0.6021 INSERT CURSOR 0.0000
-0.7782 INSERT LINE -0.2833
-0.3010 INSPECTOR </s> -0.3010
-0.3010 INTO </s> -0.3010
-0.3010 INVERT SELECTION -0.0580
-0.6021 ITEM LOCATION -0.0969
-0.6021 ITEM PROPERTIES 0.0000
-0.3010 ITEMS </s> -0.3010
-0.3010 JUMP TO -0.2978
-0.3010 KEEP PREVIEW -0.2430
-0.3010 KEYBOARD SHORTCUTS 0.0000
-0.3010 LANGUAGE </s> -0.3010
-0.6021 LAST TAB -0.2167
-0.6021 LAST WORKSPACE -0.2553
-0.3010 LAYOUT </s> -0.3010
-0.3010 LEFT </s> -0.3010
-0.3010 LIBRARY WINDOW -0.2788
-0.4949 LINE </s> -0.3010
-1.6990 LINE ABOVE 0.0000
-1.6990 LINE BELOW 0.0000
-1.2218 LINE COMMENT 0.0000
-1.3979 LINE DOWN -0.1461
-1.3979 LINE UP -0.1461
-0.3010 LINES </s> -0.3010
-0.3010 LINKS </s> -0.3010
-0.3010 LIST </s> -0.3010
-0.4260 LOCATION </s> -0.3010
-0.9031 LOCATION BAR 0.0000
-0.3010 LOCK SCREEN -0.1091
-0.3010 LOG OUT 0.0000
-0.3010 LOWER CASE 0.0000
-0.3010 MARKDOWN PREVIEW -0.0969
-0.3010 MATCH </s> -0.3010
-0.6021 MATCHING BRACKET 0.0000
-0.6021 MATCHING ITEMS 0.0000
-0.3010 MAXIMIZE WINDOW -0.1461
-0.3680 MENU </s> -0.3010
-1.1461 MENU BAR 0.0000
-0.3979 MODE </s> -0.3010
-1.0000 MODE EDITOR -0.2881
-1.4914 MOVE BACK -0.2218
-1.0142 MOVE EDITOR -0.1313
-1.4914 MOVE FORWARD -0.2218
-1.4914 MOVE LINE -0.2648
-1.0142 MOVE TAB -0.2609
-0.9473 MOVE TO -0.2033
-1.1903 MOVE WINDOW -0.0969
-1.4914 MOVE WORD -0.2663
-0.3010 MOVES FOCUS -0.2632
-0.3010 MUTE </s> -0.3010
-0.3010 NAUTILUS </s> -0.3010
-0.3010 NETWORK </s> -0.3010
-1.3010 NEW FILE -0.1761
-1.3010 NEW FOLDER 0.0000
-1.3010 NEW PRIVATE 0.0000
-0.8239 NEW TAB -0.1928
-1.3010 NEW TERMINAL 0.0000
-0.8239 NEW WINDOW -0.1461
-0.9379 NEXT </s> -0.3010
-1.4150 NEXT EDITOR -0.1675
-1.4150 NEXT ERROR 0.0000
-1.4150 NEXT FRAME 0.0000
-1.4150 NEXT INPUT 0.0000
-1.4150 NEXT PAGE -0.1761
-0.8129 NEXT TAB -0.1928
-1.4150 NEXT WARNING 0.0000
-0.3010 NINE </s> -0.3010
-0.6021 NOTIFICATION </s> -0.3010
-0.6021 NOTIFICATION LIST 0.0000
-0.3010 NUMBER BOX 0.0000
-1.5563 OF </s> -0.3010
-1.2553 OF CURRENT -0.1761
-1.2553 OF DOCUMENT 0.0000
-1.2553 OF FILE -0.1761
-1.5563 OF FIND -0.2730
-0.7782 OF LINE -0.1335
-1.2553 OF PAGE -0.1761
-1.5563 OF SELECTED 0.0000
-1.5563 OF WORD -0.1871
-0.3010 OFF </s> -0.3010
-0.6021 ON </s> -0.3010
-0.9031 ON LEFT 0.0000
-0.9031 ON RIGHT 0.0000
-1.4150 ONE </s> -0.3010
-1.1139 ONE CHARACTER 0.0000
-1.1139 ONE LINE -0.1335
-1.1139 ONE PAGE -0.1761
-0.8129 ONE WORD -0.0902
-1.1139 ONE WORKSPACE -0.2041
-0.3010 ONS </s> -0.3010
-1.1027 OPEN </s> -0.3010
-1.5798 OPEN APPLICATION 0.0000
-1.5798 OPEN DEFINITION -0.2218
-1.5798 OPEN DOCUMENT 0.0000
-0.8808 OPEN FILE -0.0414
-1.2788 OPEN IN -0.2430
-1.5798 OPEN ITEM -0.1761
-1.2788 OPEN MARKDOWN 0.0000
-1.5798 OPEN NEXT -0.2478
-1.5798 OPEN PREVIOUS -0.2518
-1.5798 OPEN USER -0.1761
-0.3010 OUT </s> -0.3010
-0.3010 OUTDENT LINE -0.1335
-0.3010 OUTPUT PANEL 0.0000
-0.3010 OVER </s> -0.3010
-0.3010 OVERVIEW </s> -0.3010
-0.6021 PAGE </s> -0.3010
-1.1461 PAGE DOWN -0.0792
-1.4472 PAGE INFO 0.0000
-1.4472 PAGE NUMBER 0.0000
-1.4472 PAGE SOURCE -0.0969
-1.1461 PAGE UP -0.0792
-0.3010 PALETTE </s> -0.3010
-0.3010 PANEL </s> -0.3010
-0.3010 PARAMETER HINTS 0.0000
-0.3010 PARTIAL SCREENSHOT 0.0000
-0.7782 PASTE </s> -0.3010
-0.7782 PASTE AS -0.1761
-0.7782 PASTE IN -0.1513
-0.3010 PATH </s> -0.3010
-0.3010 PAUSE </s> -0.3010
-0.3010 PEEK DEFINITION -0.1249
-0.3010 PERCENT </s> -0.3010
-0.3010 PERMANENTLY </s> -0.3010
-0.3010 PLAIN TEXT -0.1761
-0.3010 PLAY </s> -0.3010
-0.3010 PRESENTATION MODE -0.0792
-0.6021 PREVIEW </s> -0.3010
-0.9031 PREVIEW MODE -0.2553
-0.9031 PREVIEW TO -0.2945
-0.9700 PREVIOUS </s> -0.3010
-1.4472 PREVIOUS EDITOR -0.1675
-1.4472 PREVIOUS ERROR 0.0000
-1.4472 PREVIOUS FRAME 0.0000
-1.4472 PREVIOUS INPUT 0.0000
-1.4472 PREVIOUS PAGE -0.1761
-0.8451 PREVIOUS TAB -0.1928
-1.4472 PREVIOUS WARNING 0.0000
-1.4472 PREVIOUS WORD -0.1871
-0.6021 PRINT </s> -0.3010
-0.6021 PRINT PREVIEW -0.1761
-0.3010 PRIVATE WINDOW -0.1461
-0.3010 PROBLEMS PANEL 0.0000
-0.3010 PROFILER </s> -0.3010
-0.3010 PROMPT </s> -0.3010
-0.3010 PROPERTIES </s> -0.3010
-0.5229 QUICK FIND -0.1761
-1.0000 QUICK FIX 0.0000
-1.0000 QUICK OPEN -0.2653
-0.3010 QUIT </s> -0.3010
-0.7782 READER MODE -0.0792
-0.7782 READER OFF 0.0000
-0.7782 READER ON -0.1761
-0.3010 RECORD SCREENCAST 0.0000
-0.3010 REDO </s> -0.3010
-0.3010 REFERENCES </s> -0.3010
-0.3010 REFRESH </s> -0.3010
-0.3010 REGION </s> -0.3010
-0.3010 REGIONS </s> -0.3010
-0.3010 RELOAD </s> -0.3010
-0.6021 REMOVE LINE -0.2742
-0.6021 REMOVE TAB -0.2881
-0.6021 RENAME </s> -0.3010
-0.6021 RENAME SYMBOL 0.0000
-0.4771 REPLACE </s> -0.3010
-0.7782 REPLACE IN -0.2825
-0.3010 RESET ZOOM -0.2553
-0.3010 RESIZE WINDOW -0.1461
-0.3010 RESPONSIVE DESIGN 0.0000
-0.7782 RESTORE </s> -0.3010
-0.7782 RESTORE TAB -0.2167
-0.7782 RESTORE WINDOW -0.1461
-0.3010 RIGHT </s> -0.3010
-0.6021 ROTATE </s> -0.3010
-0.6021 ROTATE COUNTERCLOCKWISE 0.0000
-1.0792 SAVE </s> -0.3010
-1.0792 SAVE ALL -0.2688
-1.0792 SAVE AS -0.1761
-1.0792 SAVE PARTIAL 0.0000
-1.0792 SAVE SCREENSHOT 0.0000
-1.0792 SAVE WINDOW -0.2788
-0.4472 SCREEN </s> -0.3010
-0.8451 SCREEN READER -0.1249
-0.3010 SCREENCAST </s> -0.3010
-0.3010 SCREENSHOT </s> -0.3010
-1.0280 SCROLL DOWN -0.2041
-1.2041 SCROLL LINE -0.2648
-0.9031 SCROLL PAGE -0.2341
-0.9031 SCROLL TO -0.2811
-1.0280 SCROLL UP -0.2041
-0.6021 SEARCH </s> -0.3010
-0.9031 SEARCH BAR 0.0000
-0.9031 SEARCH DETAILS 0.0000
-0.3010 SECOND EDITOR -0.1675
-0.3010 SECONDS </s> -0.3010
-0.7782 SEEK BACK -0.2218
-0.7782 SEEK FORWARD -0.2218
-0.7782 SEEK TO -0.2567
-0.5441 SELECT ALL -0.2156
-1.1461 SELECT CURRENT -0.1761
-1.1461 SELECT LOCATION -0.2430
-1.1461 SELECT MATCHING -0.1761
-0.3010 SELECTED LINES 0.0000
-0.3680 SELECTION </s> -0.3010
-1.1461 SELECTION TOOL 0.0000
-0.3010 SETTINGS </s> -0.3010
-0.3010 SEVEN </s> -0.3010
-0.3010 SHORTCUTS </s> -0.3010
-1.6628 SHOW ACTION 0.0000
-1.6628 SHOW ACTIVITIES 0.0000
-1.3617 SHOW ALL -0.2688
-1.3617 SHOW COMMAND 0.0000
-1.6628 SHOW DEBUG 0.0000
-1.6628 SHOW EXPLORER 0.0000
-1.6628 SHOW EXTENSIONS 0.0000
-1.6628 SHOW HELP 0.0000
-1.6628 SHOW HIDDEN 0.0000
-1.6628 SHOW HOVER 0.0000
-1.6628 SHOW ITEM -0.1761
-1.6628 SHOW NOTIFICATION -0.1761
-1.6628 SHOW OUTPUT 0.0000
-1.6628 SHOW OVERVIEW 0.0000
-1.6628 SHOW PROBLEMS 0.0000
-1.6628 SHOW REFERENCES 0.0000
-1.6628 SHOW SEARCH -0.1761
-1.6628 SHOW SIDE -0.1761
-1.6628 SHOW SIDEBAR -0.0792
-1.6628 SHOW SOURCE -0.2430
-1.6628 SHOW TERMINAL 0.0000
-0.3010 SHRINK SELECTION -0.0580
-0.6021 SIDE </s> -0.3010
-0.6021 SIDE PANEL 0.0000
-0.3979 SIDEBAR </s> -0.3010
-1.0000 SIDEBAR VISIBILITY 0.0000
-0.3010 SIX </s> -0.3010
-0.4260 SOURCE </s> -0.3010
-0.9031 SOURCE CONTROL 0.0000
-0.3010 SPELLING </s> -0.3010
-0.7782 SPLIT EDITOR -0.2467
-0.4771 SPLIT ON -0.1761
-0.6990 START </s> -0.3010
-0.5229 START OF -0.2071
-0.7782 STEP INTO 0.0000
-0.7782 STEP OUT 0.0000
-0.7782 STEP OVER 0.0000
-0.3010 STOP </s> -0.3010
-0.3010 STYLE EDITOR -0.2467
-0.3010 SUBREGIONS </s> -0.3010
-0.3010 SUGGESTION </s> -0.3010
-0.3757 SWITCH TO -0.2114
-1.1027 SWITCH WINDOWS 0.0000
-0.3010 SYMBOL </s> -0.3010
-0.3010 SYMBOLS </s> -0.3010
-0.7533 TAB </s> -0.3010
-1.8325 TAB EIGHT 0.0000
-1.8325 TAB FIVE 0.0000
-1.8325 TAB FOUR 0.0000
-1.3554 TAB GROUP -0.1249
-1.8325 TAB LEFT 0.0000
-1.8325 TAB MOVES 0.0000
-1.8325 TAB NINE 0.0000
-1.8325 TAB ONE -0.2840
-1.8325 TAB RIGHT 0.0000
-1.8325 TAB SEVEN 0.0000
-1.8325 TAB SIX 0.0000
-1.5315 TAB STOP 0.0000
-1.8325 TAB TEN -0.2218
-1.8325 TAB THREE 0.0000
-1.2304 TAB TO -0.2384
-1.8325 TAB TWO 0.0000
-0.3010 TABS </s> -0.3010
-0.7782 TEN </s> -0.3010
-0.4771 TEN PERCENT 0.0000
-0.3010 TERMINAL </s> -0.3010
-0.6021 TEXT </s> -0.3010
-0.6021 TEXT SELECTION -0.2688
-0.3010 THIRD EDITOR -0.1675
-0.3010 THIS PAGE -0.1761
-0.3010 THREE </s> -0.3010
-1.4281 TO BEGINNING 0.0000
-1.6500 TO BOTTOM 0.0000
-2.1271 TO DEFINITION -0.1249
-1.2240 TO END 0.0000
-2.1271 TO FILE -0.1761
-2.1271 TO HOME -0.1761
-1.8261 TO LAST 0.0000
-1.6500 TO LEFT 0.0000
-2.1271 TO LINE -0.1335
-2.1271 TO LOWER 0.0000
-2.1271 TO MATCHING -0.1761
-1.3490 TO NEXT -0.1413
-2.1271 TO PRESENTATION 0.0000
-1.3490 TO PREVIOUS -0.1549
-1.6500 TO RIGHT 0.0000
-1.8261 TO SIDE -0.1761
-1.5250 TO START 0.0000
-2.1271 TO SYMBOL 0.0000
-1.1271 TO TAB -0.2319
-1.6500 TO TOP 0.0000
-2.1271 TO TRASH 0.0000
-2.1271 TO UPPER 0.0000
-1.8261 TO WORKSPACE -0.2041
-1.4472 TOGGLE BLOCK 0.0000
-1.4472 TOGGLE BREAKPOINT 0.0000
-1.4472 TOGGLE CASE 0.0000
-1.4472 TOGGLE CONTEXT 0.0000
-1.4472 TOGGLE DEVELOPER -0.1761
-1.4472 TOGGLE EDITOR -0.2881
-1.4472 TOGGLE FOCUS -0.2632
-1.4472 TOGGLE FULL 0.0000
-1.4472 TOGGLE LINE -0.2742
-1.4472 TOGGLE READER -0.2218
-1.4472 TOGGLE SEARCH -0.2430
-1.4472 TOGGLE SIDEBAR -0.2553
-1.4472 TOGGLE TAB -0.2946
-1.4472 TOGGLE WORD -0.2840
-0.3010 TOOL </s> -0.3010
-0.3010 TOOLBAR </s> -0.3010
-0.3010 TOOLS </s> -0.3010
-0.7782 TOP </s> -0.3010
-0.7782 TOP IN -0.1513
-0.7782 TOP OF -0.2762
-0.3010 TRASH </s> -0.3010
-0.6021 TRIGGER PARAMETER 0.0000
-0.6021 TRIGGER SUGGESTION 0.0000
-0.3010 TRIM LINE -0.1335
-0.6021 TURN SCREEN -0.2341
-0.6021 TURN ZOOM -0.2041
-0.3010 TWO </s> -0.3010
-0.9031 UNDO </s> -0.3010
-0.4260 UNDO CLOSE -0.1513
-0.4771 UNFOLD ALL -0.2341
-0.7782 UNFOLD REGION 0.0000
-0.3010 UNMUTE </s> -0.3010
-0.5229 UP </s> -0.3010
-1.0000 UP IN -0.1513
-1.0000 UP ONE -0.2285
-0.3010 UPPER CASE 0.0000
-0.6021 USER GUIDE 0.0000
-0.6021 USER SETTINGS 0.0000
-0.7782 VIEW </s> -0.3010
-0.4771 VIEW SPLIT -0.1249
-0.3010 VISIBILITY </s> -0.3010
-0.3010 VOLUME </s> -0.3010
-0.3010 WARNING </s> -0.3010
-0.3010 WEB CONSOLE 0.0000
-0.5229 WINDOW </s> -0.3010
-1.6021 WINDOW BOOKMARKS -0.1761
-1.6021 WINDOW HISTORY -0.1249
-1.6021 WINDOW MENU -0.0580
-1.3010 WINDOW ONE -0.2663
-1.3010 WINDOW SCREENSHOT 0.0000
-1.6021 WINDOW TO -0.2945
-0.6021 WINDOWS </s> -0.3010
-0.9031 WINDOWS DIRECTLY 0.0000
-0.9031 WINDOWS OF -0.2888
-0.6368 WORD </s> -0.3010
-1.4150 WORD LEFT 0.0000
-1.4150 WORD RIGHT 0.0000
-0.8129 WORD TO -0.2811
-1.4150 WORD WRAP 0.0000
-1.0000 WORKSPACE </s> -0.3010
-1.0000 WORKSPACE ABOVE 0.0000
-1.0000 WORKSPACE BELOW 0.0000
-1.0000 WORKSPACE DOWN -0.1461
-1.0000 WORKSPACE UP -0.1461
-0.3010 WRAP </s> -0.3010
-0.3010 ZEN MODE -0.0792
-1.0000 ZOOM </s> -0.3010
-1.0000 ZOOM IN -0.2825
-1.0000 ZOOM OFF 0.0000
-1.0000 ZOOM ON -0.1761
-1.0000 ZOOM OUT 0.0000

\3-grams:
-0.3010 <s> ACTIVATE WINDOW
-0.7782 <s> ADD LINE
-0.7782 <s> ADD ONS
-0.7782 <s> ADD TAB
-0.3010 <s> BACK </s>
-0.3010 <s> BOOKMARK THIS
-0.3010 <s> BOOKMARKS SIDEBAR
-0.3010 <s> BROWSER CONSOLE
-0.3010 <s> CARET BROWSING
-0.7782 <s> CHANGE FILE
-0.4771 <s> CHANGE TO
-0.3010 <s> CHECK SPELLING
-0.7782 <s> CLEAR HIGHLIGHT
-0.7782 <s> CLEAR HISTORY
-0.7782 <s> CLEAR SCREEN
-1.2041 <s> CLOSE </s>
-0.9031 <s> CLOSE ALL
-1.2041 <s> CLOSE EDITOR
-1.2041 <s> CLOSE FOLDER
-1.2041 <s> CLOSE QUICK
-1.2041 <s> CLOSE TAB
-1.2041 <s> CLOSE WINDOW
-0.3010 <s> CODE </s>
-0.3010 <s> CONTINUE </s>
-1.0792 <s> COPY </s>
-1.0792 <s> COPY PARTIAL
-1.0792 <s> COPY PATH
-1.0792 <s> COPY SCREENSHOT
-1.0792 <s> COPY SELECTION
-1.0792 <s> COPY WINDOW
-0.3010 <s> CUT </s>
-0.3010 <s> DEBUGGER </s>
-0.3010 <s> DECREASE VOLUME
-1.3010 <s> DELETE </s>
-1.3010 <s> DELETE CURRENT
-1.3010 <s> DELETE LINE
-1.3010 <s> DELETE PERMANENTLY
-1.3010 <s> DELETE PREVIOUS
-0.8239 <s> DELETE TO
-1.0000 <s> DELETE WORD
-0.3010 <s> DEVELOPER TOOLBAR
-0.3010 <s> DOWNLOADS </s>
-0.3010 <s> ENTER LOCATION
-0.6021 <s> ERASE LINE
-0.6021 <s> ERASE WORD
-0.6021 <s> EXIT FULL
-0.6021 <s> EXIT ZEN
-0.3010 <s> EXPAND SELECTION
-0.9031 <s> FIND </s>
-0.9031 <s> FIND AND
-0.9031 <s> FIND NEXT
-0.9031 <s> FIND PREVIOUS
-0.3010 <s> FIREFOX </s>
-1.3010 <s> FOCUS ACTIVE
-1.3010 <s> FOCUS FIRST
-1.0000 <s> FOCUS NEXT
-1.3010 <s> FOCUS PAGE
-1.0000 <s> FOCUS PREVIOUS
-1.3010 <s> FOCUS SEARCH
-1.3010 <s> FOCUS SECOND
-1.3010 <s> FOCUS THIRD
-0.4771 <s> FOLD ALL
-0.7782 <s> FOLD REGION
-0.3010 <s> FORCE RELOAD
-0.6021 <s> FORMAT DOCUMENT
-0.6021 <s> FORMAT SELECTION
-0.3010 <s> FORWARD </s>
-0.3010 <s> FULL SCREEN
-0.3010 <s> GEDIT </s>
-1.7482 <s> GO </s>
-1.7482 <s> GO BACK
-1.7482 <s> GO DOWN
-1.7482 <s> GO FORWARD
-1.4472 <s> GO ONE
-0.4260 <s> GO TO
-1.7482 <s> GO UP
-0.3010 <s> HAND TOOL
-1.0792 <s> HIDE ACTION
-1.0792 <s> HIDE ALL
-1.0792 <s> HIDE HIDDEN
-1.0792 <s> HIDE SIDE
-1.0792 <s> HIDE SIDEBAR
-1.0792 <s> HIDE WINDOW
-0.3010 <s> HISTORY SIDEBAR
-0.3010 <s> HOME </s>
-0.3010 <s> INCREASE VOLUME
-0.3010 <s> INDENT LINE
-1.0792 <s> INSERT AT
-0.6021 <s> INSERT CURSOR
-0.7782 <s> INSERT LINE
-0.3010 <s> INSPECTOR </s>
-0.3010 <s> INVERT SELECTION
-0.3010 <s> JUMP TO
-0.3010 <s> KEEP PREVIEW
-0.3010 <s> KEYBOARD SHORTCUTS
-0.3010 <s> LIBRARY WINDOW
-0.3010 <s> LOCK SCREEN
-0.3010 <s> LOG OUT
-0.3010 <s> MAXIMIZE WINDOW
-0.3010 <s> MENU BAR
-1.4914 <s> MOVE BACK
-1.0142 <s> MOVE EDITOR
-1.4914 <s> MOVE FORWARD
-1.4914 <s> MOVE LINE
-1.0142 <s> MOVE TAB
-0.9473 <s> MOVE TO
-1.1903 <s> MOVE WINDOW
-1.4914 <s> MOVE WORD
-0.3010 <s> MUTE </s>
-0.3010 <s> NAUTILUS </s>
-0.3010 <s> NETWORK </s>
-1.1461 <s> NEW FILE
-1.1461 <s> NEW FOLDER
-1.1461 <s> NEW PRIVATE
-0.8451 <s> NEW TAB
-1.1461 <s> NEW TERMINAL
-1.1461 <s> NEW WINDOW
-0.7782 <s> NEXT PAGE
-0.4771 <s> NEXT TAB
-1.5315 <s> OPEN </s>
-1.5315 <s> OPEN APPLICATION
-1.5315 <s> OPEN DEFINITION
-1.5315 <s> OPEN DOCUMENT
-0.8325 <s> OPEN FILE
-1.2304 <s> OPEN IN
-1.5315 <s> OPEN ITEM
-1.2304 <s> OPEN MARKDOWN
-1.5315 <s> OPEN NEXT
-1.5315 <s> OPEN PREVIOUS
-1.5315 <s> OPEN USER
-0.3010 <s> OUTDENT LINE
-0.6021 <s> PAGE INFO
-0.6021 <s> PAGE SOURCE
-0.7782 <s> PASTE </s>
-0.7782 <s> PASTE AS
-0.7782 <s> PASTE IN
-0.3010 <s> PAUSE </s>
-0.3010 <s> PEEK DEFINITION
-0.3010 <s> PLAY </s>
-0.7782 <s> PREVIOUS PAGE
-0.4771 <s> PREVIOUS TAB
-0.6021 <s> PRINT </s>
-0.6021 <s> PRINT PREVIEW
-0.3010 <s> PROFILER </s>
-0.6021 <s> QUICK FIND
-0.9031 <s> QUICK FIX
-0.9031 <s> QUICK OPEN
-0.3010 <s> QUIT </s>
-0.3010 <s> RECORD SCREENCAST
-0.3010 <s> REDO </s>
-0.3010 <s> REFRESH </s>
-0.3010 <s> RELOAD </s>
-0.6021 <s> REMOVE LINE
-0.6021 <s> REMOVE TAB
-0.6021 <s> RENAME </s>
-0.6021 <s> RENAME SYMBOL
-0.6021 <s> REPLACE </s>
-0.6021 <s> REPLACE IN
-0.3010 <s> RESET ZOOM
-0.3010 <s> RESIZE WINDOW
-0.3010 <s> RESPONSIVE DESIGN
-0.7782 <s> RESTORE </s>
-0.7782 <s> RESTORE TAB
-0.7782 <s> RESTORE WINDOW
-0.6021 <s> ROTATE </s>
-0.6021 <s> ROTATE COUNTERCLOCKWISE
-1.0792 <s> SAVE </s>
-1.0792 <s> SAVE ALL
-1.0792 <s> SAVE AS
-1.0792 <s> SAVE PARTIAL
-1.0792 <s> SAVE SCREENSHOT
-1.0792 <s> SAVE WINDOW
-1.0280 <s> SCROLL DOWN
-1.2041 <s> SCROLL LINE
-0.9031 <s> SCROLL PAGE
-0.9031 <s> SCROLL TO
-1.0280 <s> SCROLL UP
-0.3010 <s> SEARCH </s>
-0.7782 <s> SEEK BACK
-0.7782 <s> SEEK FORWARD
-0.7782 <s> SEEK TO
-0.5441 <s> SELECT ALL
-1.1461 <s> SELECT CURRENT
-1.1461 <s> SELECT LOCATION
-1.1461 <s> SELECT MATCHING
-0.3010 <s> SHORTCUTS </s>
-1.6628 <s> SHOW ACTION
-1.6628 <s> SHOW ACTIVITIES
-1.3617 <s> SHOW ALL
-1.3617 <s> SHOW COMMAND
-1.6628 <s> SHOW DEBUG
-1.6628 <s> SHOW EXPLORER
-1.6628 <s> SHOW EXTENSIONS
-1.6628 <s> SHOW HELP
-1.6628 <s> SHOW HIDDEN
-1.6628 <s> SHOW HOVER
-1.6628 <s> SHOW ITEM
-1.6628 <s> SHOW NOTIFICATION
-1.6628 <s> SHOW OUTPUT
-1.6628 <s> SHOW OVERVIEW
-1.6628 <s> SHOW PROBLEMS
-1.6628 <s> SHOW REFERENCES
-1.6628 <s> SHOW SEARCH
-1.6628 <s> SHOW SIDE
-1.6628 <s> SHOW SIDEBAR
-1.6628 <s> SHOW SOURCE
-1.6628 <s> SHOW TERMINAL
-0.3010 <s> SHRINK SELECTION
-0.3010 <s> SPLIT EDITOR
-0.3010 <s> START </s>
-0.7782 <s> STEP INTO
-0.7782 <s> STEP OUT
-0.7782 <s> STEP OVER
-0.3010 <s> STOP </s>
-0.3010 <s> STYLE EDITOR
-0.3757 <s> SWITCH TO
-1.1027 <s> SWITCH WINDOWS
-0.3010 <s> TERMINAL </s>
-0.3010 <s> TEXT SELECTION
-1.4472 <s> TOGGLE BLOCK
-1.4472 <s> TOGGLE BREAKPOINT
-1.4472 <s> TOGGLE CASE
-1.4472 <s> TOGGLE CONTEXT
-1.4472 <s> TOGGLE DEVELOPER
-1.4472 <s> TOGGLE EDITOR
-1.4472 <s> TOGGLE FOCUS
-1.4472 <s> TOGGLE FULL
-1.4472 <s> TOGGLE LINE
-1.4472 <s> TOGGLE READER
-1.4472 <s> TOGGLE SEARCH
-1.4472 <s> TOGGLE SIDEBAR
-1.4472 <s> TOGGLE TAB
-1.4472 <s> TOGGLE WORD
-0.6021 <s> TRIGGER PARAMETER
-0.6021 <s> TRIGGER SUGGESTION
-0.3010 <s> TRIM LINE
-0.6021 <s> TURN SCREEN
-0.6021 <s> TURN ZOOM
-0.9031 <s> UNDO </s>
-0.4260 <s> UNDO CLOSE
-0.4771 <s> UNFOLD ALL
-0.7782 <s> UNFOLD REGION
-0.3010 <s> UNMUTE </s>
-0.3010 <s> USER SETTINGS
-0.3010 <s> VIEW SPLIT
-0.3010 <s> WEB CONSOLE
-0.3010 <s> ZEN MODE
-0.6021 <s> ZOOM IN
-0.6021 <s> ZOOM OUT
-0.3010 ACTION MENU </s>
-0.3010 ACTIVATE WINDOW MENU
-0.3010 ACTIVE NOTIFICATION </s>
-0.3010 ACTIVITIES OVERVIEW </s>
-0.3010 ADD LINE COMMENT
-0.3010 ADD ONS </s>
-0.3010 ADD TAB STOP
-0.3010 ALL APPLICATIONS </s>
-0.4771 ALL OF CURRENT
-0.7782 ALL OF FIND
-0.3010 ALL REGIONS </s>
-0.3010 ALL SUBREGIONS </s>
-0.3010 ALL SYMBOLS </s>
-0.3010 ALL TABS </s>
-0.3010 ALL WINDOWS </s>
-0.3010 AND CLOSE WINDOW
-0.3010 AND REPLACE </s>
-0.3010 APPLICATION MENU </s>
-0.3010 AS PLAIN TEXT
-0.3010 AT END OF
-0.3010 BACK FIFTEEN SECONDS
-0.6021 BACK ONE CHARACTER
-0.6021 BACK ONE WORD
-0.3010 BACK TEN PERCENT
-0.7782 BEGINNING OF DOCUMENT
-0.7782 BEGINNING OF FILE
-0.7782 BEGINNING OF LINE
-0.3010 BLOCK COMMENT </s>
-0.3010 BOOKMARK THIS PAGE
-0.3010 BOOKMARKS SIDEBAR </s>
-0.3010 BOTTOM IN TERMINAL
-0.3010 BOTTOM OF PAGE
-0.3010 BROWSER CONSOLE </s>
-0.3010 CARET BROWSING </s>
-0.3010 CHANGE FILE LANGUAGE
-0.6021 CHANGE TO LOWER
-0.6021 CHANGE TO UPPER
-0.3010 CHECK SPELLING </s>
-0.3010 CLEAR HIGHLIGHT </s>
-0.3010 CLEAR HISTORY </s>
-0.3010 CLEAR SCREEN </s>
-0.6021 CLOSE ALL </s>
-0.6021 CLOSE ALL TABS
-0.3010 CLOSE EDITOR </s>
-0.3010 CLOSE FOLDER </s>
-0.3010 CLOSE QUICK FIND
-0.3010 CLOSE TAB </s>
-0.3010 CLOSE WINDOW </s>
-0.3010 COMMAND PALETTE </s>
-0.3010 COMMAND PROMPT </s>
-0.3010 CONTEXT MENU </s>
-0.3010 COPY PARTIAL SCREENSHOT
-0.3010 COPY PATH </s>
-0.3010 COPY SCREENSHOT </s>
-0.3010 COPY SELECTION </s>
-0.3010 COPY WINDOW SCREENSHOT
-0.3010 CURRENT LINE </s>
-0.3010 CURRENT SELECTION </s>
-0.3010 CURRENT WORD </s>
-0.3010 CURSOR ABOVE </s>
-0.3010 CURSOR BELOW </s>
-0.3010 DECREASE VOLUME </s>
-0.3010 DEFINITION TO SIDE
-0.3010 DELETE CURRENT LINE
-0.3010 DELETE LINE </s>
-0.3010 DELETE PERMANENTLY </s>
-0.3010 DELETE PREVIOUS WORD
-0.7782 DELETE TO END
-0.4771 DELETE TO START
-0.3010 DELETE WORD TO
-0.3010 DESIGN VIEW </s>
-0.3010 DEVELOPER TOOLBAR </s>
-0.3010 DEVELOPER TOOLS </s>
-0.3010 DOWN IN TERMINAL
-0.6021 DOWN ONE LINE
-0.6021 DOWN ONE PAGE
-0.5563 EDITOR GROUP </s>
-1.2553 EDITOR GROUP DOWN
-1.2553 EDITOR GROUP LEFT
-1.2553 EDITOR GROUP RIGHT
-1.2553 EDITOR GROUP UP
-0.3010 EDITOR LAYOUT </s>
-0.3010 EDITOR LEFT </s>
-0.3010 EDITOR OPEN </s>
-0.3010 EDITOR RIGHT </s>
-1.0792 END OF DOCUMENT
-1.0792 END OF FILE
-0.6021 END OF LINE
-1.0792 END OF SELECTED
-0.3010 ENTER LOCATION </s>
-0.3010 ERASE LINE </s>
-0.3010 ERASE WORD </s>
-0.3010 EXIT FULL SCREEN
-0.3010 EXIT ZEN MODE
-0.3010 EXPAND SELECTION </s>
-0.3010 FIFTEEN SECONDS </s>
-0.3010 FILE AND CLOSE
-0.3010 FILE IN NEW
-0.3010 FILE LANGUAGE </s>
-0.3010 FILE LOCATION </s>
-0.3010 FILE MENU </s>
-0.3010 FIND AND REPLACE
-0.3010 FIND LINKS </s>
-0.3010 FIND MATCH </s>
-0.3010 FIND NEXT </s>
-0.3010 FIND PREVIOUS </s>
-0.3010 FIRST EDITOR GROUP
-0.3010 FOCUS ACTIVE NOTIFICATION
-0.3010 FOCUS FIRST EDITOR
-0.6021 FOCUS NEXT </s>
-0.6021 FOCUS NEXT EDITOR
-0.3010 FOCUS PAGE NUMBER
-0.6021 FOCUS PREVIOUS </s>
-0.6021 FOCUS PREVIOUS EDITOR
-0.3010 FOCUS SEARCH BAR
-0.3010 FOCUS SECOND EDITOR
-0.3010 FOCUS THIRD EDITOR
-0.6021 FOLD ALL REGIONS
-0.6021 FOLD ALL SUBREGIONS
-0.3010 FOLD REGION </s>
-0.3010 FORCE RELOAD </s>
-0.3010 FORMAT DOCUMENT </s>
-0.3010 FORMAT SELECTION </s>
-0.3010 FORWARD FIFTEEN SECONDS
-0.6021 FORWARD ONE CHARACTER
-0.6021 FORWARD ONE WORD
-0.3010 FORWARD TEN PERCENT
-0.3010 FULL SCREEN </s>
-0.3010 GO BACK </s>
-0.3010 GO DOWN </s>
-0.3010 GO FORWARD </s>
-0.3010 GO ONE WORD
-1.0212 GO TO BEGINNING
-1.6232 GO TO BOTTOM
-1.6232 GO TO DEFINITION
-1.0212 GO TO END
-1.6232 GO TO FILE
-1.6232 GO TO HOME
-1.6232 GO TO LINE
-1.1461 GO TO NEXT
-1.1461 GO TO PREVIOUS
-1.6232 GO TO SYMBOL
-1.6232 GO TO TOP
-0.3010 GO UP </s>
-0.3010 GROUP DOWN </s>
-0.3010 GROUP LEFT </s>
-0.3010 GROUP RIGHT </s>
-0.3010 GROUP UP </s>
-0.3010 HAND TOOL </s>
-0.3010 HIDDEN FILES </s>
-0.3010 HIDE ACTION MENU
-0.3010 HIDE ALL WINDOWS
-0.3010 HIDE HIDDEN FILES
-0.3010 HIDE SIDE PANEL
-0.3010 HIDE SIDEBAR </s>
-0.3010 HIDE WINDOW </s>
-0.3010 HISTORY SIDEBAR </s>
-0.3010 HOME FOLDER </s>
-0.3010 IN FILES </s>
-0.7782 IN NEW TAB
-0.4771 IN NEW WINDOW
-0.3010 IN TERMINAL </s>
-0.3010 INCREASE VOLUME </s>
-0.3010 INDENT LINE </s>
-0.3010 INPUT SOURCE </s>
-0.3010 INSERT AT END
-0.7782 INSERT CURSOR </s>
-0.7782 INSERT CURSOR ABOVE
-0.7782 INSERT CURSOR BELOW
-0.6021 INSERT LINE ABOVE
-0.6021 INSERT LINE BELOW
-0.3010 INVERT SELECTION </s>
-0.3010 ITEM LOCATION </s>
-0.3010 ITEM PROPERTIES </s>
-0.3010 JUMP TO MATCHING
-0.3010 KEEP PREVIEW MODE
-0.3010 KEYBOARD SHORTCUTS </s>
-0.3010 LAST TAB </s>
-0.3010 LAST WORKSPACE </s>
-0.6021 LIBRARY WINDOW BOOKMARKS
-0.6021 LIBRARY WINDOW HISTORY
-0.3010 LINE ABOVE </s>
-0.3010 LINE BELOW </s>
-0.3010 LINE COMMENT </s>
-0.3010 LINE DOWN </s>
-0.3010 LINE UP </s>
-0.3010 LOCATION BAR </s>
-0.3010 LOCK SCREEN </s>
-0.3010 LOG OUT </s>
-0.3010 LOWER CASE </s>
-0.6021 MARKDOWN PREVIEW </s>
-0.6021 MARKDOWN PREVIEW TO
-0.3010 MATCHING BRACKET </s>
-0.3010 MATCHING ITEMS </s>
-0.3010 MAXIMIZE WINDOW </s>
-0.3010 MENU BAR </s>
-0.3010 MODE EDITOR OPEN
-0.3010 MOVE BACK ONE
-0.4771 MOVE EDITOR GROUP
-1.0792 MOVE EDITOR LEFT
-1.0792 MOVE EDITOR RIGHT
-0.3010 MOVE FORWARD ONE
-0.6021 MOVE LINE DOWN
-0.6021 MOVE LINE UP
-1.0792 MOVE TAB LEFT
-1.0792 MOVE TAB RIGHT
-0.4771 MOVE TAB TO
-1.1461 MOVE TO END
-1.1461 MOVE TO NEXT
-1.1461 MOVE TO PREVIOUS
-1.1461 MOVE TO START
-1.1461 MOVE TO TRASH
-0.8451 MOVE TO WORKSPACE
-0.9031 MOVE WINDOW </s>
-0.6021 MOVE WINDOW ONE
-0.9031 MOVE WINDOW TO
-0.6021 MOVE WORD LEFT
-0.6021 MOVE WORD RIGHT
-0.3010 MOVES FOCUS </s>
-0.3010 NEW FILE </s>
-0.3010 NEW FOLDER </s>
-0.3010 NEW PRIVATE WINDOW
-0.4771 NEW TAB </s>
-0.7782 NEW TAB GROUP
-0.3010 NEW TERMINAL </s>
-0.3010 NEW WINDOW </s>
-0.3010 NEXT EDITOR GROUP
-0.3010 NEXT ERROR </s>
-0.3010 NEXT FRAME </s>
-0.3010 NEXT INPUT SOURCE
-0.3010 NEXT PAGE </s>
-0.4260 NEXT TAB </s>
-0.9031 NEXT TAB GROUP
-0.3010 NEXT WARNING </s>
-0.3010 NOTIFICATION LIST </s>
-0.3010 NUMBER BOX </s>
-0.6021 OF CURRENT SELECTION
-0.6021 OF CURRENT WORD
-0.3010 OF DOCUMENT </s>
-0.3010 OF FILE </s>
-0.3010 OF FIND MATCH
-0.3010 OF LINE </s>
-0.3010 OF PAGE </s>
-0.3010 OF SELECTED LINES
-0.3010 OF WORD </s>
-0.3010 ON LEFT </s>
-0.3010 ON RIGHT </s>
-0.3010 ONE CHARACTER </s>
-0.3010 ONE LINE </s>
-0.3010 ONE PAGE </s>
-0.6021 ONE WORD </s>
-0.6021 ONE WORD TO
-0.6021 ONE WORKSPACE DOWN
-0.6021 ONE WORKSPACE UP
-0.3010 OPEN APPLICATION MENU
-0.3010 OPEN DEFINITION TO
-0.3010 OPEN DOCUMENT </s>
-1.0000 OPEN FILE </s>
-1.0000 OPEN FILE AND
-1.0000 OPEN FILE IN
-1.0000 OPEN FILE LOCATION
-1.0000 OPEN FILE MENU
-0.3010 OPEN IN NEW
-0.3010 OPEN ITEM LOCATION
-0.3010 OPEN MARKDOWN PREVIEW
-0.3010 OPEN NEXT </s>
-0.3010 OPEN PREVIOUS </s>
-0.3010 OPEN USER GUIDE
-0.3010 OUTDENT LINE </s>
-0.3010 OUTPUT PANEL </s>
-0.6021 PAGE DOWN </s>
-0.6021 PAGE DOWN IN
-0.3010 PAGE INFO </s>
-0.3010 PAGE NUMBER BOX
-0.3010 PAGE SOURCE </s>
-0.6021 PAGE UP </s>
-0.6021 PAGE UP IN
-0.3010 PARAMETER HINTS </s>
-0.3010 PARTIAL SCREENSHOT </s>
-0.3010 PASTE AS PLAIN
-0.3010 PASTE IN TERMINAL
-0.3010 PEEK DEFINITION </s>
-0.3010 PLAIN TEXT </s>
-0.3010 PRESENTATION MODE </s>
-0.3010 PREVIEW MODE EDITOR
-0.3010 PREVIEW TO SIDE
-0.3010 PREVIOUS EDITOR GROUP
-0.3010 PREVIOUS ERROR </s>
-0.3010 PREVIOUS FRAME </s>
-0.3010 PREVIOUS INPUT SOURCE
-0.3010 PREVIOUS PAGE </s>
-0.4260 PREVIOUS TAB </s>
-0.9031 PREVIOUS TAB GROUP
-0.3010 PREVIOUS WARNING </s>
-0.3010 PREVIOUS WORD </s>
-0.3010 PRINT PREVIEW </s>
-0.3010 PRIVATE WINDOW </s>
-0.3010 PROBLEMS PANEL </s>
-0.4771 QUICK FIND </s>
-0.7782 QUICK FIND LINKS
-0.3010 QUICK FIX </s>
-0.3010 QUICK OPEN </s>
-0.3010 READER MODE </s>
-0.3010 READER OFF </s>
-0.3010 READER ON </s>
-0.3010 RECORD SCREENCAST </s>
-0.3010 REMOVE LINE COMMENT
-0.3010 REMOVE TAB STOP
-0.3010 RENAME SYMBOL </s>
-0.3010 REPLACE IN FILES
-0.3010 RESET ZOOM </s>
-0.3010 RESIZE WINDOW </s>
-0.3010 RESPONSIVE DESIGN VIEW
-0.3010 RESTORE TAB </s>
-0.3010 RESTORE WINDOW </s>
-0.3010 ROTATE COUNTERCLOCKWISE </s>
-0.3010 SAVE ALL TABS
-0.3010 SAVE AS </s>
-0.3010 SAVE PARTIAL SCREENSHOT
-0.3010 SAVE SCREENSHOT </s>
-0.3010 SAVE WINDOW SCREENSHOT
-0.6021 SCREEN READER OFF
-0.6021 SCREEN READER ON
-0.7782 SCROLL DOWN IN
-0.4771 SCROLL DOWN ONE
-0.6021 SCROLL LINE DOWN
-0.6021 SCROLL LINE UP
-0.6021 SCROLL PAGE DOWN
-0.6021 SCROLL PAGE UP
-0.6021 SCROLL TO BOTTOM
-0.6021 SCROLL TO TOP
-0.7782 SCROLL UP IN
-0.4771 SCROLL UP ONE
-0.3010 SEARCH BAR </s>
-0.3010 SEARCH DETAILS </s>
-0.3010 SECOND EDITOR GROUP
-0.6021 SEEK BACK FIFTEEN
-0.6021 SEEK BACK TEN
-0.6021 SEEK FORWARD FIFTEEN
-0.6021 SEEK FORWARD TEN
-0.6021 SEEK TO BEGINNING
-0.6021 SEEK TO END
-0.9031 SELECT ALL </s>
-0.4260 SELECT ALL OF
-0.3010 SELECT CURRENT LINE
-0.3010 SELECT LOCATION BAR
-0.3010 SELECT MATCHING ITEMS
-0.3010 SELECTED LINES </s>
-0.3010 SELECTION TOOL </s>
-0.3010 SHOW ACTION MENU
-0.3010 SHOW ACTIVITIES OVERVIEW
-0.6021 SHOW ALL APPLICATIONS
-0.6021 SHOW ALL SYMBOLS
-0.6021 SHOW COMMAND PALETTE
-0.6021 SHOW COMMAND PROMPT
-0.3010 SHOW DEBUG </s>
-0.3010 SHOW EXPLORER </s>
-0.3010 SHOW EXTENSIONS </s>
-0.3010 SHOW HELP </s>
-0.3010 SHOW HIDDEN FILES
-0.3010 SHOW HOVER </s>
-0.3010 SHOW ITEM PROPERTIES
-0.3010 SHOW NOTIFICATION LIST
-0.3010 SHOW OUTPUT PANEL
-0.3010 SHOW OVERVIEW </s>
-0.3010 SHOW PROBLEMS PANEL
-0.3010 SHOW REFERENCES </s>
-0.3010 SHOW SEARCH </s>
-0.3010 SHOW SIDE PANEL
-0.3010 SHOW SIDEBAR </s>
-0.3010 SHOW SOURCE CONTROL
-0.3010 SHOW TERMINAL </s>
-0.3010 SHRINK SELECTION </s>
-0.3010 SIDE PANEL </s>
-0.3010 SIDEBAR VISIBILITY </s>
-0.3010 SOURCE CONTROL </s>
-0.3010 SPLIT EDITOR </s>
-0.6021 SPLIT ON LEFT
-0.6021 SPLIT ON RIGHT
-0.4771 START OF LINE
-0.7782 START OF WORD
-0.3010 STEP INTO </s>
-0.3010 STEP OUT </s>
-0.3010 STEP OVER </s>
-0.3010 STYLE EDITOR </s>
-1.5051 SWITCH TO LAST
-1.2041 SWITCH TO NEXT
-1.5051 SWITCH TO PRESENTATION
-1.2041 SWITCH TO PREVIOUS
-0.5051 SWITCH TO TAB
-0.7782 SWITCH WINDOWS </s>
-0.7782 SWITCH WINDOWS DIRECTLY
-0.7782 SWITCH WINDOWS OF
-0.3010 TAB EIGHT </s>
-0.3010 TAB FIVE </s>
-0.3010 TAB FOUR </s>
-0.3010 TAB GROUP </s>
-0.3010 TAB LEFT </s>
-0.3010 TAB MOVES FOCUS
-0.3010 TAB NINE </s>
-0.3010 TAB ONE </s>
-0.3010 TAB RIGHT </s>
-0.3010 TAB SEVEN </s>
-0.3010 TAB SIX </s>
-0.3010 TAB STOP </s>
-0.3010 TAB TEN </s>
-0.3010 TAB THREE </s>
-0.9031 TAB TO END
-0.9031 TAB TO LEFT
-0.9031 TAB TO RIGHT
-0.9031 TAB TO START
-0.3010 TAB TWO </s>
-0.3010 TEN PERCENT </s>
-0.3010 TEXT SELECTION TOOL
-0.3010 THIRD EDITOR GROUP
-0.3010 THIS PAGE </s>
-0.6990 TO BEGINNING </s>
-0.5229 TO BEGINNING OF
-0.7782 TO BOTTOM </s>
-0.7782 TO BOTTOM IN
-0.7782 TO BOTTOM OF
-0.3010 TO DEFINITION </s>
-0.7270 TO END </s>
-0.5051 TO END OF
-0.3010 TO FILE </s>
-0.3010 TO HOME FOLDER
-0.6021 TO LAST TAB
-0.6021 TO LAST WORKSPACE
-0.3010 TO LEFT </s>
-0.3010 TO LINE </s>
-0.3010 TO LOWER CASE
-0.3010 TO MATCHING BRACKET
-1.0792 TO NEXT ERROR
-1.0792 TO NEXT FRAME
-1.0792 TO NEXT INPUT
-0.7782 TO NEXT TAB
-1.0792 TO NEXT WARNING
-0.3010 TO PRESENTATION MODE
-1.0792 TO PREVIOUS ERROR
-1.0792 TO PREVIOUS FRAME
-1.0792 TO PREVIOUS INPUT
-0.7782 TO PREVIOUS TAB
-1.0792 TO PREVIOUS WARNING
-0.3010 TO RIGHT </s>
-0.3010 TO SIDE </s>
-0.9031 TO START </s>
-0.4260 TO START OF
-0.3010 TO SYMBOL </s>
-1.3010 TO TAB EIGHT
-1.3010 TO TAB FIVE
-1.3010 TO TAB FOUR
-1.3010 TO TAB NINE
-1.3010 TO TAB ONE
-1.3010 TO TAB SEVEN
-1.3010 TO TAB SIX
-1.3010 TO TAB TEN
-1.3010 TO TAB THREE
-1.3010 TO TAB TWO
-0.7782 TO TOP </s>
-0.7782 TO TOP IN
-0.7782 TO TOP OF
-0.3010 TO TRASH </s>
-0.3010 TO UPPER CASE
-0.6021 TO WORKSPACE ABOVE
-0.6021 TO WORKSPACE BELOW
-0.3010 TOGGLE BLOCK COMMENT
-0.3010 TOGGLE BREAKPOINT </s>
-0.3010 TOGGLE CASE </s>
-0.3010 TOGGLE CONTEXT MENU
-0.3010 TOGGLE DEVELOPER TOOLS
-0.3010 TOGGLE EDITOR LAYOUT
-0.3010 TOGGLE FOCUS </s>
-0.3010 TOGGLE FULL SCREEN
-0.3010 TOGGLE LINE COMMENT
-0.3010 TOGGLE READER MODE
-0.3010 TOGGLE SEARCH DETAILS
-0.3010 TOGGLE SIDEBAR VISIBILITY
-0.3010 TOGGLE TAB MOVES
-0.3010 TOGGLE WORD WRAP
-0.3010 TOP IN TERMINAL
-0.3010 TOP OF PAGE
-0.3010 TRIGGER PARAMETER HINTS
-0.3010 TRIGGER SUGGESTION </s>
-0.3010 TRIM LINE </s>
-0.3010 TURN SCREEN READER
-0.6021 TURN ZOOM OFF
-0.6021 TURN ZOOM ON
-0.7782 UNDO CLOSE EDITOR
-0.7782 UNDO CLOSE TAB
-0.7782 UNDO CLOSE WINDOW
-0.6021 UNFOLD ALL REGIONS
-0.6021 UNFOLD ALL SUBREGIONS
-0.3010 UNFOLD REGION </s>
-0.3010 UP IN TERMINAL
-0.6021 UP ONE LINE
-0.6021 UP ONE PAGE
-0.3010 UPPER CASE </s>
-0.3010 USER GUIDE </s>
-0.3010 USER SETTINGS </s>
-0.3010 VIEW SPLIT ON
-0.3010 WEB CONSOLE </s>
-0.3010 WINDOW BOOKMARKS </s>
-0.3010 WINDOW HISTORY </s>
-0.3010 WINDOW MENU </s>
-0.3010 WINDOW ONE WORKSPACE
-0.3010 WINDOW SCREENSHOT </s>
-0.3010 WINDOW TO LAST
-0.3010 WINDOWS DIRECTLY </s>
-0.3010 WINDOWS OF </s>
-0.3010 WORD LEFT </s>
-0.3010 WORD RIGHT </s>
-0.6021 WORD TO LEFT
-0.6021 WORD TO RIGHT
-0.3010 WORD WRAP </s>
-0.3010 WORKSPACE ABOVE </s>
-0.3010 WORKSPACE BELOW </s>
-0.3010 WORKSPACE DOWN </s>
-0.3010 WORKSPACE UP </s>
-0.3010 ZEN MODE </s>
-0.3010 ZOOM IN </s>
-0.3010 ZOOM OFF </s>
-0.3010 ZOOM ON </s>
-0.3010 ZOOM OUT </s>

\end\
