Language model created by QuickLM on Thu Mar 19 07:15:36 EDT 2020
Copyright (c) 1996-2010 Carnegie Mellon University and Alexander I. Rudnicky

The model is in standard ARPA format, designed by Doug Paul while he was at MITRE.

The code that was used to produce this language model is available in Open Source.
Please visit http://www.speech.cs.cmu.edu/tools/ for more information

The (fixed) discount mass is 0.5. The backoffs are computed using the ratio method.
This model based on a corpus of 461 sentences and 355 words

\data\
ngram 1=355
ngram 2=1035
ngram 3=1403

\1-grams:
-3.7688 "MAKE" -0.2998
-3.7688 (AS -0.3010
-3.7688 (BOOKMARKS) -0.2927
-3.4678 (EMPTY -0.3009
-3.7688 (HISTORY) -0.2927
-3.7688 (OVERRIDE -0.3010
-3.7688 (SHOWING -0.3010
-3.2917 (WITH -0.3008
-3.7688 .COM -0.3010
-3.7688 / -0.3006
-3.2917 1 -0.2887
-3.7688 10 -0.2971
-3.2917 2 -0.2887
-3.2917 3 -0.2887
-3.2917 4 -0.2887
-3.2917 5 -0.2887
-3.2917 6 -0.2887
-3.2917 7 -0.2887
-3.2917 8 -0.2887
-3.2917 9 -0.2887
-1.1051 </s> -0.3010
-1.1051 <s> -0.2557
-2.4071 A -0.2858
-3.2917 ABOVE -0.2541
-3.2917 ACTION -0.2958
-3.7688 ACTIVATE -0.2949
-3.7688 ACTIVATION -0.3010
-2.8145 ACTIVE -0.2947
-3.7688 ACTIVITIES -0.3009
-3.2917 ADD -0.2960
-3.7688 ADD-ONS -0.2927
-3.7688 ADDRESS -0.2927
-3.7688 AGAIN -0.2927
-2.5927 ALL -0.2764
-3.2917 AN -0.2931
-3.4678 AND -0.2993
-3.7688 APP -0.3009
-3.4678 APPLICATION -0.2969
-3.7688 APPLICATIONS -0.2655
-3.7688 AREA -0.2933
-3.7688 AS -0.2927
-3.7688 AS... -0.2905
-3.4678 AT -0.2941
-3.2917 AUDIO -0.2927
-3.7688 AUTOCOMPLETE -0.3010
-3.7688 AUTOSCROLL -0.3006
-2.9906 BACK -0.2799
-3.1667 BAR -0.2926
-2.8657 BEGINNING -0.2900
-3.2917 BELOW -0.2541
-3.7688 BLOCK -0.3007
-3.7688 BOOKMARK -0.3010
-3.7688 BOOKMARKS -0.3007
-3.2917 BOTTOM -0.2838
-3.7688 BOX -0.2927
-3.7688 BRACKET -0.2905
-3.7688 BREAKPOINT -0.2905
-3.7688 BROWSER -0.3009
-3.7688 BROWSING -0.2927
-3.1667 BY -0.2994
-3.7688 CACHE) -0.2927
-3.7688 CANCEL -0.3010
-3.7688 CARET -0.3010
-3.2917 CASE -0.2937
-3.7688 CHANGE -0.3001
-3.4678 CHARACTER -0.2971
-3.7688 CHECK -0.3010
-3.4678 CHOOSE -0.3004
-3.0698 CLEAR -0.2940
-3.1667 CLIPBOARD -0.2612
-3.7688 CLOCKWISE -0.2927
-2.4678 CLOSE -0.2723
-3.4678 CLOSED -0.2951
-1.6196 CODE -0.2655
-3.2917 COMMAND -0.3008
-3.1667 COMMENT -0.2905
-3.7688 COMPLETE -0.3010
-3.4678 CONSOLE -0.2927
-3.7688 CONTEXT -0.3005
-3.7688 CONTINUE -0.2905
-3.7688 CONTROL -0.2905
-3.4678 CONVERT -0.2949
-2.7688 COPY -0.2747
-3.7688 COUNTERCLOCKWISE -0.2927
-3.1667 CREATE -0.2976
-2.6896 CURRENT -0.2956
-2.8657 CURSOR -0.2817
-3.1667 CUT -0.2814
-3.7688 CYCLE -0.3010
-3.7688 DEBUG -0.2905
-3.7688 DEBUGGER -0.2927
-3.7688 DECREASE -0.3009
-3.7688 DEFAULT -0.3009
-3.2917 DEFINITION -0.2825
-2.7274 DELETE -0.2803
-3.7688 DESIGN -0.3007
-3.7688 DETAILS -0.2905
-3.4678 DEVELOPER -0.3009
-3.4678 DIRECTLY -0.2655
-3.4678 DIRECTORY -0.3007
-2.7274 DOCUMENT -0.2841
-2.6896 DOWN -0.2500
-3.7688 DOWNLOADS -0.2927
-3.7688 DRAG-AND-DROP -0.3009
-3.7688 EACH -0.2984
-2.5135 EDITOR -0.2772
-2.7274 END -0.2900
-3.7688 ENTER -0.3008
-3.7688 ENTRY -0.2927
-3.4678 ERASE -0.2993
-3.4678 ERROR -0.3006
-3.7688 EXIT -0.3009
-3.7688 EXPAND -0.3004
-3.4678 EXPLORER -0.2905
-3.7688 EXTENSIONS -0.2905
-3.1667 FIELD -0.2914
-3.4678 FIFTEEN -0.3009
-2.6896 FILE -0.2749
-3.4678 FILE... -0.2905
-3.7688 FILENAME -0.2963
-3.4678 FILES -0.2867
-2.4900 FIND -0.2658
-1.7196 FIREFOX -0.2655
-3.7688 FIRST -0.2997
-3.7688 FIX -0.2905
-2.6896 FOCUS -0.2805
-3.2917 FOLD -0.2998
-3.2917 FOLDER -0.2867
-3.4678 FORMAT -0.2995
-2.9906 FORWARD -0.2799
-3.4678 FRAME -0.2927
-3.1667 FROM -0.2949
-3.2917 FULL -0.3003
-1.9694 GEDIT -0.2603
-2.3064 GO -0.2889
-3.7688 GOTO -0.2984
-2.6548 GROUP -0.2816
-3.7688 GUIDE -0.2963
-3.7688 HAND -0.3009
-3.7688 HELP -0.2974
-3.7688 HIDDEN -0.3009
-3.7688 HIDDEN) -0.2927
-2.9906 HIDE -0.2907
-3.4678 HIGHLIGHT -0.2924
-3.7688 HINTS -0.2905
-3.0698 HISTORY -0.2774
-3.4678 HOME -0.2924
-3.7688 HOVER -0.2905
-2.5383 IN -0.2243
-3.7688 INCREASE -0.3009
-3.7688 INCREMENTAL -0.3004
-3.7688 INDENT -0.2984
-3.7688 INFO -0.2927
-3.0698 INPUT -0.3004
-2.9906 INSERT -0.2978
-3.7688 INSPECTOR -0.2927
-3.4678 INSTANCE -0.2984
-3.7688 INTEGRATED -0.2971
-2.9237 INTO -0.2871
-3.7688 INVERT -0.3004
-3.7688 IT -0.3010
-3.4678 ITEM -0.3007
-3.7688 ITEMS -0.2974
-3.7688 JUMP -0.2933
-3.7688 KEEP -0.3007
-3.4678 KEYBOARD -0.3008
-3.7688 LANGUAGE -0.2905
-3.0698 LAST -0.2994
-3.7688 LAYOUT(HORIZONTAL/VERTICAL) -0.2905
-3.7688 LEAVING -0.2949
-2.6896 LEFT -0.2287
-3.1667 LIBRARY -0.2898
-2.2125 LINE -0.2691
-3.7688 LINE... -0.2905
-3.4678 LINK -0.3006
-3.7688 LINK-TEXT -0.3010
-3.7688 LIST -0.2655
-3.7688 LISTING -0.3008
-3.2917 LOCATION -0.2971
-3.7688 LOCK -0.3003
-3.7688 LOG -0.3005
-3.7688 LOWER -0.3008
-3.4678 MARKDOWN -0.3007
-3.2917 MATCH -0.2905
-3.4678 MATCHING -0.3009
-3.7688 MAXIMIZATION -0.3010
-3.7688 MAXIMIZE -0.2987
-2.9237 MENU -0.2468
-2.9906 MODE -0.2805
-3.1667 MONITOR -0.2915
-3.7688 MOST -0.3009
-2.1253 MOVE -0.2736
-3.7688 MOVES -0.3001
-3.7688 MUTE -0.3008
-3.7688 MUTE/UNMUTE -0.3008
-2.0786 NAUTILUS -0.2655
-3.7688 NAVIGATE -0.2997
-3.7688 NETWORK -0.2927
-2.4678 NEW -0.2878
-2.5383 NEXT -0.2766
-3.7688 NON-INCREMENTAL -0.3004
-3.4678 NORMAL -0.3007
-3.4678 NOTIFICATION -0.2654
-3.7688 NUMBER -0.3007
-3.2917 OCCURRENCES -0.2984
-2.2247 OF -0.2841
-3.4678 OFF -0.2655
-3.1667 ON -0.2636
-2.4264 ONE -0.2907
-3.7688 ONLY -0.2927
-2.4264 OPEN -0.2689
-3.4678 OPERATION -0.2819
-2.9906 OR -0.2997
-3.7688 ORDER -0.2927
-2.9237 OUT -0.2361
-3.7688 OUTDENT -0.2984
-3.7688 OUTPUT -0.3008
-3.7688 OVER -0.2905
-3.4678 OVERVIEW -0.2655
-2.5927 PAGE -0.2863
-3.7688 PALETTE -0.2905
-3.2917 PANEL -0.2857
-3.7688 PARAMETER -0.3010
-2.8657 PASTE -0.2677
-3.7688 PATH -0.2984
-3.7688 PEEK -0.3008
-3.4678 PERCENT -0.2927
-3.7688 PERMANENTLY -0.2974
-3.2917 PICTURES -0.2655
-3.7688 PLAIN -0.3010
-3.7688 PLAY/PAUSE -0.2927
-3.2917 PLUGIN) -0.2963
-3.7688 PRESENTATION -0.3006
-3.1667 PREVIEW -0.2772
-2.5927 PREVIOUS -0.2681
-3.2917 PRINT -0.2861
-3.7688 PRIVATE -0.2987
-3.7688 PROBLEMS -0.3008
-3.7688 PROFILER -0.2927
-3.7688 PROMPT -0.2655
-3.7688 PROMPT/TERMINAL -0.2905
-3.7688 PROPERTIES -0.2974
-2.9906 QUICK -0.2979
-3.4678 QUIT -0.2879
-3.2917 READER -0.3001
-3.7688 RECENT -0.3007
-3.4678 RECENTLY -0.3008
-3.7688 RECORD -0.2993
-3.2917 REDO -0.2827
-3.7688 REFERENCES -0.2905
-3.7688 REFRESH -0.3007
-3.4678 REGION -0.2905
-3.4678 REGIONS -0.2905
-3.4678 RELOAD -0.2926
-3.2917 REMOVE -0.2965
-3.4678 RENAME -0.2973
-3.4678 REOPEN -0.2948
-3.2917 REPLACE -0.2844
-3.4678 RESET -0.2916
-3.7688 RESIZE -0.2987
-3.7688 RESPONSIVE -0.3010
-3.2917 RESTORE -0.2878
-3.7688 REVEAL -0.3004
-3.4678 REVERSE -0.3009
-2.6896 RIGHT -0.2287
-3.4678 ROTATE -0.2948
-3.4678 RUN -0.3007
-2.8145 SAVE -0.2800
-3.7688 SCRATCHPAD -0.2927
-2.7688 SCREEN -0.2399
-3.7688 SCREENCAST -0.2655
-2.9906 SCREENSHOT -0.2906
-2.5647 SCROLL -0.2876
-2.8145 SEARCH -0.2832
-3.7688 SECOND -0.2997
-3.4678 SECONDS -0.2927
-2.9906 SEEK -0.2924
-2.8145 SELECT -0.2987
-2.8145 SELECTED -0.2859
-2.8145 SELECTION -0.2786
-3.4678 SELECTION) -0.2905
-3.7688 SETTINGS -0.2905
-3.7688 SHORT -0.3010
-3.2917 SHORTCUTS -0.2500
-2.3886 SHOW -0.2905
-3.7688 SHRINK -0.3004
-3.2917 SIDE -0.2902
-3.0698 SIDEBAR -0.2889
-3.7688 SIZE -0.2971
-3.1667 SOURCE -0.2564
-3.7688 SPACE -0.2655
-3.7688 SPACES -0.3008
-3.7688 SPELLING -0.2963
-3.2917 SPLIT -0.2994
-3.1667 START -0.2792
-3.7688 STATE -0.2655
-3.2917 STEP -0.2999
-3.0698 STOP -0.2769
-3.2917 STRING -0.2963
-3.7688 STYLE -0.2997
-3.4678 SUBREGIONS -0.2905
-3.7688 SUGGESTION -0.2905
-2.1890 SWITCH -0.2930
-3.7688 SYMBOL -0.2905
-3.7688 SYMBOL... -0.2905
-3.7688 SYMBOLS -0.2905
-1.9764 TAB -0.2662
-3.2917 TABS -0.2951
-3.7688 TEMPORARILY -0.3010
-3.4678 TEN -0.3009
-2.0445 TERMINAL -0.2541
-2.8657 TEXT -0.2776
-3.7688 TEXT) -0.2927
-1.8550 THE -0.2728
-3.7688 THIRD -0.2997
-3.7688 THIS -0.2999
-3.7688 THROUGH -0.3008
-1.7518 TO -0.2815
-2.5135 TOGGLE -0.2875
-3.4678 TOOL -0.2927
-3.7688 TOOLBAR -0.2927
-3.7688 TOOLS -0.2927
-3.1667 TOP -0.2838
-3.4678 TRAILING -0.3009
-3.7688 TRASH -0.2974
-3.4678 TRIGGER -0.3009
-3.7688 TRIM -0.3009
-3.1667 TURN -0.2993
-2.9906 UNDO -0.2807
-3.7688 UNDONE -0.3008
-3.4678 UNFOLD -0.2998
-3.7688 UNFOLDALL -0.3009
-3.7688 UNMUTE -0.3008
-2.6896 UP -0.2500
-3.7688 UPPER -0.3008
-3.7688 USED -0.3010
-3.4678 USER -0.3009
-3.1667 VIEW -0.2887
-3.7688 VISIBILITY -0.2905
-3.4678 VOLUME -0.2927
-3.4678 WARNING -0.2905
-3.7688 WEB -0.3009
-3.7688 WHEN -0.3010
-3.7688 WHITESPACE -0.2905
-2.2636 WINDOW -0.2187
-3.7688 WINDOW/INSTANCE -0.2905
-3.1667 WINDOWS -0.2625
-3.4678 WITH -0.2993
-3.7688 WITHIN -0.3010
-2.5927 WORD -0.2715
-3.7688 WORKING -0.3010
-3.1667 WORKSPACE -0.2988
-3.7688 WRAP -0.2905
-3.4678 ZEN -0.3006
-2.6227 ZOOM -0.2950

\2-grams:
-0.3010 "MAKE" IN -0.2747
-0.3010 (AS PLAIN 0.0000
-0.3010 (BOOKMARKS) FIREFOX 0.0000
-0.3010 (EMPTY SELECTION) 0.0000
-0.3010 (HISTORY) FIREFOX 0.0000
-0.3010 (OVERRIDE CACHE) 0.0000
-0.3010 (SHOWING IT 0.0000
-0.3010 (WITH PLUGIN) 0.0000
-0.3010 .COM ADDRESS 0.0000
-0.3010 / HIDE -0.2632
-0.7782 1 GEDIT -0.0136
-0.7782 1 NAUTILUS 0.0000
-0.7782 1 TERMINAL -0.0239
-0.3010 10 TERMINAL -0.0239
-0.7782 2 GEDIT -0.0136
-0.7782 2 NAUTILUS 0.0000
-0.7782 2 TERMINAL -0.0239
-0.7782 3 GEDIT -0.0136
-0.7782 3 NAUTILUS 0.0000
-0.7782 3 TERMINAL -0.0239
-0.7782 4 GEDIT -0.0136
-0.7782 4 NAUTILUS 0.0000
-0.7782 4 TERMINAL -0.0239
-0.7782 5 GEDIT -0.0136
-0.7782 5 NAUTILUS 0.0000
-0.7782 5 TERMINAL -0.0239
-0.7782 6 GEDIT -0.0136
-0.7782 6 NAUTILUS 0.0000
-0.7782 6 TERMINAL -0.0239
-0.7782 7 GEDIT -0.0136
-0.7782 7 NAUTILUS 0.0000
-0.7782 7 TERMINAL -0.0239
-0.7782 8 GEDIT -0.0136
-0.7782 8 NAUTILUS 0.0000
-0.7782 8 TERMINAL -0.0239
-0.7782 9 GEDIT -0.0136
-0.7782 9 NAUTILUS 0.0000
-0.7782 9 TERMINAL -0.0239
-2.9647 <s> ACTIVATE 0.0000
-2.4876 <s> ADD 0.0000
-2.9647 <s> ADD-ONS 0.0000
-2.9647 <s> BACK -0.2632
-2.9647 <s> BOOKMARK 0.0000
-2.9647 <s> BOOKMARKS 0.0000
-2.9647 <s> BROWSER 0.0000
-2.9647 <s> CANCEL 0.0000
-2.9647 <s> CARET 0.0000
-2.9647 <s> CHANGE 0.0000
-2.9647 <s> CHECK 0.0000
-2.6637 <s> CHOOSE 0.0000
-2.2658 <s> CLEAR 0.0000
-1.7343 <s> CLOSE 0.0000
-2.9647 <s> COMPLETE 0.0000
-2.9647 <s> CONTINUE 0.0000
-2.6637 <s> CONVERT 0.0000
-1.9647 <s> COPY 0.0000
-2.3627 <s> CREATE 0.0000
-2.3627 <s> CUT 0.0000
-2.9647 <s> CYCLE 0.0000
-2.9647 <s> DEBUGGER 0.0000
-2.9647 <s> DECREASE 0.0000
-1.9233 <s> DELETE 0.0000
-2.9647 <s> DEVELOPER -0.1761
-2.9647 <s> DIRECTORY -0.1761
-2.9647 <s> DOWNLOADS 0.0000
-2.9647 <s> ENTER 0.0000
-2.6637 <s> ERASE 0.0000
-2.9647 <s> EXIT 0.0000
-2.9647 <s> EXPAND 0.0000
-1.8855 <s> FIND -0.1192
-1.9647 <s> FOCUS -0.0669
-2.4876 <s> FOLD 0.0000
-2.6637 <s> FORMAT 0.0000
-2.9647 <s> FORWARD -0.2632
-2.9647 <s> FULL 0.0000
-1.5023 <s> GO 0.0000
-2.9647 <s> GOTO 0.0000
-2.6637 <s> HIDE -0.2218
-2.9647 <s> HISTORY -0.2553
-2.9647 <s> HOME -0.1761
-2.9647 <s> INCREASE 0.0000
-2.9647 <s> INDENT 0.0000
-2.1866 <s> INSERT 0.0000
-2.9647 <s> INSPECTOR 0.0000
-2.9647 <s> INVERT 0.0000
-2.9647 <s> JUMP 0.0000
-2.9647 <s> KEEP 0.0000
-2.9647 <s> KEYBOARD 0.0000
-2.6637 <s> LIBRARY -0.1761
-2.9647 <s> LOCK 0.0000
-2.9647 <s> LOG 0.0000
-2.9647 <s> MAXIMIZE 0.0000
-1.3213 <s> MOVE 0.0000
-2.9647 <s> MUTE 0.0000
-2.9647 <s> MUTE/UNMUTE 0.0000
-2.9647 <s> NAVIGATE 0.0000
-2.9647 <s> NETWORK 0.0000
-1.9647 <s> NEW -0.1139
-2.6637 <s> NEXT -0.2167
-2.9647 <s> NORMAL -0.1761
-1.6860 <s> OPEN -0.0555
-2.9647 <s> OUTDENT 0.0000
-2.6637 <s> PAGE -0.2711
-2.0616 <s> PASTE 0.0000
-2.9647 <s> PEEK 0.0000
-2.6637 <s> PREVIOUS -0.2389
-2.4876 <s> PRINT 0.0000
-2.9647 <s> PROFILER 0.0000
-2.3627 <s> QUICK 0.0000
-2.6637 <s> QUIT 0.0000
-2.9647 <s> RECORD 0.0000
-2.4876 <s> REDO 0.0000
-2.9647 <s> REFRESH 0.0000
-2.6637 <s> RELOAD 0.0000
-2.4876 <s> REMOVE 0.0000
-2.6637 <s> RENAME 0.0000
-2.6637 <s> REOPEN 0.0000
-2.6637 <s> REPLACE -0.1249
-2.9647 <s> RESET -0.1761
-2.9647 <s> RESIZE 0.0000
-2.9647 <s> RESPONSIVE 0.0000
-2.4876 <s> RESTORE 0.0000
-2.9647 <s> REVEAL 0.0000
-2.6637 <s> REVERSE 0.0000
-2.6637 <s> ROTATE 0.0000
-2.9647 <s> RUN -0.1761
-2.0105 <s> SAVE 0.0000
-2.9647 <s> SCRATCHPAD 0.0000
-1.7606 <s> SCROLL 0.0000
-2.6637 <s> SEARCH -0.2499
-2.1866 <s> SEEK 0.0000
-2.0105 <s> SELECT 0.0000
-2.9647 <s> SHORTCUTS -0.2218
-1.5845 <s> SHOW -0.0000
-2.9647 <s> SHRINK 0.0000
-2.9647 <s> SPLIT -0.2218
-2.9647 <s> START -0.2430
-2.4876 <s> STEP 0.0000
-2.4876 <s> STOP -0.1461
-2.9647 <s> STYLE 0.0000
-1.3849 <s> SWITCH 0.0000
-1.7095 <s> TOGGLE 0.0000
-2.6637 <s> TRIGGER 0.0000
-2.9647 <s> TRIM 0.0000
-2.3627 <s> TURN 0.0000
-2.1866 <s> UNDO 0.0000
-2.6637 <s> UNFOLD 0.0000
-2.9647 <s> UNFOLDALL 0.0000
-2.9647 <s> UNMUTE 0.0000
-2.9647 <s> USER -0.1761
-2.6637 <s> VIEW -0.1761
-2.9647 <s> WEB 0.0000
-2.9647 <s> ZEN 0.0000
-1.9233 <s> ZOOM -0.0843
-1.6628 A DOCUMENT -0.1627
-1.6628 A LINE -0.2566
-1.6628 A MENU -0.2341
-0.9638 A NEW -0.0969
-1.3617 A SCREEN -0.2304
-0.8846 A SCREENSHOT 0.0000
-1.6628 A SHORT 0.0000
-1.6628 A STRING 0.0000
-1.3617 A TAB -0.2940
-1.3617 A WINDOW -0.2802
-1.6628 A WORD -0.2218
-0.7782 ABOVE </s> -0.3010
-0.4771 ABOVE CODE 0.0000
-0.4771 ACTION GEDIT -0.0136
-0.7782 ACTION MENU -0.2688
-0.3010 ACTIVATE THE -0.2984
-0.3010 ACTIVATION (SHOWING 0.0000
-0.6532 ACTIVE EDITOR -0.1597
-0.7782 ACTIVE FILE -0.1513
-1.2553 ACTIVE NOTIFICATION -0.1761
-1.2553 ACTIVE TERMINAL -0.2886
-0.3010 ACTIVITIES OVERVIEW 0.0000
-0.7782 ADD A -0.2817
-0.7782 ADD LINE -0.2825
-0.7782 ADD SELECTION -0.2499
-0.3010 ADD-ONS FIREFOX 0.0000
-0.3010 ADDRESS FIREFOX 0.0000
-0.3010 AGAIN FIREFOX 0.0000
-1.4771 ALL APPLICATIONS 0.0000
-1.4771 ALL CODE 0.0000
-1.4771 ALL FIREFOX 0.0000
-1.4771 ALL NAUTILUS 0.0000
-1.4771 ALL NORMAL -0.1761
-1.0000 ALL OCCURRENCES 0.0000
-1.4771 ALL REGIONS 0.0000
-1.1761 ALL SUBREGIONS 0.0000
-1.4771 ALL SYMBOLS 0.0000
-1.1761 ALL TABS -0.1249
-1.4771 ALL TEXT -0.2730
-0.7782 AN APP 0.0000
-0.7782 AN AREA 0.0000
-0.7782 AN TO -0.2947
-0.6021 AND CLOSE -0.2175
-0.6021 AND REPLACE -0.2218
-0.3010 APP DIRECTLY 0.0000
-0.6021 APPLICATION MENU -0.2341
-0.6021 APPLICATION NAUTILUS 0.0000
-0.3010 APPLICATIONS </s> -0.3010
-0.3010 AREA TO -0.2947
-0.3010 AS FIREFOX 0.0000
-0.3010 AS... CODE 0.0000
-0.6021 AT END -0.0726
-0.6021 AT THE -0.2957
-0.3010 AUDIO FIREFOX 0.0000
-0.3010 AUTOCOMPLETE ENTRY 0.0000
-0.3010 AUTOSCROLL MODE -0.1761
-1.0792 BACK CODE 0.0000
-1.0792 BACK FIFTEEN 0.0000
-1.0792 BACK FIREFOX 0.0000
-0.7782 BACK ONE -0.2139
-1.0792 BACK TEN 0.0000
-0.9031 BAR ACTIVATION 0.0000
-0.4260 BAR FIREFOX 0.0000
-1.2041 BEGINNING FIREFOX 0.0000
-0.3590 BEGINNING OF -0.1461
-0.7782 BELOW </s> -0.3010
-0.4771 BELOW CODE 0.0000
-0.3010 BLOCK COMMENT 0.0000
-0.3010 BOOKMARK THIS 0.0000
-0.3010 BOOKMARKS SIDEBAR -0.1461
-0.7782 BOTTOM CODE 0.0000
-0.7782 BOTTOM OF -0.2884
-0.7782 BOTTOM TERMINAL -0.0239
-0.3010 BOX FIREFOX 0.0000
-0.3010 BRACKET CODE 0.0000
-0.3010 BREAKPOINT CODE 0.0000
-0.3010 BROWSER CONSOLE 0.0000
-0.3010 BROWSING FIREFOX 0.0000
-0.3010 BY ONE -0.2374
-0.3010 CACHE) FIREFOX 0.0000
-0.3010 CANCEL DRAG-AND-DROP 0.0000
-0.3010 CARET BROWSING 0.0000
-0.4771 CASE GEDIT -0.0136
-0.7782 CASE OF -0.2118
-0.3010 CHANGE FILE -0.2825
-0.3010 CHARACTER TERMINAL -0.0239
-0.3010 CHECK SPELLING 0.0000
-0.6021 CHOOSE HAND 0.0000
-0.6021 CHOOSE TEXT -0.2730
-0.6990 CLEAR HIGHLIGHT 0.0000
-1.0000 CLEAR RECENT 0.0000
-1.0000 CLEAR SEARCH -0.2499
-1.0000 CLEAR THE -0.2957
-0.4260 CLIPBOARD </s> -0.3010
-0.9031 CLIPBOARD TERMINAL -0.0239
-0.3010 CLOCKWISE FIREFOX 0.0000
-1.6021 CLOSE A -0.2915
-1.3010 CLOSE ALL -0.2553
-1.6021 CLOSE CODE 0.0000
-1.6021 CLOSE EDITOR -0.2632
-1.6021 CLOSE FOLDER -0.2218
-0.9031 CLOSE TAB -0.2410
-1.3010 CLOSE THE -0.2737
-0.7570 CLOSE WINDOW -0.1576
-0.6021 CLOSED EDITOR -0.2632
-0.6021 CLOSED TAB -0.2904
-0.3010 CODE </s> -0.3010
-0.7782 COMMAND PALETTE 0.0000
-0.7782 COMMAND PROMPT 0.0000
-0.7782 COMMAND PROMPT/TERMINAL 0.0000
-0.3010 COMMENT CODE 0.0000
-0.3010 COMPLETE .COM 0.0000
-0.3010 CONSOLE FIREFOX 0.0000
-0.3010 CONTEXT MENU -0.2341
-0.3010 CONTINUE CODE 0.0000
-0.3010 CONTROL CODE 0.0000
-0.3010 CONVERT THE -0.2821
-0.8239 COPY A -0.2403
-1.3010 COPY FIREFOX 0.0000
-1.3010 COPY GEDIT -0.0136
-1.3010 COPY LINE -0.2888
-1.3010 COPY NAUTILUS 0.0000
-1.3010 COPY PATH 0.0000
-1.3010 COPY SELECTION -0.1597
-1.3010 COPY TERMINAL -0.0239
-0.3010 COUNTERCLOCKWISE FIREFOX 0.0000
-0.6021 CREATE A -0.2511
-0.9031 CREATE FOLDER -0.1249
-0.9031 CREATE NEW -0.2900
-1.3802 CURRENT DIRECTORY -0.1761
-0.7782 CURRENT DOCUMENT -0.1347
-0.6812 CURRENT LINE -0.2145
-1.3802 CURRENT SELECTION -0.1597
-1.3802 CURRENT WORD -0.2863
-1.2041 CURSOR ABOVE -0.1249
-1.2041 CURSOR AT -0.1761
-1.2041 CURSOR BELOW -0.1249
-1.2041 CURSOR CODE 0.0000
-1.2041 CURSOR OPERATION -0.1761
-0.7270 CURSOR TO -0.2358
-0.9031 CUT FIREFOX 0.0000
-0.9031 CUT GEDIT -0.0136
-0.9031 CUT LINE -0.2888
-0.9031 CUT NAUTILUS 0.0000
-0.3010 CYCLE THROUGH 0.0000
-0.3010 DEBUG CODE 0.0000
-0.3010 DEBUGGER FIREFOX 0.0000
-0.3010 DECREASE VOLUME 0.0000
-0.3010 DEFAULT APPLICATION -0.1761
-0.4771 DEFINITION CODE 0.0000
-0.7782 DEFINITION TO -0.2358
-1.3424 DELETE FIREFOX 0.0000
-0.8653 DELETE FROM 0.0000
-1.3424 DELETE LINE -0.2632
-1.3424 DELETE PERMANENTLY 0.0000
-1.3424 DELETE PREVIOUS -0.2863
-1.3424 DELETE SELECTED -0.2762
-1.3424 DELETE THE -0.2765
-1.0414 DELETE WORD -0.2389
-0.3010 DESIGN VIEW -0.2430
-0.3010 DETAILS CODE 0.0000
-0.6021 DEVELOPER TOOLBAR 0.0000
-0.6021 DEVELOPER TOOLS 0.0000
-0.3010 DIRECTLY </s> -0.3010
-0.6021 DIRECTORY (WITH 0.0000
-0.6021 DIRECTORY LISTING 0.0000
-1.3424 DOCUMENT CLOCKWISE 0.0000
-1.3424 DOCUMENT CODE 0.0000
-0.5643 DOCUMENT GEDIT -0.0136
-1.0414 DOCUMENT IN -0.2747
-1.3424 DOCUMENT WITH -0.1761
-1.0792 DOWN </s> -0.3010
-1.3802 DOWN A -0.2817
-1.0792 DOWN BY 0.0000
-0.6021 DOWN CODE 0.0000
-1.3802 DOWN ONE -0.2596
-0.3010 DOWNLOADS FIREFOX 0.0000
-0.3010 DRAG-AND-DROP OPERATION -0.1761
-0.3010 EACH LINE -0.2950
-1.0792 EDITOR CODE 0.0000
-1.5563 EDITOR FIREFOX 0.0000
-0.5563 EDITOR GROUP -0.0902
-1.5563 EDITOR LAYOUT(HORIZONTAL/VERTICAL) 0.0000
-1.5563 EDITOR LEFT -0.2632
-1.5563 EDITOR OPEN -0.2808
-1.5563 EDITOR RIGHT -0.2632
-1.0414 END FIREFOX 0.0000
-0.3882 END OF -0.1372
-0.3010 ENTER LOCATION -0.1249
-0.3010 ENTRY FIREFOX 0.0000
-0.3010 ERASE A -0.2817
-0.3010 ERROR OR -0.2218
-0.3010 EXIT ZEN 0.0000
-0.3010 EXPAND SELECTION -0.1597
-0.3010 EXPLORER CODE 0.0000
-0.3010 EXTENSIONS CODE 0.0000
-0.6021 FIELD FIREFOX 0.0000
-0.6021 FIELD IN -0.2747
-0.3010 FIFTEEN SECONDS 0.0000
-1.3802 FILE AND -0.1761
-0.6812 FILE CODE 0.0000
-1.3802 FILE FIREFOX 0.0000
-1.3802 FILE GEDIT -0.0136
-1.0792 FILE IN -0.2467
-1.3802 FILE LANGUAGE 0.0000
-1.3802 FILE MENU -0.2688
-0.3010 FILE... CODE 0.0000
-0.3010 FILENAME GEDIT -0.0136
-0.6021 FILES CODE 0.0000
-0.6021 FILES NAUTILUS 0.0000
-1.5798 FIND A -0.2915
-1.5798 FIND AGAIN 0.0000
-1.5798 FIND BAR -0.0969
-1.5798 FIND CODE 0.0000
-1.2788 FIND FIREFOX 0.0000
-1.1027 FIND MATCH 0.0000
-1.2788 FIND NEXT -0.2609
-1.5798 FIND OR -0.2632
-1.1027 FIND PREVIOUS -0.2389
-1.5798 FIND TERMINAL -0.0239
-1.2788 FIND THE -0.2903
-1.5798 FIND WITHIN 0.0000
-0.3010 FIREFOX </s> -0.3010
-0.3010 FIRST EDITOR -0.1597
-0.3010 FIX CODE 0.0000
-1.0792 FOCUS CODE 0.0000
-0.6812 FOCUS INTO -0.1091
-1.3802 FOCUS NEXT -0.2881
-1.3802 FOCUS PREVIOUS -0.2863
-1.3802 FOCUS SEARCH -0.2762
-1.0792 FOCUS THE -0.2957
-0.4771 FOLD ALL -0.2553
-0.7782 FOLD REGION 0.0000
-0.7782 FOLDER CODE 0.0000
-0.4771 FOLDER NAUTILUS 0.0000
-0.6021 FORMAT DOCUMENT -0.2808
-0.6021 FORMAT SELECTION -0.1597
-1.0792 FORWARD CODE 0.0000
-1.0792 FORWARD FIFTEEN 0.0000
-1.0792 FORWARD FIREFOX 0.0000
-0.7782 FORWARD ONE -0.2139
-1.0792 FORWARD TEN 0.0000
-0.3010 FRAME FIREFOX 0.0000
-0.3010 FROM THE -0.2903
-0.3010 FULL SCREEN -0.1461
-0.3150 GEDIT </s> -0.3010
-2.1004 GEDIT GEDIT -0.0136
-2.1004 GEDIT USER -0.1761
-1.7634 GO BACK -0.2632
-1.7634 GO DOWN -0.2825
-1.7634 GO FORWARD -0.2632
-1.1614 GO ONE -0.2139
-0.4412 GO TO -0.2285
-1.7634 GO UP -0.2825
-0.3010 GOTO LINE -0.2632
-0.7160 GROUP CODE 0.0000
-1.4150 GROUP DOWN -0.1761
-0.9379 GROUP GEDIT -0.0136
-1.4150 GROUP HISTORY -0.2553
-1.4150 GROUP LEFT -0.2632
-1.4150 GROUP RIGHT -0.2632
-1.4150 GROUP UP -0.1761
-0.3010 GUIDE GEDIT -0.0136
-0.3010 HAND TOOL 0.0000
-0.3010 HELP NAUTILUS 0.0000
-0.3010 HIDDEN FILES -0.1761
-0.3010 HIDDEN) FIREFOX 0.0000
-1.0792 HIDE ACTION -0.2218
-1.0792 HIDE ALL -0.2863
-1.0792 HIDE HIDDEN 0.0000
-1.0792 HIDE SIDEBAR -0.2553
-1.0792 HIDE THE -0.2930
-1.0792 HIDE WINDOW -0.2583
-0.6021 HIGHLIGHT GEDIT -0.0136
-0.6021 HIGHLIGHT TERMINAL -0.0239
-0.3010 HINTS CODE 0.0000
-1.0000 HISTORY CODE 0.0000
-1.0000 HISTORY FIREFOX 0.0000
-1.0000 HISTORY SIDEBAR -0.1461
-0.6990 HISTORY TERMINAL -0.0239
-0.6021 HOME FIREFOX 0.0000
-0.6021 HOME FOLDER -0.1249
-0.3010 HOVER CODE 0.0000
-1.5315 IN </s> -0.3010
-1.2304 IN A -0.2511
-1.5315 IN CODE 0.0000
-1.5315 IN EXPLORER 0.0000
-1.5315 IN FILES -0.1761
-1.5315 IN FIREFOX 0.0000
-1.2304 IN LIBRARY -0.1761
-1.5315 IN NAUTILUS 0.0000
-1.0544 IN NEW -0.1303
-1.5315 IN RECENTLY -0.1761
-1.5315 IN TERMINAL -0.0239
-1.2304 IN THE -0.2709
-0.3010 INCREASE VOLUME 0.0000
-0.3010 INCREMENTAL SEARCH -0.2499
-0.3010 INDENT LINE -0.2632
-0.3010 INFO FIREFOX 0.0000
-1.0000 INPUT BOX 0.0000
-0.6990 INPUT FIELD -0.1761
-0.6990 INPUT SOURCE -0.1761
-0.4771 INSERT CURSOR -0.1761
-0.7782 INSERT LINE -0.2888
-0.3010 INSPECTOR FIREFOX 0.0000
-0.3010 INSTANCE OF -0.2118
-0.3010 INTEGRATED TERMINAL -0.2886
-1.1461 INTO ACTIVE -0.2762
-1.1461 INTO CODE 0.0000
-1.1461 INTO FIRST 0.0000
-1.1461 INTO NEXT -0.2881
-1.1461 INTO PREVIOUS -0.2863
-1.1461 INTO SECOND 0.0000
-1.1461 INTO THIRD 0.0000
-0.3010 INVERT SELECTION -0.2762
-0.3010 IT TEMPORARILY 0.0000
-0.6021 ITEM LOCATION -0.1249
-0.6021 ITEM PROPERTIES 0.0000
-0.3010 ITEMS NAUTILUS 0.0000
-0.3010 JUMP TO -0.2989
-0.3010 KEEP PREVIEW -0.2430
-0.3010 KEYBOARD SHORTCUTS -0.1249
-0.3010 LANGUAGE CODE 0.0000
-1.0000 LAST ACTION -0.1249
-1.0000 LAST CURSOR -0.2730
-1.0000 LAST SELECTION -0.2499
-1.0000 LAST UNDONE 0.0000
-1.0000 LAST WORKING 0.0000
-0.3010 LAYOUT(HORIZONTAL/VERTICAL) CODE 0.0000
-0.3010 LEAVING THE -0.2765
-1.0792 LEFT </s> -0.3010
-1.0792 LEFT CODE 0.0000
-0.7782 LEFT FIREFOX 0.0000
-1.3802 LEFT GEDIT -0.0136
-1.3802 LEFT NAUTILUS 0.0000
-1.3802 LEFT ONE -0.2374
-1.3802 LEFT TERMINAL -0.0239
-0.9031 LIBRARY FIREFOX 0.0000
-0.9031 LIBRARY OR -0.2632
-0.6021 LIBRARY WINDOW -0.2872
-1.5563 LINE (EMPTY 0.0000
-1.8573 LINE ABOVE -0.1249
-1.8573 LINE AT -0.1761
-1.8573 LINE BELOW -0.1249
-1.0792 LINE CODE 0.0000
-1.3802 LINE COMMENT 0.0000
-1.3802 LINE DOWN -0.1513
-1.5563 LINE FIREFOX 0.0000
-1.0792 LINE GEDIT -0.0136
-1.8573 LINE SELECTED -0.2762
-1.0122 LINE TERMINAL -0.0239
-1.3802 LINE UP -0.1513
-0.3010 LINE... CODE 0.0000
-0.3010 LINK OR -0.2218
-0.3010 LINK-TEXT ONLY 0.0000
-0.3010 LIST </s> -0.3010
-0.3010 LISTING (WITH 0.0000
-0.7782 LOCATION BAR -0.0969
-0.4771 LOCATION NAUTILUS 0.0000
-0.3010 LOCK SCREEN -0.2788
-0.3010 LOG OUT -0.2341
-0.3010 LOWER CASE -0.1249
-0.3010 MARKDOWN PREVIEW -0.1761
-0.3010 MATCH CODE 0.0000
-0.6021 MATCHING BRACKET 0.0000
-0.6021 MATCHING ITEMS 0.0000
-0.3010 MAXIMIZATION STATE 0.0000
-0.3010 MAXIMIZE WINDOW -0.2583
-0.8451 MENU </s> -0.3010
-1.1461 MENU BAR -0.2430
-0.8451 MENU FIREFOX 0.0000
-1.1461 MENU GEDIT -0.0136
-1.1461 MENU NAUTILUS 0.0000
-0.7782 MODE CODE 0.0000
-1.0792 MODE EDITOR -0.2888
-0.6021 MODE FIREFOX 0.0000
-0.9031 MONITOR DOWN -0.2632
-0.6021 MONITOR TO -0.2358
-0.9031 MONITOR UP -0.2632
-0.3010 MOST RECENTLY -0.1761
-1.3424 MOVE ACTIVE -0.1919
-1.6435 MOVE BACK -0.2218
-1.6435 MOVE EDITOR -0.2762
-1.6435 MOVE FORWARD -0.2218
-1.9445 MOVE LAST -0.2553
-1.6435 MOVE LINE -0.2632
-1.0414 MOVE TAB -0.2568
-1.3424 MOVE THE -0.2821
-0.9031 MOVE TO -0.1978
-1.0414 MOVE WINDOW -0.1850
-0.3010 MOVES FOCUS -0.2632
-0.3010 MUTE AUDIO 0.0000
-0.3010 MUTE/UNMUTE AUDIO 0.0000
-0.3010 NAUTILUS </s> -0.3010
-0.3010 NAVIGATE EDITOR -0.1597
-0.3010 NETWORK FIREFOX 0.0000
-1.6021 NEW COMMAND -0.2218
-1.3010 NEW DOCUMENT -0.2596
-1.6021 NEW FILE -0.1996
-1.6021 NEW FILENAME 0.0000
-1.6021 NEW PRIVATE 0.0000
-0.8239 NEW TAB -0.2288
-1.6021 NEW TERMINAL -0.2886
-0.8239 NEW WINDOW -0.1938
-1.6021 NEW WINDOW/INSTANCE 0.0000
-1.2304 NEXT CODE 0.0000
-1.5315 NEXT EDITOR -0.1597
-1.5315 NEXT ERROR 0.0000
-1.2304 NEXT FIND -0.2653
-1.5315 NEXT FRAME 0.0000
-1.5315 NEXT INPUT -0.2041
-1.5315 NEXT INSTANCE 0.0000
-1.5315 NEXT LINK 0.0000
-1.5315 NEXT PAGE -0.2218
-0.8325 NEXT TAB -0.2204
-1.5315 NEXT TERMINAL -0.0239
-0.3010 NON-INCREMENTAL SEARCH -0.2499
-0.6021 NORMAL SIZE 0.0000
-0.6021 NORMAL WINDOWS -0.1761
-0.6021 NOTIFICATION </s> -0.3010
-0.6021 NOTIFICATION LIST 0.0000
-0.3010 NUMBER INPUT -0.2553
-0.3010 OCCURRENCES OF -0.2820
-1.5441 OF A -0.2817
-1.8451 OF ACTIVE -0.2218
-1.3680 OF AN 0.0000
-1.5441 OF CURRENT -0.2632
-1.8451 OF EACH 0.0000
-1.5441 OF FILE -0.1996
-1.8451 OF FIND -0.2653
-1.5441 OF HISTORY -0.2041
-1.2430 OF LINE -0.2499
-1.5441 OF PAGE -0.2218
-1.5441 OF TEXT -0.2430
-0.7312 OF THE -0.2197
-0.3010 OFF </s> -0.3010
-0.6021 ON </s> -0.3010
-0.9031 ON LEFT -0.2632
-0.9031 ON RIGHT -0.2632
-1.3424 ONE CHARACTER 0.0000
-1.0414 ONE LINE -0.2145
-1.0414 ONE MONITOR 0.0000
-1.3424 ONE PAGE -0.2711
-1.3424 ONE TAB -0.2721
-0.8653 ONE WORD -0.1027
-1.3424 ONE WORKSPACE -0.1761
-0.3010 ONLY FIREFOX 0.0000
-1.6435 OPEN A -0.2915
-1.3424 OPEN CODE 0.0000
-1.6435 OPEN DEFINITION -0.2218
-1.3424 OPEN FILE -0.2632
-1.6435 OPEN FILE... 0.0000
-1.3424 OPEN IN -0.2609
-1.6435 OPEN ITEM -0.1761
-1.3424 OPEN MARKDOWN 0.0000
-1.6435 OPEN NAUTILUS 0.0000
-1.6435 OPEN NEW -0.2900
-1.6435 OPEN NEXT -0.2747
-1.6435 OPEN PREVIOUS -0.2711
-1.0414 OPEN THE -0.2876
-1.6435 OPEN WINDOW -0.2872
-1.6435 OPEN WITH -0.1761
-0.6021 OPERATION CODE 0.0000
-0.6021 OPERATION FIREFOX 0.0000
-0.7782 OR INPUT -0.2041
-1.0792 OR QUICK -0.1761
-1.0792 OR SIDEBAR -0.1461
-0.7782 OR WARNING 0.0000
-0.3010 ORDER FIREFOX 0.0000
-0.8451 OUT </s> -0.3010
-0.8451 OUT CODE 0.0000
-1.1461 OUT FIREFOX 0.0000
-1.1461 OUT NAUTILUS 0.0000
-1.1461 OUT TERMINAL -0.0239
-0.3010 OUTDENT LINE -0.2632
-0.3010 OUTPUT PANEL -0.1249
-0.3010 OVER CODE 0.0000
-0.3010 OVERVIEW </s> -0.3010
-1.4771 PAGE AS 0.0000
-1.1761 PAGE DOWN -0.1761
-0.7782 PAGE FIREFOX 0.0000
-1.4771 PAGE INFO 0.0000
-1.4771 PAGE NUMBER 0.0000
-1.4771 PAGE SOURCE -0.2430
-1.1761 PAGE TERMINAL -0.0239
-1.1761 PAGE UP -0.1761
-0.3010 PALETTE CODE 0.0000
-0.4771 PANEL CODE 0.0000
-0.7782 PANEL GEDIT -0.0136
-0.3010 PARAMETER HINTS 0.0000
-1.2041 PASTE (AS 0.0000
-1.2041 PASTE CODE 0.0000
-1.2041 PASTE FIREFOX 0.0000
-1.2041 PASTE GEDIT -0.0136
-1.2041 PASTE INTO -0.2688
-1.2041 PASTE NAUTILUS 0.0000
-1.2041 PASTE TERMINAL -0.0239
-1.2041 PASTE TEXT -0.2730
-0.3010 PATH OF -0.2948
-0.3010 PEEK DEFINITION -0.1249
-0.3010 PERCENT FIREFOX 0.0000
-0.3010 PERMANENTLY NAUTILUS 0.0000
-0.3010 PICTURES </s> -0.3010
-0.3010 PLAIN TEXT) 0.0000
-0.3010 PLAY/PAUSE FIREFOX 0.0000
-0.3010 PLUGIN) GEDIT -0.0136
-0.3010 PRESENTATION MODE -0.1761
-0.9031 PREVIEW CODE 0.0000
-0.9031 PREVIEW GEDIT -0.0136
-0.9031 PREVIEW MODE -0.2632
-0.9031 PREVIEW TO -0.2358
-1.1761 PREVIOUS CODE 0.0000
-1.4771 PREVIOUS EDITOR -0.1597
-1.4771 PREVIOUS ERROR 0.0000
-1.4771 PREVIOUS FIREFOX 0.0000
-1.4771 PREVIOUS FRAME 0.0000
-1.4771 PREVIOUS INPUT -0.2041
-1.4771 PREVIOUS INSTANCE 0.0000
-1.4771 PREVIOUS LINK 0.0000
-1.4771 PREVIOUS PAGE -0.2218
-1.0000 PREVIOUS TAB -0.2529
-1.4771 PREVIOUS TERMINAL -0.0239
-1.4771 PREVIOUS WORD -0.2218
-0.7782 PRINT FIREFOX 0.0000
-0.7782 PRINT PREVIEW -0.2430
-0.7782 PRINT THE -0.2765
-0.3010 PRIVATE WINDOW -0.2730
-0.3010 PROBLEMS PANEL -0.1249
-0.3010 PROFILER FIREFOX 0.0000
-0.3010 PROMPT </s> -0.3010
-0.3010 PROMPT/TERMINAL CODE 0.0000
-0.3010 PROPERTIES NAUTILUS 0.0000
-0.6021 QUICK FIND -0.2527
-1.0792 QUICK FIX 0.0000
-0.7782 QUICK OPEN -0.2704
-0.6021 QUIT FIREFOX 0.0000
-0.6021 QUIT GEDIT -0.2976
-0.7782 READER MODE -0.1761
-0.7782 READER OFF 0.0000
-0.7782 READER ON -0.1761
-0.3010 RECENT HISTORY -0.2553
-0.6021 RECENTLY CLOSED -0.1761
-0.6021 RECENTLY USED 0.0000
-0.3010 RECORD A -0.2915
-0.7782 REDO FIREFOX 0.0000
-0.7782 REDO NAUTILUS 0.0000
-0.7782 REDO THE -0.2957
-0.3010 REFERENCES CODE 0.0000
-0.3010 REFRESH VIEW -0.2430
-0.3010 REGION CODE 0.0000
-0.3010 REGIONS CODE 0.0000
-0.6021 RELOAD (OVERRIDE 0.0000
-0.6021 RELOAD FIREFOX 0.0000
-0.7782 REMOVE A -0.2817
-0.7782 REMOVE LINE -0.2825
-0.7782 REMOVE TRAILING -0.1761
-0.6021 RENAME NAUTILUS 0.0000
-0.6021 RENAME SYMBOL 0.0000
-0.6021 REOPEN CLOSED -0.1761
-0.6021 REOPEN THE -0.2984
-0.7782 REPLACE CODE 0.0000
-0.7782 REPLACE GEDIT -0.0136
-0.7782 REPLACE IN -0.2881
-0.6021 RESET FIREFOX 0.0000
-0.6021 RESET ZOOM -0.2852
-0.3010 RESIZE WINDOW -0.2583
-0.3010 RESPONSIVE DESIGN 0.0000
-0.7782 RESTORE TAB -0.2795
-0.7782 RESTORE THE -0.2984
-0.7782 RESTORE WINDOW -0.2583
-0.3010 REVEAL ACTIVE -0.2218
-0.6021 REVERSE INCREMENTAL 0.0000
-0.6021 REVERSE NON-INCREMENTAL 0.0000
-1.0792 RIGHT </s> -0.3010
-1.0792 RIGHT CODE 0.0000
-0.7782 RIGHT FIREFOX 0.0000
-1.3802 RIGHT GEDIT -0.0136
-1.3802 RIGHT NAUTILUS 0.0000
-1.3802 RIGHT ONE -0.2374
-1.3802 RIGHT TERMINAL -0.0239
-0.6021 ROTATE COUNTERCLOCKWISE 0.0000
-0.6021 ROTATE THE -0.2930
-0.6021 RUN "MAKE" 0.0000
-0.6021 RUN COMMAND -0.2218
-0.7782 SAVE A -0.2403
-1.2553 SAVE ALL -0.2711
-1.2553 SAVE AS... 0.0000
-1.2553 SAVE CODE 0.0000
-1.2553 SAVE PAGE -0.2863
-0.9542 SAVE THE -0.2765
-0.3010 SCRATCHPAD FIREFOX 0.0000
-1.3010 SCREEN </s> -0.3010
-1.3010 SCREEN CODE 0.0000
-0.8239 SCREEN FIREFOX 0.0000
-1.3010 SCREEN LEAVING 0.0000
-1.0000 SCREEN READER -0.1249
-1.0000 SCREEN TERMINAL -0.0239
-0.3010 SCREENCAST </s> -0.3010
-0.4771 SCREENSHOT OF -0.2688
-0.7782 SCREENSHOT TO -0.2883
-1.0280 SCROLL DOWN -0.1249
-1.2041 SCROLL LINE -0.2632
-0.9031 SCROLL PAGE -0.2389
-0.9031 SCROLL TO -0.2260
-1.0280 SCROLL UP -0.1249
-1.2553 SEARCH AND -0.1761
-1.2553 SEARCH BAR -0.0969
-1.2553 SEARCH CODE 0.0000
-1.2553 SEARCH DETAILS 0.0000
-0.9542 SEARCH FIELD -0.1761
-1.2553 SEARCH NAUTILUS 0.0000
-0.9542 SEARCH OF -0.2884
-0.3010 SECOND EDITOR -0.1597
-0.3010 SECONDS FIREFOX 0.0000
-0.7782 SEEK BACK -0.2218
-0.7782 SEEK FORWARD -0.2218
-0.7782 SEEK TO -0.2358
-0.4771 SELECT ALL -0.2041
-1.2553 SELECT CURRENT -0.1996
-1.2553 SELECT LOCATION -0.2218
-1.2553 SELECT MATCHING -0.1761
-1.2553 SELECTED AUTOCOMPLETE 0.0000
-1.2553 SELECTED CODE 0.0000
-0.9542 SELECTED LINE -0.2632
-0.7782 SELECTED TEXT -0.2109
-0.9542 SELECTED WORD -0.2711
-0.5563 SELECTION CODE 0.0000
-1.2553 SELECTION NAUTILUS 0.0000
-0.9542 SELECTION TO -0.2862
-1.2553 SELECTION TOOL 0.0000
-0.3010 SELECTION) CODE 0.0000
-0.3010 SETTINGS CODE 0.0000
-0.3010 SHORT SCREENCAST 0.0000
-0.7782 SHORTCUTS </s> -0.3010
-0.7782 SHORTCUTS CODE 0.0000
-0.7782 SHORTCUTS NAUTILUS 0.0000
-1.6812 SHOW / 0.0000
-1.6812 SHOW ACTIVE -0.2218
-1.3802 SHOW ALL -0.2711
-1.6812 SHOW COMMAND -0.2218
-1.6812 SHOW DEBUG 0.0000
-1.6812 SHOW EXPLORER 0.0000
-1.6812 SHOW EXTENSIONS 0.0000
-1.6812 SHOW HELP 0.0000
-1.2041 SHOW HIDE -0.1761
-1.6812 SHOW HOVER 0.0000
-1.6812 SHOW INTEGRATED 0.0000
-1.6812 SHOW ITEM -0.1761
-1.6812 SHOW OUTPUT 0.0000
-1.6812 SHOW PROBLEMS 0.0000
-1.6812 SHOW REFERENCES 0.0000
-1.6812 SHOW SEARCH -0.2762
-1.6812 SHOW SOURCE -0.2430
-1.0792 SHOW THE -0.2903
-0.3010 SHRINK SELECTION -0.1597
-0.4771 SIDE CODE 0.0000
-0.7782 SIDE PANEL -0.2218
-0.5229 SIDEBAR FIREFOX 0.0000
-1.0000 SIDEBAR NAUTILUS 0.0000
-1.0000 SIDEBAR VISIBILITY 0.0000
-0.3010 SIZE TERMINAL -0.0239
-0.6021 SOURCE </s> -0.3010
-0.9031 SOURCE CONTROL 0.0000
-0.9031 SOURCE FIREFOX 0.0000
-0.3010 SPACE </s> -0.3010
-0.3010 SPACES (WITH 0.0000
-0.3010 SPELLING GEDIT -0.0136
-0.7782 SPLIT EDITOR -0.2632
-0.4771 SPLIT ON -0.1761
-0.9031 START CODE 0.0000
-0.9031 START FIREFOX 0.0000
-0.6021 START OF -0.2118
-0.3010 STATE </s> -0.3010
-0.7782 STEP INTO -0.2688
-0.7782 STEP OUT -0.2341
-0.7782 STEP OVER 0.0000
-1.0000 STOP AUTOSCROLL 0.0000
-1.0000 STOP CODE 0.0000
-1.0000 STOP FIREFOX 0.0000
-0.6990 STOP GEDIT -0.0136
-0.3010 STRING GEDIT -0.0136
-0.3010 STYLE EDITOR -0.2888
-0.3010 SUBREGIONS CODE 0.0000
-0.3010 SUGGESTION CODE 0.0000
-0.3367 SWITCH TO -0.1228
-1.4037 SWITCH WINDOWS 0.0000
-0.3010 SYMBOL CODE 0.0000
-0.3010 SYMBOL... CODE 0.0000
-0.3010 SYMBOLS CODE 0.0000
-1.6163 TAB 1 0.0000
-2.0934 TAB 10 0.0000
-1.6163 TAB 2 0.0000
-1.6163 TAB 3 0.0000
-1.6163 TAB 4 0.0000
-1.6163 TAB 5 0.0000
-1.6163 TAB 6 0.0000
-1.6163 TAB 7 0.0000
-1.6163 TAB 8 0.0000
-1.6163 TAB 9 0.0000
-1.6163 TAB FIREFOX 0.0000
-1.6163 TAB GEDIT -0.0136
-1.6163 TAB GROUP -0.2478
-1.7924 TAB LEFT -0.1996
-2.0934 TAB MOVES 0.0000
-1.3153 TAB NAUTILUS 0.0000
-1.7924 TAB RIGHT -0.1996
-1.7924 TAB STOP -0.2041
-1.4914 TAB TERMINAL -0.0239
-1.1903 TAB TO -0.2210
-0.4771 TABS GEDIT -0.0136
-0.7782 TABS IN -0.2881
-0.3010 TEMPORARILY WHEN 0.0000
-0.3010 TEN PERCENT 0.0000
-0.3263 TERMINAL </s> -0.3010
-1.5482 TERMINAL CODE 0.0000
-0.9031 TEXT FIREFOX 0.0000
-1.2041 TEXT FROM 0.0000
-1.2041 TEXT GEDIT -0.0136
-1.2041 TEXT IN -0.2747
-1.2041 TEXT SELECTION -0.2762
-0.9031 TEXT TO -0.2968
-0.3010 TEXT) FIREFOX 0.0000
-2.2148 THE ACTIVE -0.2762
-2.2148 THE ACTIVITIES 0.0000
-2.2148 THE APPLICATION -0.1761
-1.6128 THE BEGINNING 0.0000
-2.2148 THE BOTTOM -0.2218
-2.2148 THE CLIPBOARD -0.2430
-1.2606 THE CURRENT -0.0669
-1.7377 THE CURSOR -0.2109
-1.7377 THE DOCUMENT -0.1347
-1.5159 THE END 0.0000
-1.9138 THE FILE -0.2632
-2.2148 THE FIND -0.2894
-2.2148 THE GEDIT -0.2976
-2.2148 THE KEYBOARD 0.0000
-1.9138 THE LAST -0.2041
-1.4367 THE LEFT -0.1249
-1.6128 THE LINE -0.2566
-2.2148 THE MOST 0.0000
-1.7377 THE NEXT -0.2167
-2.2148 THE NOTIFICATION -0.1761
-2.2148 THE OVERVIEW 0.0000
-2.2148 THE PAGE -0.2863
-2.2148 THE PREVIOUS -0.2863
-2.2148 THE QUICK -0.2218
-1.4367 THE RIGHT -0.1249
-2.2148 THE RUN -0.1761
-1.9138 THE SCREEN -0.2304
-1.3697 THE SELECTED -0.0872
-1.7377 THE SIDE 0.0000
-1.9138 THE START -0.1761
-1.9138 THE STRING 0.0000
-1.9138 THE TOP -0.0969
-2.2148 THE WINDOW -0.2942
-2.2148 THE WORD -0.2218
-0.3010 THIRD EDITOR -0.1597
-0.3010 THIS PAGE -0.2218
-0.3010 THROUGH TABS -0.2218
-1.7160 TO BEGINNING -0.0512
-2.0170 TO BOTTOM -0.1249
-1.8409 TO CLIPBOARD -0.0969
-2.3181 TO DEFINITION -0.1249
-1.6191 TO END 0.0000
-2.3181 TO FILE -0.1996
-2.3181 TO FILE... 0.0000
-2.3181 TO HOME -0.1761
-2.3181 TO LAST -0.2553
-2.3181 TO LINE... 0.0000
-2.3181 TO LOWER 0.0000
-2.3181 TO MATCHING -0.1761
-1.4730 TO NEXT -0.1498
-1.8409 TO PICTURES 0.0000
-2.3181 TO PRESENTATION 0.0000
-1.6191 TO PREVIOUS -0.2041
-2.3181 TO SEARCH -0.2499
-2.3181 TO START -0.2430
-2.3181 TO SYMBOL... 0.0000
-0.8709 TO TAB -0.1899
-0.8557 TO THE -0.2068
-2.0170 TO TOP -0.0969
-2.3181 TO TRASH 0.0000
-2.3181 TO UPPER 0.0000
-2.0170 TO WORKSPACE -0.1761
-1.5563 TOGGLE BLOCK 0.0000
-1.5563 TOGGLE BREAKPOINT 0.0000
-1.5563 TOGGLE CASE -0.2218
-1.5563 TOGGLE CONTEXT 0.0000
-1.5563 TOGGLE DEVELOPER -0.1761
-1.5563 TOGGLE EDITOR -0.2888
-1.5563 TOGGLE FOCUS -0.2632
-1.2553 TOGGLE FULL 0.0000
-1.5563 TOGGLE LINE -0.2825
-1.5563 TOGGLE MAXIMIZATION 0.0000
-1.5563 TOGGLE MENU -0.2688
-1.5563 TOGGLE PLAY/PAUSE 0.0000
-1.5563 TOGGLE READER -0.2218
-1.5563 TOGGLE SEARCH -0.2762
-1.5563 TOGGLE SIDEBAR -0.2553
-1.5563 TOGGLE TAB -0.2975
-1.5563 TOGGLE WORD -0.2863
-0.3010 TOOL FIREFOX 0.0000
-0.3010 TOOLBAR FIREFOX 0.0000
-0.3010 TOOLS FIREFOX 0.0000
-0.9031 TOP CODE 0.0000
-0.6021 TOP OF -0.1963
-0.9031 TOP TERMINAL -0.0239
-0.6021 TRAILING SPACES 0.0000
-0.6021 TRAILING WHITESPACE 0.0000
-0.3010 TRASH NAUTILUS 0.0000
-0.6021 TRIGGER PARAMETER 0.0000
-0.6021 TRIGGER SUGGESTION 0.0000
-0.3010 TRIM TRAILING -0.1761
-0.6021 TURN SCREEN -0.2553
-0.6021 TURN ZOOM -0.2688
-0.7782 UNDO CLOSE -0.1461
-1.0792 UNDO FIREFOX 0.0000
-1.0792 UNDO LAST -0.2553
-1.0792 UNDO NAUTILUS 0.0000
-1.0792 UNDO THE -0.2957
-0.3010 UNDONE ACTION -0.1249
-0.6021 UNFOLD ALL -0.2711
-0.6021 UNFOLD REGION 0.0000
-0.3010 UNFOLDALL REGIONS 0.0000
-0.3010 UNMUTE AUDIO 0.0000
-1.0792 UP </s> -0.3010
-1.3802 UP A -0.2817
-1.0792 UP BY 0.0000
-0.6021 UP CODE 0.0000
-1.3802 UP ONE -0.2596
-0.3010 UPPER CASE -0.1249
-0.3010 USED ORDER 0.0000
-0.6021 USER GUIDE 0.0000
-0.6021 USER SETTINGS 0.0000
-0.9031 VIEW FIREFOX 0.0000
-0.9031 VIEW NAUTILUS 0.0000
-0.6021 VIEW SPLIT -0.1249
-0.3010 VISIBILITY CODE 0.0000
-0.3010 VOLUME FIREFOX 0.0000
-0.3010 WARNING CODE 0.0000
-0.3010 WEB CONSOLE 0.0000
-0.3010 WHEN HIDDEN) 0.0000
-0.3010 WHITESPACE CODE 0.0000
-1.8062 WINDOW (BOOKMARKS) 0.0000
-1.8062 WINDOW (HISTORY) 0.0000
-1.0280 WINDOW </s> -0.3010
-1.5051 WINDOW CODE 0.0000
-1.2041 WINDOW FIREFOX 0.0000
-1.5051 WINDOW GEDIT -0.0136
-1.8062 WINDOW MENU -0.2341
-1.2041 WINDOW NAUTILUS 0.0000
-1.0280 WINDOW ONE -0.2374
-1.5051 WINDOW TERMINAL -0.0239
-1.3291 WINDOW TO -0.2862
-0.3010 WINDOW/INSTANCE CODE 0.0000
-0.6021 WINDOWS </s> -0.3010
-0.9031 WINDOWS DIRECTLY 0.0000
-0.9031 WINDOWS OF -0.2820
-0.6021 WITH A -0.2511
-0.6021 WITH DEFAULT 0.0000
-0.3010 WITHIN LINK-TEXT 0.0000
-1.4771 WORD CODE 0.0000
-1.1761 WORD GEDIT -0.0136
-1.4771 WORD LEFT -0.2825
-1.4771 WORD RIGHT -0.2825
-0.7782 WORD TERMINAL -0.0239
-0.8751 WORD TO -0.2358
-1.4771 WORD WRAP 0.0000
-0.3010 WORKING SPACE 0.0000
-0.9031 WORKSPACE ABOVE -0.2218
-0.9031 WORKSPACE BELOW -0.2218
-0.9031 WORKSPACE DOWN -0.2632
-0.9031 WORKSPACE UP -0.2632
-0.3010 WRAP CODE 0.0000
-0.3010 ZEN MODE -0.2218
-0.7482 ZOOM IN -0.2319
-1.4472 ZOOM NAUTILUS 0.0000
-1.4472 ZOOM OFF 0.0000
-1.4472 ZOOM ON -0.1761
-0.7482 ZOOM OUT -0.0000
-1.4472 ZOOM RESET -0.1761

\3-grams:
-0.3010 "MAKE" IN THE
-0.3010 (AS PLAIN TEXT)
-0.3010 (BOOKMARKS) FIREFOX </s>
-0.3010 (EMPTY SELECTION) CODE
-0.3010 (HISTORY) FIREFOX </s>
-0.3010 (OVERRIDE CACHE) FIREFOX
-0.3010 (SHOWING IT TEMPORARILY
-0.3010 (WITH PLUGIN) GEDIT
-0.3010 .COM ADDRESS FIREFOX
-0.3010 / HIDE THE
-0.3010 1 GEDIT </s>
-0.3010 1 NAUTILUS </s>
-0.3010 1 TERMINAL </s>
-0.3010 10 TERMINAL </s>
-0.3010 2 GEDIT </s>
-0.3010 2 NAUTILUS </s>
-0.3010 2 TERMINAL </s>
-0.3010 3 GEDIT </s>
-0.3010 3 NAUTILUS </s>
-0.3010 3 TERMINAL </s>
-0.3010 4 GEDIT </s>
-0.3010 4 NAUTILUS </s>
-0.3010 4 TERMINAL </s>
-0.3010 5 GEDIT </s>
-0.3010 5 NAUTILUS </s>
-0.3010 5 TERMINAL </s>
-0.3010 6 GEDIT </s>
-0.3010 6 NAUTILUS </s>
-0.3010 6 TERMINAL </s>
-0.3010 7 GEDIT </s>
-0.3010 7 NAUTILUS </s>
-0.3010 7 TERMINAL </s>
-0.3010 8 GEDIT </s>
-0.3010 8 NAUTILUS </s>
-0.3010 8 TERMINAL </s>
-0.3010 9 GEDIT </s>
-0.3010 9 NAUTILUS </s>
-0.3010 9 TERMINAL </s>
-0.3010 <s> ACTIVATE THE
-0.7782 <s> ADD A
-0.7782 <s> ADD LINE
-0.7782 <s> ADD SELECTION
-0.3010 <s> ADD-ONS FIREFOX
-0.3010 <s> BACK FIREFOX
-0.3010 <s> BOOKMARK THIS
-0.3010 <s> BOOKMARKS SIDEBAR
-0.3010 <s> BROWSER CONSOLE
-0.3010 <s> CANCEL DRAG-AND-DROP
-0.3010 <s> CARET BROWSING
-0.3010 <s> CHANGE FILE
-0.3010 <s> CHECK SPELLING
-0.6021 <s> CHOOSE HAND
-0.6021 <s> CHOOSE TEXT
-0.6990 <s> CLEAR HIGHLIGHT
-1.0000 <s> CLEAR RECENT
-1.0000 <s> CLEAR SEARCH
-1.0000 <s> CLEAR THE
-1.5315 <s> CLOSE A
-1.2304 <s> CLOSE ALL
-1.5315 <s> CLOSE CODE
-1.5315 <s> CLOSE EDITOR
-1.5315 <s> CLOSE FOLDER
-0.9294 <s> CLOSE TAB
-1.2304 <s> CLOSE THE
-0.8325 <s> CLOSE WINDOW
-0.3010 <s> COMPLETE .COM
-0.3010 <s> CONTINUE CODE
-0.3010 <s> CONVERT THE
-0.8239 <s> COPY A
-1.3010 <s> COPY FIREFOX
-1.3010 <s> COPY GEDIT
-1.3010 <s> COPY LINE
-1.3010 <s> COPY NAUTILUS
-1.3010 <s> COPY PATH
-1.3010 <s> COPY SELECTION
-1.3010 <s> COPY TERMINAL
-0.6021 <s> CREATE A
-0.9031 <s> CREATE FOLDER
-0.9031 <s> CREATE NEW
-0.9031 <s> CUT FIREFOX
-0.9031 <s> CUT GEDIT
-0.9031 <s> CUT LINE
-0.9031 <s> CUT NAUTILUS
-0.3010 <s> CYCLE THROUGH
-0.3010 <s> DEBUGGER FIREFOX
-0.3010 <s> DECREASE VOLUME
-1.3424 <s> DELETE FIREFOX
-0.8653 <s> DELETE FROM
-1.3424 <s> DELETE LINE
-1.3424 <s> DELETE PERMANENTLY
-1.3424 <s> DELETE PREVIOUS
-1.3424 <s> DELETE SELECTED
-1.3424 <s> DELETE THE
-1.0414 <s> DELETE WORD
-0.3010 <s> DEVELOPER TOOLBAR
-0.3010 <s> DIRECTORY LISTING
-0.3010 <s> DOWNLOADS FIREFOX
-0.3010 <s> ENTER LOCATION
-0.3010 <s> ERASE A
-0.3010 <s> EXIT ZEN
-0.3010 <s> EXPAND SELECTION
-1.3802 <s> FIND A
-1.3802 <s> FIND AGAIN
-1.3802 <s> FIND CODE
-1.3802 <s> FIND FIREFOX
-1.0792 <s> FIND NEXT
-0.9031 <s> FIND PREVIOUS
-1.3802 <s> FIND TERMINAL
-1.0792 <s> FIND THE
-0.6021 <s> FOCUS INTO
-1.3010 <s> FOCUS NEXT
-1.3010 <s> FOCUS PREVIOUS
-1.3010 <s> FOCUS SEARCH
-1.0000 <s> FOCUS THE
-0.4771 <s> FOLD ALL
-0.7782 <s> FOLD REGION
-0.6021 <s> FORMAT DOCUMENT
-0.6021 <s> FORMAT SELECTION
-0.3010 <s> FORWARD FIREFOX
-0.3010 <s> FULL SCREEN
-1.7634 <s> GO BACK
-1.7634 <s> GO DOWN
-1.7634 <s> GO FORWARD
-1.1614 <s> GO ONE
-0.4412 <s> GO TO
-1.7634 <s> GO UP
-0.3010 <s> GOTO LINE
-0.6021 <s> HIDE ALL
-0.6021 <s> HIDE WINDOW
-0.3010 <s> HISTORY SIDEBAR
-0.3010 <s> HOME FIREFOX
-0.3010 <s> INCREASE VOLUME
-0.3010 <s> INDENT LINE
-0.4771 <s> INSERT CURSOR
-0.7782 <s> INSERT LINE
-0.3010 <s> INSPECTOR FIREFOX
-0.3010 <s> INVERT SELECTION
-0.3010 <s> JUMP TO
-0.3010 <s> KEEP PREVIEW
-0.3010 <s> KEYBOARD SHORTCUTS
-0.3010 <s> LIBRARY WINDOW
-0.3010 <s> LOCK SCREEN
-0.3010 <s> LOG OUT
-0.3010 <s> MAXIMIZE WINDOW
-1.3424 <s> MOVE ACTIVE
-1.6435 <s> MOVE BACK
-1.6435 <s> MOVE EDITOR
-1.6435 <s> MOVE FORWARD
-1.9445 <s> MOVE LAST
-1.6435 <s> MOVE LINE
-1.0414 <s> MOVE TAB
-1.3424 <s> MOVE THE
-0.9031 <s> MOVE TO
-1.0414 <s> MOVE WINDOW
-0.3010 <s> MUTE AUDIO
-0.3010 <s> MUTE/UNMUTE AUDIO
-0.3010 <s> NAVIGATE EDITOR
-0.3010 <s> NETWORK FIREFOX
-1.3010 <s> NEW FILE
-1.3010 <s> NEW PRIVATE
-0.6990 <s> NEW TAB
-0.6990 <s> NEW WINDOW
-0.6021 <s> NEXT PAGE
-0.6021 <s> NEXT TAB
-0.3010 <s> NORMAL SIZE
-1.5798 <s> OPEN A
-1.5798 <s> OPEN DEFINITION
-1.2788 <s> OPEN FILE
-1.5798 <s> OPEN FILE...
-1.2788 <s> OPEN IN
-1.5798 <s> OPEN ITEM
-1.2788 <s> OPEN MARKDOWN
-1.5798 <s> OPEN NAUTILUS
-1.5798 <s> OPEN NEW
-1.5798 <s> OPEN NEXT
-1.5798 <s> OPEN PREVIOUS
-0.9777 <s> OPEN THE
-1.5798 <s> OPEN WITH
-0.3010 <s> OUTDENT LINE
-0.6021 <s> PAGE INFO
-0.6021 <s> PAGE SOURCE
-1.2041 <s> PASTE (AS
-1.2041 <s> PASTE CODE
-1.2041 <s> PASTE FIREFOX
-1.2041 <s> PASTE GEDIT
-1.2041 <s> PASTE INTO
-1.2041 <s> PASTE NAUTILUS
-1.2041 <s> PASTE TERMINAL
-1.2041 <s> PASTE TEXT
-0.3010 <s> PEEK DEFINITION
-0.6021 <s> PREVIOUS PAGE
-0.6021 <s> PREVIOUS TAB
-0.7782 <s> PRINT FIREFOX
-0.7782 <s> PRINT PREVIEW
-0.7782 <s> PRINT THE
-0.3010 <s> PROFILER FIREFOX
-0.6021 <s> QUICK FIND
-0.9031 <s> QUICK FIX
-0.9031 <s> QUICK OPEN
-0.6021 <s> QUIT FIREFOX
-0.6021 <s> QUIT GEDIT
-0.3010 <s> RECORD A
-0.7782 <s> REDO FIREFOX
-0.7782 <s> REDO NAUTILUS
-0.7782 <s> REDO THE
-0.3010 <s> REFRESH VIEW
-0.6021 <s> RELOAD (OVERRIDE
-0.6021 <s> RELOAD FIREFOX
-0.7782 <s> REMOVE A
-0.7782 <s> REMOVE LINE
-0.7782 <s> REMOVE TRAILING
-0.6021 <s> RENAME NAUTILUS
-0.6021 <s> RENAME SYMBOL
-0.6021 <s> REOPEN CLOSED
-0.6021 <s> REOPEN THE
-0.6021 <s> REPLACE CODE
-0.6021 <s> REPLACE IN
-0.3010 <s> RESET ZOOM
-0.3010 <s> RESIZE WINDOW
-0.3010 <s> RESPONSIVE DESIGN
-0.7782 <s> RESTORE TAB
-0.7782 <s> RESTORE THE
-0.7782 <s> RESTORE WINDOW
-0.3010 <s> REVEAL ACTIVE
-0.6021 <s> REVERSE INCREMENTAL
-0.6021 <s> REVERSE NON-INCREMENTAL
-0.6021 <s> ROTATE COUNTERCLOCKWISE
-0.6021 <s> ROTATE THE
-0.3010 <s> RUN "MAKE"
-0.7782 <s> SAVE A
-1.2553 <s> SAVE ALL
-1.2553 <s> SAVE AS...
-1.2553 <s> SAVE CODE
-1.2553 <s> SAVE PAGE
-0.9542 <s> SAVE THE
-0.3010 <s> SCRATCHPAD FIREFOX
-1.0280 <s> SCROLL DOWN
-1.2041 <s> SCROLL LINE
-0.9031 <s> SCROLL PAGE
-0.9031 <s> SCROLL TO
-1.0280 <s> SCROLL UP
-0.6021 <s> SEARCH AND
-0.6021 <s> SEARCH NAUTILUS
-0.7782 <s> SEEK BACK
-0.7782 <s> SEEK FORWARD
-0.7782 <s> SEEK TO
-0.4771 <s> SELECT ALL
-1.2553 <s> SELECT CURRENT
-1.2553 <s> SELECT LOCATION
-1.2553 <s> SELECT MATCHING
-0.3010 <s> SHORTCUTS NAUTILUS
-1.6812 <s> SHOW /
-1.6812 <s> SHOW ACTIVE
-1.3802 <s> SHOW ALL
-1.6812 <s> SHOW COMMAND
-1.6812 <s> SHOW DEBUG
-1.6812 <s> SHOW EXPLORER
-1.6812 <s> SHOW EXTENSIONS
-1.6812 <s> SHOW HELP
-1.2041 <s> SHOW HIDE
-1.6812 <s> SHOW HOVER
-1.6812 <s> SHOW INTEGRATED
-1.6812 <s> SHOW ITEM
-1.6812 <s> SHOW OUTPUT
-1.6812 <s> SHOW PROBLEMS
-1.6812 <s> SHOW REFERENCES
-1.6812 <s> SHOW SEARCH
-1.6812 <s> SHOW SOURCE
-1.0792 <s> SHOW THE
-0.3010 <s> SHRINK SELECTION
-0.3010 <s> SPLIT EDITOR
-0.3010 <s> START CODE
-0.7782 <s> STEP INTO
-0.7782 <s> STEP OUT
-0.7782 <s> STEP OVER
-0.7782 <s> STOP AUTOSCROLL
-0.7782 <s> STOP CODE
-0.7782 <s> STOP FIREFOX
-0.3010 <s> STYLE EDITOR
-0.3367 <s> SWITCH TO
-1.4037 <s> SWITCH WINDOWS
-1.5563 <s> TOGGLE BLOCK
-1.5563 <s> TOGGLE BREAKPOINT
-1.5563 <s> TOGGLE CASE
-1.5563 <s> TOGGLE CONTEXT
-1.5563 <s> TOGGLE DEVELOPER
-1.5563 <s> TOGGLE EDITOR
-1.5563 <s> TOGGLE FOCUS
-1.2553 <s> TOGGLE FULL
-1.5563 <s> TOGGLE LINE
-1.5563 <s> TOGGLE MAXIMIZATION
-1.5563 <s> TOGGLE MENU
-1.5563 <s> TOGGLE PLAY/PAUSE
-1.5563 <s> TOGGLE READER
-1.5563 <s> TOGGLE SEARCH
-1.5563 <s> TOGGLE SIDEBAR
-1.5563 <s> TOGGLE TAB
-1.5563 <s> TOGGLE WORD
-0.6021 <s> TRIGGER PARAMETER
-0.6021 <s> TRIGGER SUGGESTION
-0.3010 <s> TRIM TRAILING
-0.6021 <s> TURN SCREEN
-0.6021 <s> TURN ZOOM
-0.7782 <s> UNDO CLOSE
-1.0792 <s> UNDO FIREFOX
-1.0792 <s> UNDO LAST
-1.0792 <s> UNDO NAUTILUS
-1.0792 <s> UNDO THE
-0.6021 <s> UNFOLD ALL
-0.6021 <s> UNFOLD REGION
-0.3010 <s> UNFOLDALL REGIONS
-0.3010 <s> UNMUTE AUDIO
-0.3010 <s> USER SETTINGS
-0.3010 <s> VIEW SPLIT
-0.3010 <s> WEB CONSOLE
-0.3010 <s> ZEN MODE
-0.6435 <s> ZOOM IN
-0.6435 <s> ZOOM OUT
-1.3424 <s> ZOOM RESET
-0.3010 A DOCUMENT GEDIT
-0.3010 A LINE TERMINAL
-0.3010 A MENU FIREFOX
-0.6990 A NEW DOCUMENT
-1.0000 A NEW FILENAME
-1.0000 A NEW TAB
-1.0000 A NEW WINDOW
-0.3010 A SCREEN FIREFOX
-0.4771 A SCREENSHOT OF
-0.7782 A SCREENSHOT TO
-0.3010 A SHORT SCREENCAST
-0.3010 A STRING GEDIT
-0.3010 A TAB STOP
-0.3010 A WINDOW TO
-0.3010 A WORD TERMINAL
-0.3010 ABOVE CODE </s>
-0.3010 ACTION GEDIT </s>
-0.3010 ACTION MENU NAUTILUS
-0.3010 ACTIVATE THE WINDOW
-0.3010 ACTIVATION (SHOWING IT
-0.3010 ACTIVE EDITOR GROUP
-0.7782 ACTIVE FILE CODE
-0.4771 ACTIVE FILE IN
-0.3010 ACTIVE NOTIFICATION </s>
-0.3010 ACTIVE TERMINAL CODE
-0.3010 ACTIVITIES OVERVIEW </s>
-0.3010 ADD A TAB
-0.3010 ADD LINE COMMENT
-0.3010 ADD SELECTION TO
-0.3010 ADD-ONS FIREFOX </s>
-0.3010 ADDRESS FIREFOX </s>
-0.3010 AGAIN FIREFOX </s>
-0.3010 ALL APPLICATIONS </s>
-0.3010 ALL CODE </s>
-0.3010 ALL FIREFOX </s>
-0.3010 ALL NAUTILUS </s>
-0.3010 ALL NORMAL WINDOWS
-0.3010 ALL OCCURRENCES OF
-0.3010 ALL REGIONS CODE
-0.3010 ALL SUBREGIONS CODE
-0.3010 ALL SYMBOLS CODE
-0.3010 ALL TABS GEDIT
-0.3010 ALL TEXT IN
-0.3010 AN APP DIRECTLY
-0.3010 AN AREA TO
-0.3010 AN TO CLIPBOARD
-0.3010 AND CLOSE WINDOW
-0.3010 AND REPLACE GEDIT
-0.3010 APP DIRECTLY </s>
-0.3010 APPLICATION MENU </s>
-0.3010 APPLICATION NAUTILUS </s>
-0.3010 AREA TO PICTURES
-0.3010 AS FIREFOX </s>
-0.3010 AS... CODE </s>
-0.3010 AT END OF
-0.3010 AT THE TOP
-0.3010 AUDIO FIREFOX </s>
-0.3010 AUTOCOMPLETE ENTRY FIREFOX
-0.3010 AUTOSCROLL MODE FIREFOX
-0.3010 BACK CODE </s>
-0.3010 BACK FIFTEEN SECONDS
-0.3010 BACK FIREFOX </s>
-0.6021 BACK ONE CHARACTER
-0.6021 BACK ONE WORD
-0.3010 BACK TEN PERCENT
-0.3010 BAR ACTIVATION (SHOWING
-0.3010 BAR FIREFOX </s>
-0.3010 BEGINNING FIREFOX </s>
-1.1461 BEGINNING OF FILE
-0.8451 BEGINNING OF LINE
-1.1461 BEGINNING OF TEXT
-0.6690 BEGINNING OF THE
-0.3010 BELOW CODE </s>
-0.3010 BLOCK COMMENT CODE
-0.3010 BOOKMARK THIS PAGE
-0.3010 BOOKMARKS SIDEBAR FIREFOX
-0.3010 BOTTOM CODE </s>
-0.3010 BOTTOM OF PAGE
-0.3010 BOTTOM TERMINAL </s>
-0.3010 BOX FIREFOX </s>
-0.3010 BRACKET CODE </s>
-0.3010 BREAKPOINT CODE </s>
-0.3010 BROWSER CONSOLE FIREFOX
-0.3010 BROWSING FIREFOX </s>
-0.6021 BY ONE LINE
-0.6021 BY ONE PAGE
-0.3010 CACHE) FIREFOX </s>
-0.3010 CANCEL DRAG-AND-DROP OPERATION
-0.3010 CARET BROWSING FIREFOX
-0.3010 CASE GEDIT </s>
-0.3010 CASE OF THE
-0.3010 CHANGE FILE LANGUAGE
-0.3010 CHARACTER TERMINAL </s>
-0.3010 CHECK SPELLING GEDIT
-0.3010 CHOOSE HAND TOOL
-0.3010 CHOOSE TEXT SELECTION
-0.6021 CLEAR HIGHLIGHT GEDIT
-0.6021 CLEAR HIGHLIGHT TERMINAL
-0.3010 CLEAR RECENT HISTORY
-0.3010 CLEAR SEARCH FIELD
-0.3010 CLEAR THE SCREEN
-0.3010 CLIPBOARD TERMINAL </s>
-0.3010 CLOCKWISE FIREFOX </s>
-0.3010 CLOSE A MENU
-0.6021 CLOSE ALL CODE
-0.6021 CLOSE ALL TABS
-0.3010 CLOSE CODE </s>
-0.3010 CLOSE EDITOR CODE
-0.3010 CLOSE FOLDER CODE
-0.6990 CLOSE TAB FIREFOX
-1.0000 CLOSE TAB GEDIT
-1.0000 CLOSE TAB NAUTILUS
-1.0000 CLOSE TAB TERMINAL
-0.6021 CLOSE THE CURRENT
-0.6021 CLOSE THE FIND
-1.1461 CLOSE WINDOW </s>
-1.1461 CLOSE WINDOW CODE
-0.8451 CLOSE WINDOW FIREFOX
-0.8451 CLOSE WINDOW NAUTILUS
-1.1461 CLOSE WINDOW TERMINAL
-0.3010 CLOSED EDITOR CODE
-0.3010 CLOSED TAB GEDIT
-0.3010 COMMAND PALETTE CODE
-0.3010 COMMAND PROMPT </s>
-0.3010 COMMAND PROMPT/TERMINAL CODE
-0.3010 COMMENT CODE </s>
-0.3010 COMPLETE .COM ADDRESS
-0.3010 CONSOLE FIREFOX </s>
-0.3010 CONTEXT MENU FIREFOX
-0.3010 CONTINUE CODE </s>
-0.3010 CONTROL CODE </s>
-0.3010 CONVERT THE SELECTED
-0.3010 COPY A SCREENSHOT
-0.3010 COPY FIREFOX </s>
-0.3010 COPY GEDIT </s>
-0.3010 COPY LINE (EMPTY
-0.3010 COPY NAUTILUS </s>
-0.3010 COPY PATH OF
-0.3010 COPY SELECTION CODE
-0.3010 COPY TERMINAL </s>
-0.3010 COUNTERCLOCKWISE FIREFOX </s>
-0.3010 CREATE A NEW
-0.3010 CREATE FOLDER NAUTILUS
-0.3010 CREATE NEW TERMINAL
-0.3010 CURRENT DIRECTORY (WITH
-0.4260 CURRENT DOCUMENT GEDIT
-0.9031 CURRENT DOCUMENT WITH
-1.0000 CURRENT LINE AT
-1.0000 CURRENT LINE CODE
-0.5229 CURRENT LINE GEDIT
-0.3010 CURRENT SELECTION CODE
-0.3010 CURRENT WORD CODE
-0.3010 CURSOR ABOVE CODE
-0.3010 CURSOR AT END
-0.3010 CURSOR BELOW CODE
-0.3010 CURSOR CODE </s>
-0.3010 CURSOR OPERATION CODE
-0.3010 CURSOR TO THE
-0.3010 CUT FIREFOX </s>
-0.3010 CUT GEDIT </s>
-0.3010 CUT LINE (EMPTY
-0.3010 CUT NAUTILUS </s>
-0.3010 CYCLE THROUGH TABS
-0.3010 DEBUG CODE </s>
-0.3010 DEBUGGER FIREFOX </s>
-0.3010 DECREASE VOLUME FIREFOX
-0.3010 DEFAULT APPLICATION NAUTILUS
-0.3010 DEFINITION CODE </s>
-0.3010 DEFINITION TO THE
-0.3010 DELETE FIREFOX </s>
-0.3010 DELETE FROM THE
-0.3010 DELETE LINE CODE
-0.3010 DELETE PERMANENTLY NAUTILUS
-0.3010 DELETE PREVIOUS WORD
-0.3010 DELETE SELECTED AUTOCOMPLETE
-0.3010 DELETE THE CURRENT
-0.3010 DELETE WORD TO
-0.3010 DESIGN VIEW FIREFOX
-0.3010 DETAILS CODE </s>
-0.3010 DEVELOPER TOOLBAR FIREFOX
-0.3010 DEVELOPER TOOLS FIREFOX
-0.3010 DIRECTORY (WITH PLUGIN)
-0.3010 DIRECTORY LISTING (WITH
-0.3010 DOCUMENT CLOCKWISE FIREFOX
-0.3010 DOCUMENT CODE </s>
-0.3010 DOCUMENT GEDIT </s>
-0.3010 DOCUMENT IN A
-0.3010 DOCUMENT WITH A
-0.3010 DOWN A SCREEN
-0.3010 DOWN BY ONE
-0.3010 DOWN CODE </s>
-0.3010 DOWN ONE LINE
-0.3010 DOWNLOADS FIREFOX </s>
-0.3010 DRAG-AND-DROP OPERATION FIREFOX
-0.3010 EACH LINE SELECTED
-0.3010 EDITOR CODE </s>
-0.3010 EDITOR FIREFOX </s>
-0.6021 EDITOR GROUP CODE
-1.3010 EDITOR GROUP DOWN
-1.3010 EDITOR GROUP HISTORY
-1.3010 EDITOR GROUP LEFT
-1.3010 EDITOR GROUP RIGHT
-1.3010 EDITOR GROUP UP
-0.3010 EDITOR LAYOUT(HORIZONTAL/VERTICAL) CODE
-0.3010 EDITOR LEFT CODE
-0.3010 EDITOR OPEN CODE
-0.3010 EDITOR RIGHT CODE
-0.3010 END FIREFOX </s>
-1.2553 END OF EACH
-1.2553 END OF FILE
-0.9542 END OF LINE
-1.2553 END OF TEXT
-0.6532 END OF THE
-0.3010 ENTER LOCATION NAUTILUS
-0.3010 ENTRY FIREFOX </s>
-0.6021 ERASE A LINE
-0.6021 ERASE A WORD
-0.3010 ERROR OR WARNING
-0.3010 EXIT ZEN MODE
-0.3010 EXPAND SELECTION CODE
-0.3010 EXPLORER CODE </s>
-0.3010 EXTENSIONS CODE </s>
-0.3010 FIELD FIREFOX </s>
-0.3010 FIELD IN LIBRARY
-0.3010 FIFTEEN SECONDS FIREFOX
-0.3010 FILE AND CLOSE
-0.3010 FILE CODE </s>
-0.3010 FILE FIREFOX </s>
-0.3010 FILE GEDIT </s>
-0.6021 FILE IN EXPLORER
-0.6021 FILE IN NEW
-0.3010 FILE LANGUAGE CODE
-0.3010 FILE MENU GEDIT
-0.3010 FILE... CODE </s>
-0.3010 FILENAME GEDIT </s>
-0.3010 FILES CODE </s>
-0.3010 FILES NAUTILUS </s>
-0.3010 FIND A STRING
-0.3010 FIND AGAIN FIREFOX
-0.3010 FIND BAR FIREFOX
-0.3010 FIND CODE </s>
-0.3010 FIND FIREFOX </s>
-0.3010 FIND MATCH CODE
-0.6021 FIND NEXT CODE
-0.6021 FIND NEXT TERMINAL
-0.3010 FIND OR QUICK
-0.7782 FIND PREVIOUS CODE
-0.7782 FIND PREVIOUS FIREFOX
-0.7782 FIND PREVIOUS TERMINAL
-0.3010 FIND TERMINAL </s>
-0.6021 FIND THE NEXT
-0.6021 FIND THE PREVIOUS
-0.3010 FIND WITHIN LINK-TEXT
-0.3010 FIRST EDITOR GROUP
-0.3010 FIX CODE </s>
-0.3010 FOCUS CODE </s>
-1.0000 FOCUS INTO FIRST
-1.0000 FOCUS INTO NEXT
-1.0000 FOCUS INTO PREVIOUS
-1.0000 FOCUS INTO SECOND
-1.0000 FOCUS INTO THIRD
-0.3010 FOCUS NEXT LINK
-0.3010 FOCUS PREVIOUS LINK
-0.3010 FOCUS SEARCH BAR
-0.6021 FOCUS THE ACTIVE
-0.6021 FOCUS THE PAGE
-0.6021 FOLD ALL REGIONS
-0.6021 FOLD ALL SUBREGIONS
-0.3010 FOLD REGION CODE
-0.3010 FOLDER CODE </s>
-0.3010 FOLDER NAUTILUS </s>
-0.3010 FORMAT DOCUMENT CODE
-0.3010 FORMAT SELECTION CODE
-0.3010 FORWARD CODE </s>
-0.3010 FORWARD FIFTEEN SECONDS
-0.3010 FORWARD FIREFOX </s>
-0.6021 FORWARD ONE CHARACTER
-0.6021 FORWARD ONE WORD
-0.3010 FORWARD TEN PERCENT
-0.3010 FRAME FIREFOX </s>
-0.9031 FROM THE CLIPBOARD
-0.4260 FROM THE CURSOR
-0.7782 FULL SCREEN CODE
-0.7782 FULL SCREEN FIREFOX
-0.7782 FULL SCREEN TERMINAL
-0.3010 GEDIT GEDIT </s>
-0.3010 GEDIT USER GUIDE
-0.3010 GO BACK CODE
-0.3010 GO DOWN A
-0.3010 GO FORWARD CODE
-0.6021 GO ONE TAB
-0.6021 GO ONE WORD
-1.0212 GO TO BEGINNING
-1.6232 GO TO BOTTOM
-1.6232 GO TO DEFINITION
-1.0212 GO TO END
-1.6232 GO TO FILE
-1.6232 GO TO FILE...
-1.6232 GO TO HOME
-1.6232 GO TO LINE...
-1.3222 GO TO NEXT
-1.3222 GO TO PREVIOUS
-1.6232 GO TO SEARCH
-1.6232 GO TO SYMBOL...
-1.6232 GO TO TOP
-0.3010 GO UP A
-0.3010 GOTO LINE GEDIT
-0.3010 GROUP CODE </s>
-0.3010 GROUP DOWN CODE
-0.3010 GROUP GEDIT </s>
-0.3010 GROUP HISTORY CODE
-0.3010 GROUP LEFT CODE
-0.3010 GROUP RIGHT CODE
-0.3010 GROUP UP CODE
-0.3010 GUIDE GEDIT </s>
-0.3010 HAND TOOL FIREFOX
-0.3010 HELP NAUTILUS </s>
-0.3010 HIDDEN FILES NAUTILUS
-0.3010 HIDDEN) FIREFOX </s>
-0.3010 HIDE ACTION MENU
-0.3010 HIDE ALL NORMAL
-0.3010 HIDE HIDDEN FILES
-0.3010 HIDE SIDEBAR NAUTILUS
-0.3010 HIDE THE SIDE
-0.3010 HIDE WINDOW </s>
-0.3010 HIGHLIGHT GEDIT </s>
-0.3010 HIGHLIGHT TERMINAL </s>
-0.3010 HINTS CODE </s>
-0.3010 HISTORY CODE </s>
-0.3010 HISTORY FIREFOX </s>
-0.3010 HISTORY SIDEBAR FIREFOX
-0.3010 HISTORY TERMINAL </s>
-0.3010 HOME FIREFOX </s>
-0.3010 HOME FOLDER NAUTILUS
-0.3010 HOVER CODE </s>
-0.3010 IN A NEW
-0.3010 IN CODE </s>
-0.3010 IN EXPLORER CODE
-0.3010 IN FILES CODE
-0.3010 IN FIREFOX </s>
-0.6021 IN LIBRARY FIREFOX
-0.6021 IN LIBRARY OR
-0.3010 IN NAUTILUS </s>
-0.7782 IN NEW TAB
-0.7782 IN NEW WINDOW
-0.7782 IN NEW WINDOW/INSTANCE
-0.3010 IN RECENTLY USED
-0.3010 IN TERMINAL </s>
-0.6021 IN THE CURRENT
-0.6021 IN THE FILE
-0.3010 INCREASE VOLUME FIREFOX
-0.3010 INCREMENTAL SEARCH OF
-0.3010 INDENT LINE CODE
-0.3010 INFO FIREFOX </s>
-0.3010 INPUT BOX FIREFOX
-0.3010 INPUT FIELD FIREFOX
-0.3010 INPUT SOURCE </s>
-0.9031 INSERT CURSOR ABOVE
-0.9031 INSERT CURSOR AT
-0.9031 INSERT CURSOR BELOW
-0.9031 INSERT CURSOR CODE
-0.6021 INSERT LINE ABOVE
-0.6021 INSERT LINE BELOW
-0.3010 INSPECTOR FIREFOX </s>
-0.3010 INSTANCE OF THE
-0.3010 INTEGRATED TERMINAL CODE
-0.3010 INTO ACTIVE TERMINAL
-0.3010 INTO CODE </s>
-0.3010 INTO FIRST EDITOR
-0.3010 INTO NEXT EDITOR
-0.3010 INTO PREVIOUS EDITOR
-0.3010 INTO SECOND EDITOR
-0.3010 INTO THIRD EDITOR
-0.3010 INVERT SELECTION NAUTILUS
-0.3010 IT TEMPORARILY WHEN
-0.3010 ITEM LOCATION NAUTILUS
-0.3010 ITEM PROPERTIES NAUTILUS
-0.3010 ITEMS NAUTILUS </s>
-0.3010 JUMP TO MATCHING
-0.3010 KEEP PREVIEW MODE
-0.6021 KEYBOARD SHORTCUTS </s>
-0.6021 KEYBOARD SHORTCUTS CODE
-0.3010 LANGUAGE CODE </s>
-0.3010 LAST ACTION GEDIT
-0.3010 LAST CURSOR OPERATION
-0.3010 LAST SELECTION TO
-0.3010 LAST UNDONE ACTION
-0.3010 LAST WORKING SPACE
-0.3010 LAYOUT(HORIZONTAL/VERTICAL) CODE </s>
-0.3010 LEAVING THE CURRENT
-0.3010 LEFT CODE </s>
-0.3010 LEFT FIREFOX </s>
-0.3010 LEFT GEDIT </s>
-0.3010 LEFT NAUTILUS </s>
-0.3010 LEFT ONE WORD
-0.3010 LEFT TERMINAL </s>
-0.3010 LIBRARY FIREFOX </s>
-0.3010 LIBRARY OR SIDEBAR
-0.6021 LIBRARY WINDOW (BOOKMARKS)
-0.6021 LIBRARY WINDOW (HISTORY)
-0.3010 LINE (EMPTY SELECTION)
-0.3010 LINE ABOVE CODE
-0.3010 LINE AT THE
-0.3010 LINE BELOW CODE
-0.3010 LINE CODE </s>
-0.3010 LINE COMMENT CODE
-0.4771 LINE DOWN CODE
-0.7782 LINE DOWN ONE
-0.3010 LINE FIREFOX </s>
-0.3010 LINE GEDIT </s>
-0.3010 LINE SELECTED CODE
-0.3010 LINE TERMINAL </s>
-0.4771 LINE UP CODE
-0.7782 LINE UP ONE
-0.3010 LINE... CODE </s>
-0.3010 LINK OR INPUT
-0.3010 LINK-TEXT ONLY FIREFOX
-0.3010 LISTING (WITH PLUGIN)
-0.3010 LOCATION BAR FIREFOX
-0.3010 LOCATION NAUTILUS </s>
-0.3010 LOCK SCREEN </s>
-0.3010 LOG OUT </s>
-0.3010 LOWER CASE GEDIT
-0.6021 MARKDOWN PREVIEW CODE
-0.6021 MARKDOWN PREVIEW TO
-0.3010 MATCH CODE </s>
-0.3010 MATCHING BRACKET CODE
-0.3010 MATCHING ITEMS NAUTILUS
-0.3010 MAXIMIZATION STATE </s>
-0.3010 MAXIMIZE WINDOW </s>
-0.3010 MENU BAR ACTIVATION
-0.3010 MENU FIREFOX </s>
-0.3010 MENU GEDIT </s>
-0.3010 MENU NAUTILUS </s>
-0.3010 MODE CODE </s>
-0.3010 MODE EDITOR OPEN
-0.3010 MODE FIREFOX </s>
-0.3010 MONITOR DOWN </s>
-0.3010 MONITOR TO THE
-0.3010 MONITOR UP </s>
-0.3010 MOST RECENTLY CLOSED
-0.3010 MOVE ACTIVE EDITOR
-0.3010 MOVE BACK ONE
-0.6021 MOVE EDITOR LEFT
-0.6021 MOVE EDITOR RIGHT
-0.3010 MOVE FORWARD ONE
-0.3010 MOVE LAST SELECTION
-0.6021 MOVE LINE DOWN
-0.6021 MOVE LINE UP
-0.9031 MOVE TAB LEFT
-0.9031 MOVE TAB RIGHT
-0.6021 MOVE TAB TO
-0.3010 MOVE THE SELECTED
-1.3424 MOVE TO NEXT
-1.3424 MOVE TO PREVIOUS
-0.5643 MOVE TO THE
-1.3424 MOVE TO TRASH
-1.0414 MOVE TO WORKSPACE
-1.2041 MOVE WINDOW </s>
-0.4260 MOVE WINDOW ONE
-1.2041 MOVE WINDOW TO
-0.3010 MOVES FOCUS CODE
-0.3010 MUTE AUDIO FIREFOX
-0.3010 MUTE/UNMUTE AUDIO FIREFOX
-0.3010 NAVIGATE EDITOR GROUP
-0.3010 NETWORK FIREFOX </s>
-0.3010 NEW COMMAND PROMPT/TERMINAL
-0.3010 NEW DOCUMENT IN
-0.3010 NEW FILE CODE
-0.3010 NEW FILENAME GEDIT
-0.3010 NEW PRIVATE WINDOW
-1.0792 NEW TAB FIREFOX
-1.0792 NEW TAB GEDIT
-1.0792 NEW TAB GROUP
-0.7782 NEW TAB NAUTILUS
-1.0792 NEW TAB TERMINAL
-0.3010 NEW TERMINAL CODE
-1.0792 NEW WINDOW CODE
-1.0792 NEW WINDOW FIREFOX
-1.0792 NEW WINDOW GEDIT
-0.7782 NEW WINDOW NAUTILUS
-1.0792 NEW WINDOW TERMINAL
-0.3010 NEW WINDOW/INSTANCE CODE
-0.3010 NEXT CODE </s>
-0.3010 NEXT EDITOR GROUP
-0.3010 NEXT ERROR OR
-0.3010 NEXT FIND MATCH
-0.3010 NEXT FRAME FIREFOX
-0.3010 NEXT INPUT SOURCE
-0.3010 NEXT INSTANCE OF
-0.3010 NEXT LINK OR
-0.3010 NEXT PAGE FIREFOX
-1.0000 NEXT TAB GROUP
-1.0000 NEXT TAB NAUTILUS
-1.0000 NEXT TAB TERMINAL
-0.6990 NEXT TAB TO
-0.3010 NEXT TERMINAL </s>
-0.3010 NON-INCREMENTAL SEARCH OF
-0.3010 NORMAL SIZE TERMINAL
-0.3010 NORMAL WINDOWS </s>
-0.3010 NOTIFICATION LIST </s>
-0.3010 NUMBER INPUT BOX
-0.4771 OCCURRENCES OF CURRENT
-0.7782 OCCURRENCES OF FIND
-0.3010 OF A WINDOW
-0.3010 OF ACTIVE FILE
-0.7782 OF AN APP
-0.7782 OF AN AREA
-0.7782 OF AN TO
-0.6021 OF CURRENT SELECTION
-0.6021 OF CURRENT WORD
-0.3010 OF EACH LINE
-0.3010 OF FILE CODE
-0.3010 OF FIND MATCH
-0.3010 OF HISTORY TERMINAL
-0.6021 OF LINE CODE
-0.6021 OF LINE FIREFOX
-0.3010 OF PAGE FIREFOX
-0.3010 OF TEXT FIREFOX
-1.1139 OF THE CURRENT
-1.1139 OF THE DOCUMENT
-0.8129 OF THE LINE
-1.4150 OF THE SCREEN
-1.4150 OF THE SELECTED
-1.1139 OF THE STRING
-1.4150 OF THE WORD
-0.3010 ON LEFT </s>
-0.3010 ON RIGHT </s>
-0.3010 ONE CHARACTER TERMINAL
-0.6021 ONE LINE GEDIT
-0.6021 ONE LINE TERMINAL
-0.9031 ONE MONITOR DOWN
-0.6021 ONE MONITOR TO
-0.9031 ONE MONITOR UP
-0.3010 ONE PAGE TERMINAL
-0.3010 ONE TAB TO
-0.7782 ONE WORD GEDIT
-0.7782 ONE WORD TERMINAL
-0.7782 ONE WORD TO
-0.6021 ONE WORKSPACE DOWN
-0.6021 ONE WORKSPACE UP
-0.3010 ONLY FIREFOX </s>
-0.3010 OPEN A DOCUMENT
-0.3010 OPEN CODE </s>
-0.3010 OPEN DEFINITION TO
-0.6021 OPEN FILE AND
-0.6021 OPEN FILE FIREFOX
-0.3010 OPEN FILE... CODE
-0.3010 OPEN IN NEW
-0.3010 OPEN ITEM LOCATION
-0.3010 OPEN MARKDOWN PREVIEW
-0.3010 OPEN NAUTILUS </s>
-0.3010 OPEN NEW COMMAND
-0.3010 OPEN NEXT CODE
-0.3010 OPEN PREVIOUS CODE
-0.9031 OPEN THE APPLICATION
-0.9031 OPEN THE FILE
-0.9031 OPEN THE GEDIT
-0.9031 OPEN THE QUICK
-0.3010 OPEN WINDOW GEDIT
-0.3010 OPEN WITH DEFAULT
-0.3010 OPERATION CODE </s>
-0.3010 OPERATION FIREFOX </s>
-0.3010 OR INPUT FIELD
-0.3010 OR QUICK FIND
-0.3010 OR SIDEBAR FIREFOX
-0.3010 OR WARNING CODE
-0.3010 ORDER FIREFOX </s>
-0.3010 OUT CODE </s>
-0.3010 OUT FIREFOX </s>
-0.3010 OUT NAUTILUS </s>
-0.3010 OUT TERMINAL </s>
-0.3010 OUTDENT LINE CODE
-0.3010 OUTPUT PANEL CODE
-0.3010 OVER CODE </s>
-0.3010 PAGE AS FIREFOX
-0.3010 PAGE DOWN CODE
-0.3010 PAGE FIREFOX </s>
-0.3010 PAGE INFO FIREFOX
-0.3010 PAGE NUMBER INPUT
-0.3010 PAGE SOURCE FIREFOX
-0.3010 PAGE TERMINAL </s>
-0.3010 PAGE UP CODE
-0.3010 PALETTE CODE </s>
-0.3010 PANEL CODE </s>
-0.3010 PANEL GEDIT </s>
-0.3010 PARAMETER HINTS CODE
-0.3010 PASTE (AS PLAIN
-0.3010 PASTE CODE </s>
-0.3010 PASTE FIREFOX </s>
-0.3010 PASTE GEDIT </s>
-0.3010 PASTE INTO ACTIVE
-0.3010 PASTE NAUTILUS </s>
-0.3010 PASTE TERMINAL </s>
-0.3010 PASTE TEXT FROM
-0.3010 PATH OF ACTIVE
-0.3010 PEEK DEFINITION CODE
-0.3010 PERCENT FIREFOX </s>
-0.3010 PERMANENTLY NAUTILUS </s>
-0.3010 PLAIN TEXT) FIREFOX
-0.3010 PLAY/PAUSE FIREFOX </s>
-0.3010 PLUGIN) GEDIT </s>
-0.3010 PRESENTATION MODE FIREFOX
-0.3010 PREVIEW CODE </s>
-0.3010 PREVIEW GEDIT </s>
-0.3010 PREVIEW MODE EDITOR
-0.3010 PREVIEW TO THE
-0.3010 PREVIOUS CODE </s>
-0.3010 PREVIOUS EDITOR GROUP
-0.3010 PREVIOUS ERROR OR
-0.3010 PREVIOUS FIREFOX </s>
-0.3010 PREVIOUS FRAME FIREFOX
-0.3010 PREVIOUS INPUT SOURCE
-0.3010 PREVIOUS INSTANCE OF
-0.3010 PREVIOUS LINK OR
-0.3010 PREVIOUS PAGE FIREFOX
-0.7782 PREVIOUS TAB GROUP
-0.7782 PREVIOUS TAB NAUTILUS
-0.7782 PREVIOUS TAB TERMINAL
-0.3010 PREVIOUS TERMINAL </s>
-0.3010 PREVIOUS WORD TERMINAL
-0.3010 PRINT FIREFOX </s>
-0.3010 PRINT PREVIEW GEDIT
-0.3010 PRINT THE CURRENT
-0.3010 PRIVATE WINDOW FIREFOX
-0.3010 PROBLEMS PANEL CODE
-0.3010 PROFILER FIREFOX </s>
-0.3010 PROMPT/TERMINAL CODE </s>
-0.3010 PROPERTIES NAUTILUS </s>
-0.7782 QUICK FIND BAR
-0.7782 QUICK FIND FIREFOX
-0.7782 QUICK FIND WITHIN
-0.3010 QUICK FIX CODE
-0.6021 QUICK OPEN CODE
-0.6021 QUICK OPEN WINDOW
-0.3010 QUIT FIREFOX </s>
-0.3010 QUIT GEDIT GEDIT
-0.3010 READER MODE FIREFOX
-0.3010 READER OFF </s>
-0.3010 READER ON </s>
-0.3010 RECENT HISTORY FIREFOX
-0.3010 RECENTLY CLOSED TAB
-0.3010 RECENTLY USED ORDER
-0.3010 RECORD A SHORT
-0.3010 REDO FIREFOX </s>
-0.3010 REDO NAUTILUS </s>
-0.3010 REDO THE LAST
-0.3010 REFERENCES CODE </s>
-0.3010 REFRESH VIEW NAUTILUS
-0.3010 REGION CODE </s>
-0.3010 REGIONS CODE </s>
-0.3010 RELOAD (OVERRIDE CACHE)
-0.3010 RELOAD FIREFOX </s>
-0.3010 REMOVE A TAB
-0.3010 REMOVE LINE COMMENT
-0.3010 REMOVE TRAILING SPACES
-0.3010 RENAME NAUTILUS </s>
-0.3010 RENAME SYMBOL CODE
-0.3010 REOPEN CLOSED EDITOR
-0.3010 REOPEN THE MOST
-0.3010 REPLACE CODE </s>
-0.3010 REPLACE GEDIT </s>
-0.3010 REPLACE IN FILES
-0.3010 RESET FIREFOX </s>
-0.3010 RESET ZOOM NAUTILUS
-0.3010 RESIZE WINDOW </s>
-0.3010 RESPONSIVE DESIGN VIEW
-0.3010 RESTORE TAB NAUTILUS
-0.3010 RESTORE THE KEYBOARD
-0.3010 RESTORE WINDOW </s>
-0.3010 REVEAL ACTIVE FILE
-0.3010 REVERSE INCREMENTAL SEARCH
-0.3010 REVERSE NON-INCREMENTAL SEARCH
-0.3010 RIGHT CODE </s>
-0.3010 RIGHT FIREFOX </s>
-0.3010 RIGHT GEDIT </s>
-0.3010 RIGHT NAUTILUS </s>
-0.3010 RIGHT ONE WORD
-0.3010 RIGHT TERMINAL </s>
-0.3010 ROTATE COUNTERCLOCKWISE FIREFOX
-0.3010 ROTATE THE DOCUMENT
-0.3010 RUN "MAKE" IN
-0.3010 RUN COMMAND PROMPT
-0.3010 SAVE A SCREENSHOT
-0.3010 SAVE ALL TABS
-0.3010 SAVE AS... CODE
-0.3010 SAVE CODE </s>
-0.3010 SAVE PAGE AS
-0.3010 SAVE THE CURRENT
-0.3010 SCRATCHPAD FIREFOX </s>
-0.3010 SCREEN CODE </s>
-0.3010 SCREEN FIREFOX </s>
-0.3010 SCREEN LEAVING THE
-0.6021 SCREEN READER OFF
-0.6021 SCREEN READER ON
-0.3010 SCREEN TERMINAL </s>
-0.6021 SCREENSHOT OF A
-0.6021 SCREENSHOT OF AN
-0.6021 SCREENSHOT TO CLIPBOARD
-0.6021 SCREENSHOT TO PICTURES
-0.4771 SCROLL DOWN BY
-0.7782 SCROLL DOWN CODE
-0.6021 SCROLL LINE DOWN
-0.6021 SCROLL LINE UP
-0.6021 SCROLL PAGE DOWN
-0.6021 SCROLL PAGE UP
-0.9031 SCROLL TO BOTTOM
-0.6021 SCROLL TO THE
-0.9031 SCROLL TO TOP
-0.4771 SCROLL UP BY
-0.7782 SCROLL UP CODE
-0.3010 SEARCH AND REPLACE
-0.3010 SEARCH BAR FIREFOX
-0.3010 SEARCH CODE </s>
-0.3010 SEARCH DETAILS CODE
-0.3010 SEARCH FIELD IN
-0.3010 SEARCH NAUTILUS </s>
-0.3010 SEARCH OF HISTORY
-0.3010 SECOND EDITOR GROUP
-0.3010 SECONDS FIREFOX </s>
-0.6021 SEEK BACK FIFTEEN
-0.6021 SEEK BACK TEN
-0.6021 SEEK FORWARD FIFTEEN
-0.6021 SEEK FORWARD TEN
-0.3010 SEEK TO THE
-1.0792 SELECT ALL FIREFOX
-1.0792 SELECT ALL NAUTILUS
-0.6021 SELECT ALL OCCURRENCES
-1.0792 SELECT ALL TEXT
-0.3010 SELECT CURRENT LINE
-0.3010 SELECT LOCATION BAR
-0.3010 SELECT MATCHING ITEMS
-0.3010 SELECTED AUTOCOMPLETE ENTRY
-0.3010 SELECTED CODE </s>
-0.6021 SELECTED LINE DOWN
-0.6021 SELECTED LINE UP
-0.7782 SELECTED TEXT GEDIT
-0.4771 SELECTED TEXT TO
-0.6021 SELECTED WORD LEFT
-0.6021 SELECTED WORD RIGHT
-0.3010 SELECTION CODE </s>
-0.3010 SELECTION NAUTILUS </s>
-0.3010 SELECTION TO NEXT
-0.3010 SELECTION TOOL FIREFOX
-0.3010 SELECTION) CODE </s>
-0.3010 SETTINGS CODE </s>
-0.3010 SHORT SCREENCAST </s>
-0.3010 SHORTCUTS CODE </s>
-0.3010 SHORTCUTS NAUTILUS </s>
-0.3010 SHOW / HIDE
-0.3010 SHOW ACTIVE FILE
-0.6021 SHOW ALL APPLICATIONS
-0.6021 SHOW ALL SYMBOLS
-0.3010 SHOW COMMAND PALETTE
-0.3010 SHOW DEBUG CODE
-0.3010 SHOW EXPLORER CODE
-0.3010 SHOW EXTENSIONS CODE
-0.3010 SHOW HELP NAUTILUS
-0.7782 SHOW HIDE ACTION
-0.7782 SHOW HIDE HIDDEN
-0.7782 SHOW HIDE SIDEBAR
-0.3010 SHOW HOVER CODE
-0.3010 SHOW INTEGRATED TERMINAL
-0.3010 SHOW ITEM PROPERTIES
-0.3010 SHOW OUTPUT PANEL
-0.3010 SHOW PROBLEMS PANEL
-0.3010 SHOW REFERENCES CODE
-0.3010 SHOW SEARCH CODE
-0.3010 SHOW SOURCE CONTROL
-0.9031 SHOW THE ACTIVITIES
-0.9031 SHOW THE NOTIFICATION
-0.9031 SHOW THE OVERVIEW
-0.9031 SHOW THE RUN
-0.3010 SHRINK SELECTION CODE
-0.3010 SIDE CODE </s>
-0.3010 SIDE PANEL GEDIT
-0.3010 SIDEBAR FIREFOX </s>
-0.3010 SIDEBAR NAUTILUS </s>
-0.3010 SIDEBAR VISIBILITY CODE
-0.3010 SIZE TERMINAL </s>
-0.3010 SOURCE CONTROL CODE
-0.3010 SOURCE FIREFOX </s>
-0.3010 SPACES (WITH PLUGIN)
-0.3010 SPELLING GEDIT </s>
-0.3010 SPLIT EDITOR CODE
-0.6021 SPLIT ON LEFT
-0.6021 SPLIT ON RIGHT
-0.3010 START CODE </s>
-0.3010 START FIREFOX </s>
-0.3010 START OF THE
-0.3010 STEP INTO CODE
-0.3010 STEP OUT CODE
-0.3010 STEP OVER CODE
-0.3010 STOP AUTOSCROLL MODE
-0.3010 STOP CODE </s>
-0.3010 STOP FIREFOX </s>
-0.3010 STOP GEDIT </s>
-0.3010 STRING GEDIT </s>
-0.3010 STYLE EDITOR FIREFOX
-0.3010 SUBREGIONS CODE </s>
-0.3010 SUGGESTION CODE </s>
-1.5441 SWITCH TO NEXT
-1.8451 SWITCH TO PRESENTATION
-1.5441 SWITCH TO PREVIOUS
-0.3979 SWITCH TO TAB
-1.5441 SWITCH TO THE
-0.7782 SWITCH WINDOWS </s>
-0.7782 SWITCH WINDOWS DIRECTLY
-0.7782 SWITCH WINDOWS OF
-0.3010 SYMBOL CODE </s>
-0.3010 SYMBOL... CODE </s>
-0.3010 SYMBOLS CODE </s>
-0.7782 TAB 1 GEDIT
-0.7782 TAB 1 NAUTILUS
-0.7782 TAB 1 TERMINAL
-0.3010 TAB 10 TERMINAL
-0.7782 TAB 2 GEDIT
-0.7782 TAB 2 NAUTILUS
-0.7782 TAB 2 TERMINAL
-0.7782 TAB 3 GEDIT
-0.7782 TAB 3 NAUTILUS
-0.7782 TAB 3 TERMINAL
-0.7782 TAB 4 GEDIT
-0.7782 TAB 4 NAUTILUS
-0.7782 TAB 4 TERMINAL
-0.7782 TAB 5 GEDIT
-0.7782 TAB 5 NAUTILUS
-0.7782 TAB 5 TERMINAL
-0.7782 TAB 6 GEDIT
-0.7782 TAB 6 NAUTILUS
-0.7782 TAB 6 TERMINAL
-0.7782 TAB 7 GEDIT
-0.7782 TAB 7 NAUTILUS
-0.7782 TAB 7 TERMINAL
-0.7782 TAB 8 GEDIT
-0.7782 TAB 8 NAUTILUS
-0.7782 TAB 8 TERMINAL
-0.7782 TAB 9 GEDIT
-0.7782 TAB 9 NAUTILUS
-0.7782 TAB 9 TERMINAL
-0.3010 TAB FIREFOX </s>
-0.3010 TAB GEDIT </s>
-0.3010 TAB GROUP GEDIT
-0.6021 TAB LEFT FIREFOX
-0.6021 TAB LEFT NAUTILUS
-0.3010 TAB MOVES FOCUS
-0.3010 TAB NAUTILUS </s>
-0.6021 TAB RIGHT FIREFOX
-0.6021 TAB RIGHT NAUTILUS
-0.3010 TAB STOP GEDIT
-0.3010 TAB TERMINAL </s>
-1.2041 TAB TO END
-1.2041 TAB TO START
-0.4260 TAB TO THE
-0.3010 TABS GEDIT </s>
-0.3010 TABS IN RECENTLY
-0.3010 TEMPORARILY WHEN HIDDEN)
-0.3010 TEN PERCENT FIREFOX
-0.3010 TERMINAL CODE </s>
-0.3010 TEXT FIREFOX </s>
-0.3010 TEXT FROM THE
-0.3010 TEXT GEDIT </s>
-0.3010 TEXT IN THE
-0.3010 TEXT SELECTION TOOL
-0.6021 TEXT TO LOWER
-0.6021 TEXT TO UPPER
-0.3010 TEXT) FIREFOX </s>
-0.3010 THE ACTIVE NOTIFICATION
-0.3010 THE ACTIVITIES OVERVIEW
-0.3010 THE APPLICATION MENU
-0.9031 THE BEGINNING FIREFOX
-0.4260 THE BEGINNING OF
-0.3010 THE BOTTOM TERMINAL
-0.3010 THE CLIPBOARD TERMINAL
-1.2553 THE CURRENT DIRECTORY
-0.6532 THE CURRENT DOCUMENT
-0.6532 THE CURRENT LINE
-0.3010 THE CURSOR TO
-0.7782 THE DOCUMENT CLOCKWISE
-0.4771 THE DOCUMENT GEDIT
-1.0000 THE END FIREFOX
-0.3979 THE END OF
-0.6021 THE FILE GEDIT
-0.6021 THE FILE MENU
-0.3010 THE FIND OR
-0.3010 THE GEDIT USER
-0.3010 THE KEYBOARD SHORTCUTS
-0.6021 THE LAST ACTION
-0.6021 THE LAST UNDONE
-1.0792 THE LEFT </s>
-0.6021 THE LEFT FIREFOX
-1.0792 THE LEFT GEDIT
-1.0792 THE LEFT TERMINAL
-0.3010 THE LINE TERMINAL
-0.3010 THE MOST RECENTLY
-0.7782 THE NEXT INSTANCE
-0.4771 THE NEXT TAB
-0.3010 THE NOTIFICATION LIST
-0.3010 THE OVERVIEW </s>
-0.3010 THE PAGE NUMBER
-0.3010 THE PREVIOUS INSTANCE
-0.3010 THE QUICK OPEN
-1.0792 THE RIGHT </s>
-0.6021 THE RIGHT FIREFOX
-1.0792 THE RIGHT GEDIT
-1.0792 THE RIGHT TERMINAL
-0.3010 THE RUN COMMAND
-0.6021 THE SCREEN LEAVING
-0.6021 THE SCREEN TERMINAL
-0.8451 THE SELECTED LINE
-0.6690 THE SELECTED TEXT
-0.8451 THE SELECTED WORD
-0.4771 THE SIDE CODE
-0.7782 THE SIDE PANEL
-0.3010 THE START OF
-0.3010 THE STRING GEDIT
-0.6021 THE TOP OF
-0.6021 THE TOP TERMINAL
-0.3010 THE WINDOW MENU
-0.3010 THE WORD TERMINAL
-0.3010 THIRD EDITOR GROUP
-0.3010 THIS PAGE FIREFOX
-0.3010 THROUGH TABS IN
-0.3010 TO BEGINNING OF
-0.6021 TO BOTTOM CODE
-0.6021 TO BOTTOM OF
-0.3010 TO CLIPBOARD </s>
-0.3010 TO DEFINITION CODE
-1.0000 TO END FIREFOX
-0.3979 TO END OF
-0.3010 TO FILE CODE
-0.3010 TO FILE... CODE
-0.3010 TO HOME FOLDER
-0.3010 TO LAST WORKING
-0.3010 TO LINE... CODE
-0.3010 TO LOWER CASE
-0.3010 TO MATCHING BRACKET
-1.1461 TO NEXT ERROR
-0.8451 TO NEXT FIND
-1.1461 TO NEXT FRAME
-1.1461 TO NEXT INPUT
-0.8451 TO NEXT TAB
-0.3010 TO PICTURES </s>
-0.3010 TO PRESENTATION MODE
-1.0000 TO PREVIOUS ERROR
-1.0000 TO PREVIOUS FRAME
-1.0000 TO PREVIOUS INPUT
-0.6990 TO PREVIOUS TAB
-0.3010 TO SEARCH FIELD
-0.3010 TO START FIREFOX
-0.3010 TO SYMBOL... CODE
-1.2711 TO TAB 1
-1.7482 TO TAB 10
-1.2711 TO TAB 2
-1.2711 TO TAB 3
-1.2711 TO TAB 4
-1.2711 TO TAB 5
-1.2711 TO TAB 6
-1.2711 TO TAB 7
-1.2711 TO TAB 8
-1.2711 TO TAB 9
-1.1614 TO THE BEGINNING
-1.7634 TO THE BOTTOM
-1.0645 TO THE END
-0.9853 TO THE LEFT
-1.4624 TO THE NEXT
-0.9853 TO THE RIGHT
-1.4624 TO THE SIDE
-1.4624 TO THE START
-1.7634 TO THE TOP
-0.6021 TO TOP CODE
-0.6021 TO TOP OF
-0.3010 TO TRASH NAUTILUS
-0.3010 TO UPPER CASE
-0.6021 TO WORKSPACE ABOVE
-0.6021 TO WORKSPACE BELOW
-0.3010 TOGGLE BLOCK COMMENT
-0.3010 TOGGLE BREAKPOINT CODE
-0.3010 TOGGLE CASE OF
-0.3010 TOGGLE CONTEXT MENU
-0.3010 TOGGLE DEVELOPER TOOLS
-0.3010 TOGGLE EDITOR LAYOUT(HORIZONTAL/VERTICAL)
-0.3010 TOGGLE FOCUS CODE
-0.3010 TOGGLE FULL SCREEN
-0.3010 TOGGLE LINE COMMENT
-0.3010 TOGGLE MAXIMIZATION STATE
-0.3010 TOGGLE MENU BAR
-0.3010 TOGGLE PLAY/PAUSE FIREFOX
-0.3010 TOGGLE READER MODE
-0.3010 TOGGLE SEARCH DETAILS
-0.3010 TOGGLE SIDEBAR VISIBILITY
-0.3010 TOGGLE TAB MOVES
-0.3010 TOGGLE WORD WRAP
-0.3010 TOOL FIREFOX </s>
-0.3010 TOOLBAR FIREFOX </s>
-0.3010 TOOLS FIREFOX </s>
-0.3010 TOP CODE </s>
-0.6021 TOP OF PAGE
-0.6021 TOP OF THE
-0.3010 TOP TERMINAL </s>
-0.3010 TRAILING SPACES (WITH
-0.3010 TRAILING WHITESPACE CODE
-0.3010 TRASH NAUTILUS </s>
-0.3010 TRIGGER PARAMETER HINTS
-0.3010 TRIGGER SUGGESTION CODE
-0.3010 TRIM TRAILING WHITESPACE
-0.3010 TURN SCREEN READER
-0.6021 TURN ZOOM OFF
-0.6021 TURN ZOOM ON
-0.6021 UNDO CLOSE TAB
-0.6021 UNDO CLOSE WINDOW
-0.3010 UNDO FIREFOX </s>
-0.3010 UNDO LAST CURSOR
-0.3010 UNDO NAUTILUS </s>
-0.3010 UNDO THE LAST
-0.3010 UNDONE ACTION GEDIT
-0.3010 UNFOLD ALL SUBREGIONS
-0.3010 UNFOLD REGION CODE
-0.3010 UNFOLDALL REGIONS CODE
-0.3010 UNMUTE AUDIO FIREFOX
-0.3010 UP A SCREEN
-0.3010 UP BY ONE
-0.3010 UP CODE </s>
-0.3010 UP ONE LINE
-0.3010 UPPER CASE GEDIT
-0.3010 USED ORDER FIREFOX
-0.3010 USER GUIDE GEDIT
-0.3010 USER SETTINGS CODE
-0.3010 VIEW FIREFOX </s>
-0.3010 VIEW NAUTILUS </s>
-0.3010 VIEW SPLIT ON
-0.3010 VISIBILITY CODE </s>
-0.3010 VOLUME FIREFOX </s>
-0.3010 WARNING CODE </s>
-0.3010 WEB CONSOLE FIREFOX
-0.3010 WHEN HIDDEN) FIREFOX
-0.3010 WHITESPACE CODE </s>
-0.3010 WINDOW (BOOKMARKS) FIREFOX
-0.3010 WINDOW (HISTORY) FIREFOX
-0.3010 WINDOW CODE </s>
-0.3010 WINDOW FIREFOX </s>
-0.3010 WINDOW GEDIT </s>
-0.3010 WINDOW MENU </s>
-0.3010 WINDOW NAUTILUS </s>
-0.4771 WINDOW ONE MONITOR
-0.7782 WINDOW ONE WORKSPACE
-0.3010 WINDOW TERMINAL </s>
-0.7782 WINDOW TO CLIPBOARD
-0.7782 WINDOW TO LAST
-0.7782 WINDOW TO PICTURES
-0.3010 WINDOW/INSTANCE CODE </s>
-0.3010 WINDOWS DIRECTLY </s>
-0.3010 WINDOWS OF AN
-0.3010 WITH A NEW
-0.3010 WITH DEFAULT APPLICATION
-0.3010 WITHIN LINK-TEXT ONLY
-0.3010 WORD CODE </s>
-0.3010 WORD GEDIT </s>
-0.3010 WORD LEFT ONE
-0.3010 WORD RIGHT ONE
-0.3010 WORD TERMINAL </s>
-0.3010 WORD TO THE
-0.3010 WORD WRAP CODE
-0.3010 WORKING SPACE </s>
-0.3010 WORKSPACE ABOVE </s>
-0.3010 WORKSPACE BELOW </s>
-0.3010 WORKSPACE DOWN </s>
-0.3010 WORKSPACE UP </s>
-0.3010 WRAP CODE </s>
-0.3010 ZEN MODE CODE
-1.0000 ZOOM IN </s>
-1.0000 ZOOM IN CODE
-1.0000 ZOOM IN FIREFOX
-1.0000 ZOOM IN NAUTILUS
-1.0000 ZOOM IN TERMINAL
-0.3010 ZOOM NAUTILUS </s>
-0.3010 ZOOM OFF </s>
-0.3010 ZOOM ON </s>
-1.0000 ZOOM OUT </s>
-1.0000 ZOOM OUT CODE
-1.0000 ZOOM OUT FIREFOX
-1.0000 ZOOM OUT NAUTILUS
-1.0000 ZOOM OUT TERMINAL
-0.3010 ZOOM RESET FIREFOX

\end\
